{"learner":{"attributes":{"best_iteration":"199","best_ntree_limit":"200","scikit_learn":"{\"use_label_encoder\": null, \"n_estimators\": 200, \"objective\": \"binary:logistic\", \"max_depth\": 7, \"max_leaves\": null, \"max_bin\": null, \"grow_policy\": null, \"learning_rate\": 0.1, \"verbosity\": null, \"booster\": null, \"tree_method\": null, \"gamma\": null, \"min_child_weight\": null, \"max_delta_step\": null, \"subsample\": null, \"sampling_method\": null, \"colsample_bytree\": null, \"colsample_bylevel\": null, \"colsample_bynode\": null, \"reg_alpha\": null, \"reg_lambda\": null, \"scale_pos_weight\": null, \"base_score\": null, \"missing\": NaN, \"num_parallel_tree\": null, \"random_state\": null, \"n_jobs\": null, \"monotone_constraints\": null, \"interaction_constraints\": null, \"importance_type\": null, \"gpu_id\": null, \"validate_parameters\": null, \"predictor\": null, \"enable_categorical\": false, \"feature_types\": null, \"max_cat_to_onehot\": null, \"max_cat_threshold\": null, \"eval_metric\": null, \"early_stopping_rounds\": null, \"callbacks\": null, \"classes_\": [0, 1], \"n_classes_\": 2, \"_estimator_type\": \"classifier\"}"},"feature_names":["industry","location","ITU","YTU","anadolu_üniversitesi","diğer_school","ege_üniversitesi","hacettepe_üniversitesi","istanbul_üniversitesi","kocaeli_üniversitesi","marmara_üniversitesi","sakarya_üniversitesi","business_administration_and_management","chemical_engineering","civil_engineering","computer_engineering","computer_programming","diğer_fields_of_study","economics","electrical_and_electronics_engineering","engineering_management","industrial_engineering","information_technology","mathematics","mechanical_engineering","physics","software_engineering","school_count","US","adana","ankara","antalya","bursa","denizli","diğer_x","elazig","eskisehir","istanbul","izmir","kayseri","kocaeli","konya","manisa","mersin","mugla","sakarya","samsun","tekirdağ","trabzon","exp_comp_count","experience_month","almanca","arapça","azerice","diğer_y","fransızca","ingilizce","ispanyolca","italyanca","japonca","rusça","türkçe","elementary","full_professional","limited_working","native_or_bilingual","professional_working","language_count",".NET","AJAX","ASP.NET","Agile Methodologies","Android","AutoCAD","C","C#","C++","CSS","Docker","Eclipse","Engineering","English","Entity Framework","Git","HTML","Hibernate","JIRA","JSON","Java","JavaScript","Linux","Matlab","Microsoft Excel","Microsoft Office","Microsoft Word","MongoDB","Node.js","OOP","PHP","Photoshop","Programming","Project Management","Python","React.js","SQL","Scrum","Software Development","Software Engineering","Spring Framework","Teamwork","Visual Studio","Web Development","XML","jQuery","other","skill_count"],"feature_types":["int","int","float","float","float","float","float","float","float","float","float","float","float","float","float","float","float","float","float","float","float","float","float","float","float","float","float","float","float","float","float","float","float","float","float","float","float","float","float","float","float","float","float","float","float","float","float","float","float","float","float","float","float","float","float","float","float","float","float","float","float","float","float","float","float","float","float","float","float","float","float","float","float","float","float","float","float","float","float","float","float","float","float","float","float","float","float","float","float","float","float","float","float","float","float","float","float","float","float","float","float","float","float","float","float","float","float","float","float","float","float","float","float","float","float","float"],"gradient_booster":{"model":{"gbtree_model_param":{"num_parallel_tree":"1","num_trees":"200","size_leaf_vector":"0"},"tree_info":[0,0,0,0,0,0,0,0,0,0,0,0,0,0,0,0,0,0,0,0,0,0,0,0,0,0,0,0,0,0,0,0,0,0,0,0,0,0,0,0,0,0,0,0,0,0,0,0,0,0,0,0,0,0,0,0,0,0,0,0,0,0,0,0,0,0,0,0,0,0,0,0,0,0,0,0,0,0,0,0,0,0,0,0,0,0,0,0,0,0,0,0,0,0,0,0,0,0,0,0,0,0,0,0,0,0,0,0,0,0,0,0,0,0,0,0,0,0,0,0,0,0,0,0,0,0,0,0,0,0,0,0,0,0,0,0,0,0,0,0,0,0,0,0,0,0,0,0,0,0,0,0,0,0,0,0,0,0,0,0,0,0,0,0,0,0,0,0,0,0,0,0,0,0,0,0,0,0,0,0,0,0,0,0,0,0,0,0,0,0,0,0,0,0,0,0,0,0,0,0],"trees":[{"base_weights":[-4.5161533E-1,-1.9987636E0,-2.3657022E-1,1.9980397E0,-4.5122412E-1,-1.9986922E0,-1.9088735E-1,1.0090984E0,-4.8981693E-1,1.6214916E0,6.876574E-1,-9.844592E-1,-1.118178E-1,1.4128944E0,1.9076923E0,-9.13811E-2,1.2146376E0,-5.436409E-1,-1.2943401E0,4.1605136E-1,-4.3158612E-1,1.1197411E0,1.4865568E0,5.394191E-1,-1.811723E-1,9.20882E-1,1.5582823E0,-9.6868294E-1,-1.995842E-1,-1.4860406E0,-1.1511164E0,2.5222176E-1,9.28382E-1,-7.355232E-1,-2.1456288E-2],"categories":[],"categories_nodes":[],"categories_segments":[],"categories_sizes":[],"default_left":[1,0,1,0,1,0,1,1,1,1,1,1,1,1,0,1,1,1,1,1,1,0,0,0,0,0,0,0,0,0,0,0,0,0,0],"id":0,"left_children":[1,-1,3,-1,5,-1,7,9,11,13,15,17,19,21,-1,23,25,27,29,31,33,-1,-1,-1,-1,-1,-1,-1,-1,-1,-1,-1,-1,-1,-1],"loss_changes":[4.4098027E3,0E0,5.5838735E3,0E0,4.2780215E3,0E0,3.2618074E3,3.558694E2,1.3609232E3,3.4527954E1,4.8906152E2,4.2999976E2,6.9684216E2,6.206543E0,0E0,2.7370031E1,7.028833E1,1.9039206E2,4.9104004E1,1.3049448E2,3.2043762E2,0E0,0E0,0E0,0E0,0E0,0E0,0E0,0E0,0E0,0E0,0E0,0E0,0E0,0E0],"parents":[2147483647,0,0,2,2,4,4,6,6,7,7,8,8,9,9,10,10,11,11,12,12,13,13,15,15,16,16,17,17,18,18,19,19,20,20],"right_children":[2,-1,4,-1,6,-1,8,10,12,14,16,18,20,22,-1,24,26,28,30,32,34,-1,-1,-1,-1,-1,-1,-1,-1,-1,-1,-1,-1,-1,-1],"split_conditions":[-1.0822151E0,-1.9987635E-1,-7.6676106E-1,1.9980398E-1,-6.337167E-1,-1.9986922E-1,-3.682762E-1,-6.3867664E-1,2.6327989E-1,-1.852184E-1,-1.852184E-1,8.713504E-2,3.1484067E-1,8.5E0,1.9076924E-1,-5.9598184E-1,2.6327989E-1,-1.852184E-1,-1.852184E-1,1.1602765E0,1.1602765E0,1.1197411E-1,1.4865568E-1,5.3941913E-2,-1.811723E-2,9.20882E-2,1.5582822E-1,-9.68683E-2,-1.995842E-2,-1.4860407E-1,-1.1511164E-1,2.5222177E-2,9.28382E-2,-7.3552325E-2,-2.145629E-3],"split_indices":[49,0,50,0,49,0,50,50,49,49,49,50,50,0,0,50,49,49,49,49,49,0,0,0,0,0,0,0,0,0,0,0,0,0,0],"split_type":[0,0,0,0,0,0,0,0,0,0,0,0,0,0,0,0,0,0,0,0,0,0,0,0,0,0,0,0,0,0,0,0,0,0,0],"sum_hessian":[1.325475E4,1.6165E3,1.163825E4,1.01925E3,1.0619E4,1.52825E3,9.09075E3,1.8125E3,7.27825E3,6.225E2,1.19E3,3.152E3,4.12625E3,3.635E2,2.59E2,4.805E2,7.095E2,1.30225E3,1.84975E3,1.5565E3,2.56975E3,7.625E1,2.8725E2,5.925E1,4.2125E2,3.845E2,3.25E2,5.8175E2,7.205E2,7.87E2,1.06275E3,1.1805E3,3.76E2,1.4755E3,1.09425E3],"tree_param":{"num_deleted":"0","num_feature":"116","num_nodes":"35","size_leaf_vector":"0"}},{"base_weights":[-4.0841603E-1,-1.8176963E0,-2.1373074E-1,1.8170906E0,-4.075052E-1,-1.8176366E0,-1.7212577E-1,9.123258E-1,-4.416833E-1,1.402736E0,5.760919E-1,-8.888741E-1,-1.0070411E-1,1.1689205E0,1.7132173E0,-1.6311166E-1,1.0537591E0,-4.899399E-1,-1.1701957E0,3.7477896E-1,-3.887776E-1,1.2789443E0,4.8673332E-1,1.7220948E0,-8.494917E-2,-9.250822E-2,-5.428075E-1,7.714473E-1,1.3827461E0,-8.741002E-1,-1.7967214E-1,-1.0365309E0,-1.3417737E0,9.223788E-2,6.334728E-1,-6.6294897E-1,-1.931256E-2],"categories":[],"categories_nodes":[],"categories_segments":[],"categories_sizes":[],"default_left":[1,0,1,0,1,0,1,1,1,1,1,1,1,1,1,1,1,1,1,1,1,0,0,0,0,0,0,0,0,0,0,0,0,0,0,0,0],"id":1,"left_children":[1,-1,3,-1,5,-1,7,9,11,13,15,17,19,21,23,25,27,29,31,33,35,-1,-1,-1,-1,-1,-1,-1,-1,-1,-1,-1,-1,-1,-1,-1,-1],"loss_changes":[3.6199163E3,0E0,4.563501E3,0E0,3.5132004E3,0E0,2.6524844E3,2.9706726E2,1.1079998E3,5.1288208E1,3.7918213E2,3.5224316E2,5.6506213E2,3.104303E1,5.145874E0,1.126847E1,5.9506165E1,1.5500967E2,4.087451E1,1.1370892E2,2.6019373E2,0E0,0E0,0E0,0E0,0E0,0E0,0E0,0E0,0E0,0E0,0E0,0E0,0E0,0E0,0E0,0E0],"parents":[2147483647,0,0,2,2,4,4,6,6,7,7,8,8,9,9,10,10,11,11,12,12,13,13,14,14,15,15,16,16,17,17,18,18,19,19,20,20],"right_children":[2,-1,4,-1,6,-1,8,10,12,14,16,18,20,22,24,26,28,30,32,34,36,-1,-1,-1,-1,-1,-1,-1,-1,-1,-1,-1,-1,-1,-1,-1,-1],"split_conditions":[-1.0822151E0,-1.8176964E-1,-7.6676106E-1,1.8170907E-1,-6.337167E-1,-1.8176366E-1,-3.682762E-1,-5.9598184E-1,2.6327989E-1,-1.852184E-1,-1.852184E-1,8.713504E-2,3.1484067E-1,-6.3867664E-1,5E-1,-4.252026E-1,2.6327989E-1,-1.852184E-1,7.2755706E-1,7.1177816E-1,1.1602765E0,1.2789443E-1,4.867333E-2,1.7220949E-1,-8.494917E-3,-9.2508225E-3,-5.4280754E-2,7.7144735E-2,1.3827461E-1,-8.7410025E-2,-1.7967215E-2,-1.0365309E-1,-1.3417737E-1,9.223788E-3,6.334728E-2,-6.62949E-2,-1.931256E-3],"split_indices":[49,0,50,0,49,0,50,50,49,49,49,50,50,50,13,50,49,49,50,49,49,0,0,0,0,0,0,0,0,0,0,0,0,0,0,0,0],"split_type":[0,0,0,0,0,0,0,0,0,0,0,0,0,0,0,0,0,0,0,0,0,0,0,0,0,0,0,0,0,0,0,0,0,0,0,0,0],"sum_hessian":[1.3194159E4,1.6004619E3,1.1593697E4,1.0091448E3,1.0584552E4,1.5130886E3,9.071464E3,1.8054816E3,7.265982E3,7.330817E2,1.0723998E3,3.1427239E3,4.1232583E3,4.2088727E2,3.1219446E2,4.2121545E2,6.511843E2,1.3008156E3,1.8419083E3,1.5555033E3,2.567755E3,3.6168036E2,5.920692E1,3.1070285E2,1.4916297E0,3.562208E2,6.499467E1,3.522527E2,2.9893164E2,5.803874E2,7.204282E2,1.0393007E3,8.026076E2,7.4413165E2,8.113716E2,1.4735061E3,1.0942488E3],"tree_param":{"num_deleted":"0","num_feature":"116","num_nodes":"37","size_leaf_vector":"0"}},{"base_weights":[-3.723389E-1,-1.681658E0,-1.9437708E-1,1.6811173E0,-3.701818E-1,-1.6816047E0,-1.5576643E-1,6.114705E-1,-4.7049847E-1,1.2845867E0,3.5574815E-1,-9.2867833E-1,-1.5574251E-1,1.0652171E0,1.5791557E0,-3.286103E-1,7.2174245E-1,-6.841788E-1,-1.1357392E0,9.3457006E-2,-5.505912E-1,1.2021691E0,5.7500404E-1,1.5875423E0,-7.983443E-2,-8.329276E-2,-6.121681E-1,9.585954E-1,4.6381935E-1,-9.75503E-1,-4.5341405E-1,-1.1483958E0,8.81985E-1,-4.404646E-2,8.866699E-1,-7.3761106E-1,-1.24066584E-1],"categories":[],"categories_nodes":[],"categories_segments":[],"categories_sizes":[],"default_left":[1,0,1,0,1,0,1,1,1,1,1,1,1,1,1,1,1,1,1,1,1,0,0,0,0,0,0,0,0,0,0,0,0,0,0,0,0],"id":2,"left_children":[1,-1,3,-1,5,-1,7,9,11,13,15,17,19,21,23,25,27,29,31,33,35,-1,-1,-1,-1,-1,-1,-1,-1,-1,-1,-1,-1,-1,-1,-1,-1],"loss_changes":[3.037828E3,0E0,3.785738E3,0E0,2.9513025E3,0E0,2.1790579E3,4.5139673E2,9.226478E2,4.4994507E1,4.7706586E2,1.3112988E2,3.7338928E2,2.7310028E1,4.3876953E0,4.6140656E1,7.5348755E1,8.00459E1,3.7001343E1,2.5384363E2,1.1702756E2,0E0,0E0,0E0,0E0,0E0,0E0,0E0,0E0,0E0,0E0,0E0,0E0,0E0,0E0,0E0,0E0],"parents":[2147483647,0,0,2,2,4,4,6,6,7,7,8,8,9,9,10,10,11,11,12,12,13,13,14,14,15,15,16,16,17,17,18,18,19,19,20,20],"right_children":[2,-1,4,-1,6,-1,8,10,12,14,16,18,20,22,24,26,28,30,32,34,36,-1,-1,-1,-1,-1,-1,-1,-1,-1,-1,-1,-1,-1,-1,-1,-1],"split_conditions":[-1.0822151E0,-1.681658E-1,-7.6676106E-1,1.6811173E-1,-6.337167E-1,-1.6816048E-1,-1.9749698E-1,-5.9598184E-1,2.6327989E-1,-1.852184E-1,-1.852184E-1,3.1484067E-1,8.271783E-1,-6.671398E-1,5E-1,-4.252026E-1,-3.682762E-1,-1.852184E-1,3.782525E0,1.6087748E0,1.6087748E0,1.20216906E-1,5.7500403E-2,1.5875423E-1,-7.983443E-3,-8.329276E-3,-6.121681E-2,9.585954E-2,4.6381935E-2,-9.75503E-2,-4.5341406E-2,-1.14839576E-1,8.8198505E-2,-4.4046463E-3,8.866699E-2,-7.3761106E-2,-1.2406658E-2],"split_indices":[49,0,50,0,49,0,50,50,49,49,49,50,50,50,13,50,50,49,27,49,49,0,0,0,0,0,0,0,0,0,0,0,0,0,0,0,0],"split_type":[0,0,0,0,0,0,0,0,0,0,0,0,0,0,0,0,0,0,0,0,0,0,0,0,0,0,0,0,0,0,0,0,0,0,0,0,0],"sum_hessian":[1.3037801E4,1.5590377E3,1.1478764E4,9.83043E2,1.0495721E4,1.4739285E3,9.021792E3,2.6240588E3,6.3977334E3,7.213328E2,1.902726E3,2.604499E3,3.7932341E3,4.16085E2,3.0524786E2,6.630384E2,1.2396875E3,1.1962545E3,1.4082445E3,2.325998E3,1.4672361E3,3.240907E2,9.199428E1,3.0375537E2,1.4924961E0,3.561833E2,3.068551E2,6.448237E2,5.948638E2,5.273214E2,6.689331E2,1.3998943E3,8.350262E0,1.9831615E3,3.428366E2,1.019488E3,4.4774814E2],"tree_param":{"num_deleted":"0","num_feature":"116","num_nodes":"37","size_leaf_vector":"0"}},{"base_weights":[-3.4132165E-1,-1.5760078E0,-1.77548E-1,1.575501E0,-3.375596E-1,-1.5759578E0,-1.4125144E-1,5.568851E-1,-4.2639473E-1,1.1857419E0,3.2221183E-1,-7.0360255E-1,1.4881357E-2,9.758895E-1,1.4724088E0,-2.967504E-1,6.547145E-1,-4.4121596E-1,-9.148216E-1,3.2103443E-1,-3.761668E-1,1.1047825E0,5.210745E-1,1.4805037E0,-7.502969E-2,-7.499698E-2,-5.545321E-1,5.305996E-1,1.1414764E0,-8.8973814E-1,-2.4950027E-1,-1.1985477E0,-8.1245273E-1,1.6176632E-1,8.0232483E-1,-5.637811E-1,-1.1169476E-1],"categories":[],"categories_nodes":[],"categories_segments":[],"categories_sizes":[],"default_left":[1,0,1,0,1,0,1,1,1,1,1,1,1,1,1,1,1,1,1,1,1,0,0,0,0,0,0,0,0,0,0,0,0,0,0,0,0],"id":3,"left_children":[1,-1,3,-1,5,-1,7,9,11,13,15,17,19,21,23,25,27,29,31,33,35,-1,-1,-1,-1,-1,-1,-1,-1,-1,-1,-1,-1,-1,-1,-1,-1],"loss_changes":[2.5920642E3,0E0,3.1758508E3,0E0,2.52175E3,0E0,1.7830095E3,3.8294208E2,7.7788586E2,4.1005493E1,3.897769E2,2.1604993E2,2.9397012E2,2.347699E1,3.8215942E0,3.7812824E1,7.380951E1,1.4972195E2,6.1845825E1,1.05438675E2,5.343872E1,0E0,0E0,0E0,0E0,0E0,0E0,0E0,0E0,0E0,0E0,0E0,0E0,0E0,0E0,0E0,0E0],"parents":[2147483647,0,0,2,2,4,4,6,6,7,7,8,8,9,9,10,10,11,11,12,12,13,13,14,14,15,15,16,16,17,17,18,18,19,19,20,20],"right_children":[2,-1,4,-1,6,-1,8,10,12,14,16,18,20,22,24,26,28,30,32,34,36,-1,-1,-1,-1,-1,-1,-1,-1,-1,-1,-1,-1,-1,-1,-1,-1],"split_conditions":[-1.0822151E0,-1.5760079E-1,-7.6676106E-1,1.575501E-1,-6.337167E-1,-1.5759578E-1,-1.9749698E-1,-5.9598184E-1,7.1177816E-1,-1.852184E-1,-1.852184E-1,3.1484067E-1,8.271783E-1,-6.671398E-1,5E-1,-4.252026E-1,7.1177816E-1,-1.852184E-1,-1.852184E-1,1.6087748E0,1.6087748E0,1.10478245E-1,5.210745E-2,1.4805037E-1,-7.5029694E-3,-7.499698E-3,-5.545321E-2,5.305996E-2,1.1414764E-1,-8.897381E-2,-2.4950027E-2,-1.1985477E-1,-8.124527E-2,1.6176632E-2,8.0232486E-2,-5.6378108E-2,-1.1169476E-2],"split_indices":[49,0,50,0,49,0,50,50,49,49,49,50,50,50,13,50,49,49,49,49,49,0,0,0,0,0,0,0,0,0,0,0,0,0,0,0,0],"split_type":[0,0,0,0,0,0,0,0,0,0,0,0,0,0,0,0,0,0,0,0,0,0,0,0,0,0,0,0,0,0,0,0,0,0,0,0,0],"sum_hessian":[1.2819119E4,1.5002372E3,1.1318882E4,9.4599036E2,1.0372892E4,1.4183414E3,8.95455E3,2.5964714E3,6.358078E3,7.0451685E2,1.8919546E3,3.9046187E3,2.4534597E3,4.0929776E2,2.952191E2,6.612076E2,1.2307471E3,1.7427627E3,2.161856E3,1.3762037E3,1.077256E3,3.1780414E2,9.149363E1,2.9372583E2,1.493262E0,3.5613654E2,3.05071E2,9.823554E2,2.4839171E2,5.2077045E2,1.2219923E3,5.7035345E2,1.5915024E3,1.035029E3,3.411746E2,6.295364E2,4.477196E2],"tree_param":{"num_deleted":"0","num_feature":"116","num_nodes":"37","size_leaf_vector":"0"}},{"base_weights":[-3.1420416E-1,-1.4918747E0,-1.6272703E-1,1.4913813E0,-3.0873558E-1,-1.491826E0,-1.2832153E-1,7.047953E-1,-3.3073255E-1,1.1640786E0,4.7632912E-1,-6.8249005E-1,-6.8829775E-2,9.9249345E-1,1.4120086E0,-6.0170893E-2,8.537701E-1,-3.7366456E-1,-9.071444E-1,4.6132633E-1,-2.3147918E-1,7.100767E-1,1.0652095E0,-1.0763641E-1,6.1612123E-1,6.0501444E-1,1.1535133E0,-6.498614E-1,-1.5601979E-1,-1.0710171E0,-7.870127E-1,2.1836948E-1,7.326386E-1,-4.279456E-1,5.6527972E-2],"categories":[],"categories_nodes":[],"categories_segments":[],"categories_sizes":[],"default_left":[1,0,1,0,1,0,1,1,1,1,1,1,1,1,0,1,1,1,1,1,1,0,0,0,0,0,0,0,0,0,0,0,0,0,0],"id":4,"left_children":[1,-1,3,-1,5,-1,7,9,11,13,15,17,19,21,-1,23,25,27,29,31,33,-1,-1,-1,-1,-1,-1,-1,-1,-1,-1,-1,-1,-1,-1],"loss_changes":[2.2399028E3,0E0,2.68792E3,0E0,2.1824705E3,0E0,1.4966519E3,1.8148602E2,6.5773517E2,2.3085999E1,2.3499759E2,2.1106958E2,3.5311774E2,6.298889E0,0E0,1.547761E1,5.00907E1,7.7137054E1,3.3869263E1,6.3215683E1,1.7732402E2,0E0,0E0,0E0,0E0,0E0,0E0,0E0,0E0,0E0,0E0,0E0,0E0,0E0,0E0],"parents":[2147483647,0,0,2,2,4,4,6,6,7,7,8,8,9,9,10,10,11,11,12,12,13,13,15,15,16,16,17,17,18,18,19,19,20,20],"right_children":[2,-1,4,-1,6,-1,8,10,12,14,16,18,20,22,-1,24,26,28,30,32,34,-1,-1,-1,-1,-1,-1,-1,-1,-1,-1,-1,-1,-1,-1],"split_conditions":[-1.0822151E0,-1.4918748E-1,-7.6676106E-1,1.4913814E-1,-6.337167E-1,-1.491826E-1,-3.682762E-1,-6.3867664E-1,2.6327989E-1,-1.852184E-1,-1.852184E-1,8.713504E-2,1.5977032E-2,8.5E0,1.4120087E-1,5E-1,2.6327989E-1,-1.852184E-1,-1.852184E-1,7.1177816E-1,1.1602765E0,7.100767E-2,1.0652095E-1,-1.07636405E-2,6.1612125E-2,6.0501445E-2,1.15351334E-1,-6.498614E-2,-1.560198E-2,-1.07101716E-1,-7.870127E-2,2.183695E-2,7.326386E-2,-4.2794563E-2,5.6527974E-3],"split_indices":[49,0,50,0,49,0,50,50,49,49,49,50,50,0,0,69,49,49,49,49,49,0,0,0,0,0,0,0,0,0,0,0,0,0,0],"split_type":[0,0,0,0,0,0,0,0,0,0,0,0,0,0,0,0,0,0,0,0,0,0,0,0,0,0,0,0,0,0,0,0,0,0,0],"sum_hessian":[1.2556562E4,1.4300079E3,1.1126554E4,9.0173413E2,1.0224819E4,1.3519498E3,8.87287E3,1.7338639E3,7.139006E3,5.746186E2,1.1592452E3,3.046156E3,4.09285E3,3.4255164E2,2.3206697E2,4.7909427E2,6.8015094E2,1.2838922E3,1.7622639E3,9.6044403E2,3.132406E3,7.234419E1,2.7020743E2,4.4846E2,3.0634287E1,3.7333786E2,3.0681308E2,5.6495886E2,7.189333E2,7.420762E2,1.02018774E3,5.0765234E2,4.5279172E2,1.8618463E3,1.2705597E3],"tree_param":{"num_deleted":"0","num_feature":"116","num_nodes":"35","size_leaf_vector":"0"}},{"base_weights":[-2.9004723E-1,-1.4235508E0,-1.4944065E-1,1.4230571E0,-2.8289288E-1,-1.4235023E0,-1.1665139E-1,7.558246E-1,-2.7868375E-1,4.7243604E-1,1.0303115E0,-5.787074E-1,-4.5499306E-2,9.186444E-1,3.8357463E-2,1.2847933E0,8.121811E-1,-2.8601065E-1,-8.3545667E-1,2.0511639E-1,-3.817449E-1,7.372862E-1,1.039828E0,1.0780829E-1,-4.0296E-1,1.2909719E0,2.6658925E-1,5.342502E-1,1.1645991E0,-5.337876E-1,-7.6556E-2,-7.1597165E-1,-9.914414E-1,5.639859E-1,5.2809816E-2,-6.096101E-1,-1.2482897E-1],"categories":[],"categories_nodes":[],"categories_segments":[],"categories_sizes":[],"default_left":[1,0,1,0,1,0,1,1,1,1,1,1,1,1,1,1,1,1,1,1,1,0,0,0,0,0,0,0,0,0,0,0,0,0,0,0,0],"id":5,"left_children":[1,-1,3,-1,5,-1,7,9,11,13,15,17,19,21,23,25,27,29,31,33,35,-1,-1,-1,-1,-1,-1,-1,-1,-1,-1,-1,-1,-1,-1,-1,-1],"loss_changes":[1.9551155E3,0E0,2.2910974E3,0E0,1.907874E3,0E0,1.2419521E3,1.0654999E2,5.1828827E2,1.314576E2,3.7710815E1,2.4323743E2,3.5145663E2,6.589752E0,1.0622648E1,1.6721191E0,3.6464935E1,7.8609505E1,3.1447876E1,1.3058871E2,1.0418857E2,0E0,0E0,0E0,0E0,0E0,0E0,0E0,0E0,0E0,0E0,0E0,0E0,0E0,0E0,0E0,0E0],"parents":[2147483647,0,0,2,2,4,4,6,6,7,7,8,8,9,9,10,10,11,11,12,12,13,13,14,14,15,15,16,16,17,17,18,18,19,19,20,20],"right_children":[2,-1,4,-1,6,-1,8,10,12,14,16,18,20,22,24,26,28,30,32,34,36,-1,-1,-1,-1,-1,-1,-1,-1,-1,-1,-1,-1,-1,-1,-1,-1],"split_conditions":[-1.0822151E0,-1.4235508E-1,-7.6676106E-1,1.4230572E-1,-6.337167E-1,-1.4235024E-1,-4.8212904E-1,-1.852184E-1,2.6327989E-1,-6.3867664E-1,-5.53287E-1,8.713504E-2,6.5639913E-1,5E-1,5E-1,5E-1,2.6327989E-1,-1.852184E-1,7.2755706E-1,-8.364418E-2,1.1602765E0,7.372862E-2,1.039828E-1,1.0780829E-2,-4.0296E-2,1.290972E-1,2.6658926E-2,5.342502E-2,1.16459906E-1,-5.337876E-2,-7.6555996E-3,-7.159717E-2,-9.9144146E-2,5.639859E-2,5.280982E-3,-6.0961008E-2,-1.2482897E-2],"split_indices":[49,0,50,0,49,0,50,49,49,50,50,50,50,34,51,13,49,49,50,50,49,0,0,0,0,0,0,0,0,0,0,0,0,0,0,0,0],"split_type":[0,0,0,0,0,0,0,0,0,0,0,0,0,0,0,0,0,0,0,0,0,0,0,0,0,0,0,0,0,0,0,0,0,0,0,0,0],"sum_hessian":[1.2267488E4,1.3527924E3,1.0914696E4,8.530736E2,1.0061622E4,1.2789536E3,8.782669E3,1.3750325E3,7.407636E3,6.778847E2,6.9714777E2,3.2388853E3,4.168751E3,3.3372147E2,3.441632E2,3.19506E2,3.7764175E2,1.5144785E3,1.7244067E3,2.3887334E3,1.7800175E3,1.3651016E2,1.972113E2,2.980192E2,4.614404E1,3.1731262E2,2.1933796E0,2.125401E2,1.6510167E2,6.9306287E2,8.2141565E2,9.796105E2,7.447963E2,7.109256E2,1.6778079E3,9.4261536E2,8.3740204E2],"tree_param":{"num_deleted":"0","num_feature":"116","num_nodes":"37","size_leaf_vector":"0"}},{"base_weights":[-2.682736E-1,-1.3671892E0,-1.3744825E-1,1.3666841E0,-2.5954738E-1,-1.3671393E0,-1.0612081E-1,5.807997E-1,-2.800173E-1,9.684611E-1,3.5756803E-1,-5.8564955E-1,-6.0406733E-2,7.742627E-1,1.2538732E0,-1.2614222E-1,6.798287E-1,-3.8889024E-1,-8.2933533E-1,1.5804917E-1,-3.5268292E-1,8.824319E-1,4.1359055E-1,1.262507E0,-1.4743568E-1,-4.9224594E-1,-5.359336E-2,5.631356E-1,1.2368706E0,-6.120835E-1,-2.1411222E-1,-8.422809E-1,1.1083348E0,6.824327E-2,7.7777594E-1,-4.291444E-1,3.1371406E-1],"categories":[],"categories_nodes":[],"categories_segments":[],"categories_sizes":[],"default_left":[1,0,1,0,1,0,1,1,1,1,1,1,1,1,1,1,1,1,1,1,1,0,0,0,0,0,0,0,0,0,0,0,0,0,0,0,0],"id":6,"left_children":[1,-1,3,-1,5,-1,7,9,11,13,15,17,19,21,23,25,27,29,31,33,35,-1,-1,-1,-1,-1,-1,-1,-1,-1,-1,-1,-1,-1,-1,-1,-1],"loss_changes":[1.7201451E3,0E0,1.964397E3,0E0,1.6808761E3,0E0,1.038175E3,1.5159436E2,4.6543878E2,3.455774E1,1.740112E2,1.386997E2,2.577824E2,1.4619019E1,3.3067627E0,1.1845335E1,4.2841705E1,6.2520905E1,3.3402344E1,1.2854587E2,8.8123215E1,0E0,0E0,0E0,0E0,0E0,0E0,0E0,0E0,0E0,0E0,0E0,0E0,0E0,0E0,0E0,0E0],"parents":[2147483647,0,0,2,2,4,4,6,6,7,7,8,8,9,9,10,10,11,11,12,12,13,13,14,14,15,15,16,16,17,17,18,18,19,19,20,20],"right_children":[2,-1,4,-1,6,-1,8,10,12,14,16,18,20,22,24,26,28,30,32,34,36,-1,-1,-1,-1,-1,-1,-1,-1,-1,-1,-1,-1,-1,-1,-1,-1],"split_conditions":[-1.0822151E0,-1.3671891E-1,-7.6676106E-1,1.3666841E-1,-6.337167E-1,-1.3671394E-1,-3.5404462E-1,-5.9598184E-1,2.6327989E-1,-1.852184E-1,-1.852184E-1,3.1484067E-1,6.706307E-1,-6.671398E-1,5E-1,7.5E0,7.1177816E-1,-1.852184E-1,3.782525E0,1.6087748E0,2.5057714E0,8.8243194E-2,4.1359056E-2,1.262507E-1,-1.4743568E-2,-4.9224596E-2,-5.3593363E-3,5.6313563E-2,1.23687066E-1,-6.120835E-2,-2.1411223E-2,-8.422809E-2,1.1083348E-1,6.824327E-3,7.7777594E-2,-4.2914443E-2,3.1371407E-2],"split_indices":[49,0,50,0,49,0,50,50,49,49,49,50,50,50,13,0,49,49,27,49,49,0,0,0,0,0,0,0,0,0,0,0,0,0,0,0,0],"split_type":[0,0,0,0,0,0,0,0,0,0,0,0,0,0,0,0,0,0,0,0,0,0,0,0,0,0,0,0,0,0,0,0,0,0,0,0,0],"sum_hessian":[1.1965201E4,1.2719064E3,1.0693295E4,8.020983E2,9.891196E3,1.2024873E3,8.688709E3,1.7547621E3,6.933947E3,6.400028E2,1.1147593E3,2.8984727E3,4.0354744E3,3.8306964E2,2.5693317E2,4.4597043E2,6.687888E2,1.6050791E3,1.2933936E3,2.3096401E3,1.7258342E3,2.9357645E2,8.949317E1,2.5545827E2,1.4748857E0,7.2802376E1,3.7316806E2,5.546151E2,1.14173744E2,7.0380774E2,9.012714E2,1.2853713E3,8.022239E0,2.0182773E3,2.9136264E2,1.5485157E3,1.7731854E2],"tree_param":{"num_deleted":"0","num_feature":"116","num_nodes":"37","size_leaf_vector":"0"}},{"base_weights":[-2.4843578E-1,-1.320096E0,-1.2650868E-1,1.3195713E0,-2.3829958E-1,-1.3200443E0,-9.65431E-2,4.0952092E-1,-2.9816946E-1,9.0773916E-1,2.4150032E-1,-5.1370764E-1,3.18402E-2,7.161264E-1,1.1984271E0,-1.8747862E-1,4.7764072E-1,-3.214835E-1,-6.7556083E-1,2.672131E-1,-2.7020738E-1,8.2077163E-1,3.75504E-1,1.2071528E0,-1.3849853E-1,-4.1103806E-2,-3.6346143E-1,3.8199776E-1,8.7263995E-1,-6.4895177E-1,-1.8922669E-1,-9.19369E-1,-5.92441E-1,1.8456383E-1,9.13801E-1,-3.4072527E-1,1.4025335E-1],"categories":[],"categories_nodes":[],"categories_segments":[],"categories_sizes":[],"default_left":[1,0,1,0,1,0,1,1,1,1,1,1,1,1,1,1,1,1,1,1,1,0,0,0,0,0,0,0,0,0,0,0,0,0,0,0,0],"id":7,"left_children":[1,-1,3,-1,5,-1,7,9,11,13,15,17,19,21,23,25,27,29,31,33,35,-1,-1,-1,-1,-1,-1,-1,-1,-1,-1,-1,-1,-1,-1,-1,-1],"loss_changes":[1.5231588E3,0E0,1.6926366E3,0E0,1.4900935E3,0E0,8.769427E2,2.0476419E2,4.3714746E2,3.3518646E1,1.8572272E2,1.15444885E2,1.7275636E2,1.3039505E1,3.0102844E0,1.6762888E1,4.4328705E1,7.355885E1,4.0336975E1,7.281212E1,3.085389E1,0E0,0E0,0E0,0E0,0E0,0E0,0E0,0E0,0E0,0E0,0E0,0E0,0E0,0E0,0E0,0E0],"parents":[2147483647,0,0,2,2,4,4,6,6,7,7,8,8,9,9,10,10,11,11,12,12,13,13,14,14,15,15,16,16,17,17,18,18,19,19,20,20],"right_children":[2,-1,4,-1,6,-1,8,10,12,14,16,18,20,22,24,26,28,30,32,34,36,-1,-1,-1,-1,-1,-1,-1,-1,-1,-1,-1,-1,-1,-1,-1,-1],"split_conditions":[-1.0822151E0,-1.3200961E-1,-7.6676106E-1,1.3195713E-1,-6.337167E-1,-1.3200442E-1,-1.9749698E-1,-5.9598184E-1,7.1177816E-1,-1.852184E-1,-1.852184E-1,3.1484067E-1,8.271783E-1,-6.671398E-1,5E-1,-4.252026E-1,7.1177816E-1,-1.852184E-1,-1.852184E-1,2.0572731E0,2.5057714E0,8.207717E-2,3.75504E-2,1.2071528E-1,-1.3849854E-2,-4.1103805E-3,-3.6346145E-2,3.819978E-2,8.7263994E-2,-6.4895175E-2,-1.892267E-2,-9.19369E-2,-5.9244104E-2,1.8456383E-2,9.1380104E-2,-3.407253E-2,1.4025335E-2],"split_indices":[49,0,50,0,49,0,50,50,49,49,49,50,50,50,13,50,49,49,49,49,49,0,0,0,0,0,0,0,0,0,0,0,0,0,0,0,0],"split_type":[0,0,0,0,0,0,0,0,0,0,0,0,0,0,0,0,0,0,0,0,0,0,0,0,0,0,0,0,0,0,0,0,0,0,0,0,0],"sum_hessian":[1.1657307E4,1.1898109E3,1.0467495E4,7.503594E2,9.717136E3,1.1248773E3,8.592259E3,2.447706E3,6.1445527E3,6.161834E2,1.8315227E3,3.716591E3,2.4279617E3,3.7346796E2,2.4271544E2,6.5032715E2,1.1811956E3,1.7002655E3,2.0163254E3,1.3646572E3,1.0633044E3,2.846185E2,8.884948E1,2.4123799E2,1.4774437E0,3.5570273E2,2.9462442E2,9.5252374E2,2.2867181E2,4.8801996E2,1.2122455E3,5.1008267E2,1.5062428E3,1.2111313E3,1.5352591E2,9.0755475E2,1.5574963E2],"tree_param":{"num_deleted":"0","num_feature":"116","num_nodes":"37","size_leaf_vector":"0"}},{"base_weights":[-2.3030575E-1,-1.2803277E0,-1.16550036E-1,1.2797757E0,-2.1896565E-1,-1.2802732E0,-8.790146E-2,3.147312E-1,-3.029809E-1,7.3955965E-1,1.4340986E-1,-5.096445E-1,-1.3357134E-2,5.1906705E-1,1.0172321E0,-8.3803125E-2,5.5524135E-1,-7.6300985E-1,-4.180831E-1,1.3538596E-1,-3.5662133E-1,7.377678E-1,1.2088912E-1,1.1492914E0,8.034719E-1,-2.6225194E-1,8.089383E-2,1.0743809E0,4.6706647E-1,-7.8999263E-1,1.6591775E0,-2.4113624E-1,-5.7606244E-1,5.3923152E-2,6.6850823E-1,-4.0834332E-1,7.2571236E-1],"categories":[],"categories_nodes":[],"categories_segments":[],"categories_sizes":[],"default_left":[1,0,1,0,1,0,1,1,1,1,1,1,1,1,1,1,1,1,1,1,1,0,0,0,0,0,0,0,0,0,0,0,0,0,0,0,0],"id":8,"left_children":[1,-1,3,-1,5,-1,7,9,11,13,15,17,19,21,23,25,27,29,31,33,35,-1,-1,-1,-1,-1,-1,-1,-1,-1,-1,-1,-1,-1,-1,-1,-1],"loss_changes":[1.3555437E3,0E0,1.4648759E3,0E0,1.3272483E3,0E0,7.357196E2,2.152009E2,3.3143637E2,5.1506683E1,1.974248E2,7.4647705E1,1.1783612E2,4.1341385E1,9.666138E0,3.9998367E1,3.383452E1,5.729608E1,6.627765E1,6.9895615E1,3.9354156E1,0E0,0E0,0E0,0E0,0E0,0E0,0E0,0E0,0E0,0E0,0E0,0E0,0E0,0E0,0E0,0E0],"parents":[2147483647,0,0,2,2,4,4,6,6,7,7,8,8,9,9,10,10,11,11,12,12,13,13,14,14,15,15,16,16,17,17,18,18,19,19,20,20],"right_children":[2,-1,4,-1,6,-1,8,10,12,14,16,18,20,22,24,26,28,30,32,34,36,-1,-1,-1,-1,-1,-1,-1,-1,-1,-1,-1,-1,-1,-1,-1,-1],"split_conditions":[-1.0822151E0,-1.2803277E-1,-7.6676106E-1,1.2797758E-1,-6.337167E-1,-1.2802732E-1,-1.2633899E-1,-5.248238E-1,7.1177816E-1,-1.852184E-1,2.6327989E-1,-1.852184E-1,1.1972E0,-6.3867664E-1,-5.9598184E-1,-1.852184E-1,-4.8212904E-1,2.9126015E0,4.2869347E-1,2.0572731E0,2.9126015E0,7.377678E-2,1.2088913E-2,1.1492914E-1,8.0347195E-2,-2.6225194E-2,8.089383E-3,1.0743809E-1,4.6706647E-2,-7.8999266E-2,1.6591775E-1,-2.4113623E-2,-5.7606246E-2,5.3923153E-3,6.6850826E-2,-4.0834334E-2,7.257124E-2],"split_indices":[49,0,50,0,49,0,50,50,49,49,49,49,50,50,50,49,50,27,50,49,27,0,0,0,0,0,0,0,0,0,0,0,0,0,0,0,0],"split_type":[0,0,0,0,0,0,0,0,0,0,0,0,0,0,0,0,0,0,0,0,0,0,0,0,0,0,0,0,0,0,0,0,0,0,0,0,0],"sum_hessian":[1.1348841E4,1.1083121E3,1.0240528E4,6.98995E2,9.541533E3,1.0478312E3,8.493702E3,2.957237E3,5.5364653E3,8.4889667E2,2.1083403E3,3.2305315E3,2.305934E3,4.7476624E2,3.7413043E2,1.3592308E3,7.4910944E2,8.5560333E2,2.374928E3,1.6092291E3,6.967049E2,3.0589783E2,1.6886842E2,2.2855463E2,1.455758E2,6.52095E2,7.0713586E2,1.0713797E2,6.419715E2,8.468435E2,8.759847E0,1.1214073E3,1.2535208E3,1.3968822E3,2.1234695E2,6.655239E2,3.1180979E1],"tree_param":{"num_deleted":"0","num_feature":"116","num_nodes":"37","size_leaf_vector":"0"}},{"base_weights":[-2.1349433E-1,-1.2464437E0,-1.07325286E-1,1.2458578E0,-2.0114395E-1,-1.246386E0,-7.995915E-2,5.700877E-1,-1.9349498E-1,3.4136567E-1,8.097978E-1,-4.175958E-1,-2.6553607E-2,6.85763E-1,4.2427372E-2,1.0674641E0,6.162691E-1,-1.992217E-1,-6.229344E-1,3.4030598E-1,-1.4850861E-1,3.8397282E-1,7.663155E-1,1.369847E-1,-2.6227704E-1,1.1408672E0,9.0450555E-1,3.7765422E-1,9.469967E-1,-3.6383635E-1,-6.541851E-2,-5.1369226E-1,-7.7031916E-1,1.4220472E-1,5.7297873E-1,-2.9179868E-1,5.8129787E-2],"categories":[],"categories_nodes":[],"categories_segments":[],"categories_sizes":[],"default_left":[1,0,1,0,1,0,1,1,1,1,1,1,1,1,1,1,1,1,1,1,1,0,0,0,0,0,0,0,0,0,0,0,0,0,0,0,0],"id":9,"left_children":[1,-1,3,-1,5,-1,7,9,11,13,15,17,19,21,23,25,27,29,31,33,35,-1,-1,-1,-1,-1,-1,-1,-1,-1,-1,-1,-1,-1,-1,-1,-1],"loss_changes":[1.2115911E3,0E0,1.2723777E3,0E0,1.1869724E3,0E0,6.199855E2,6.820709E1,2.6751614E2,6.595598E1,2.9718597E1,1.3676318E2,1.8344789E2,6.9440613E0,9.952184E0,2.0771484E0,2.7282394E1,3.2594154E1,2.4928345E1,4.7071693E1,9.112879E1,0E0,0E0,0E0,0E0,0E0,0E0,0E0,0E0,0E0,0E0,0E0,0E0,0E0,0E0,0E0,0E0],"parents":[2147483647,0,0,2,2,4,4,6,6,7,7,8,8,9,9,10,10,11,11,12,12,13,13,14,14,15,15,16,16,17,17,18,18,19,19,20,20],"right_children":[2,-1,4,-1,6,-1,8,10,12,14,16,18,20,22,24,26,28,30,32,34,36,-1,-1,-1,-1,-1,-1,-1,-1,-1,-1,-1,-1,-1,-1,-1,-1],"split_conditions":[-1.0822151E0,-1.2464438E-1,-7.6676106E-1,1.24585785E-1,-6.337167E-1,-1.2463861E-1,-4.8212904E-1,-1.852184E-1,2.6327989E-1,-6.3867664E-1,-5.53287E-1,8.713504E-2,1.5977032E-2,8.5E0,5E-1,-6.3867664E-1,2.6327989E-1,-1.852184E-1,7.2755706E-1,7.1177816E-1,1.1602765E0,3.8397282E-2,7.663155E-2,1.3698471E-2,-2.6227703E-2,1.14086725E-1,9.0450555E-2,3.7765425E-2,9.469967E-2,-3.6383636E-2,-6.5418514E-3,-5.1369227E-2,-7.703192E-2,1.42204715E-2,5.7297874E-2,-2.917987E-2,5.812979E-3],"split_indices":[49,0,50,0,49,0,50,49,49,50,50,50,50,0,74,50,49,49,50,49,49,0,0,0,0,0,0,0,0,0,0,0,0,0,0,0,0],"split_type":[0,0,0,0,0,0,0,0,0,0,0,0,0,0,0,0,0,0,0,0,0,0,0,0,0,0,0,0,0,0,0,0,0,0,0,0,0],"sum_hessian":[1.1048104E4,1.0287133E3,1.0019391E4,6.4882697E2,9.370563E3,9.725811E2,8.397982E3,1.2480842E3,7.1498984E3,6.399209E2,6.0816327E2,3.0517505E3,4.098148E3,2.967503E2,3.4317062E2,2.5891937E2,3.492439E2,1.4798865E3,1.571864E3,1.0220057E3,3.0761423E3,6.373472E1,2.3301558E2,2.6231744E2,8.085317E1,1.7437349E2,8.4545876E1,2.0411789E2,1.45126E2,6.627736E2,8.171128E2,9.053216E2,6.665424E2,5.5288324E2,4.691224E2,1.8162682E3,1.2598741E3],"tree_param":{"num_deleted":"0","num_feature":"116","num_nodes":"37","size_leaf_vector":"0"}},{"base_weights":[-1.9788346E-1,-1.2173542E0,-9.8803364E-2,1.2167276E0,-1.8473126E-1,-1.2172923E0,-7.271028E-2,4.5294893E-1,-1.9141957E-1,8.077555E-1,3.0402172E-1,-4.1766882E-1,-3.4629896E-2,6.37639E-1,1.1024308E0,1.457923E-1,8.1350523E-1,-2.2198538E-1,-5.756174E-1,1.0724408E-1,-2.9501128E-1,4.425643E-1,7.709737E-1,1.1381904E0,8.1134963E-1,-1.3205659E-2,3.626667E-1,9.5016986E-1,5.055055E-1,-2.6995254E-1,1.8484141E-1,-7.331547E-1,-4.6659982E-1,3.5392735E-2,5.7372016E-1,-4.0680304E-1,-5.30375E-2],"categories":[],"categories_nodes":[],"categories_segments":[],"categories_sizes":[],"default_left":[1,0,1,0,1,0,1,1,1,1,1,1,1,1,1,1,1,1,1,1,1,0,0,0,0,0,0,0,0,0,0,0,0,0,0,0,0],"id":10,"left_children":[1,-1,3,-1,5,-1,7,9,11,13,15,17,19,21,23,25,27,29,31,33,35,-1,-1,-1,-1,-1,-1,-1,-1,-1,-1,-1,-1,-1,-1,-1,-1],"loss_changes":[1.0866362E3,0E0,1.1088212E3,0E0,1.0648267E3,0E0,5.1842505E2,8.063138E1,2.4039078E2,2.1950928E1,8.692009E1,8.56095E1,1.4794745E2,7.172661E0,7.83905E-1,2.8454449E1,1.0280075E1,2.4259495E1,2.6009369E1,8.687517E1,3.8187187E1,0E0,0E0,0E0,0E0,0E0,0E0,0E0,0E0,0E0,0E0,0E0,0E0,0E0,0E0,0E0,0E0],"parents":[2147483647,0,0,2,2,4,4,6,6,7,7,8,8,9,9,10,10,11,11,12,12,13,13,14,14,15,15,16,16,17,17,18,18,19,19,20,20],"right_children":[2,-1,4,-1,6,-1,8,10,12,14,16,18,20,22,24,26,28,30,32,34,36,-1,-1,-1,-1,-1,-1,-1,-1,-1,-1,-1,-1,-1,-1,-1,-1],"split_conditions":[-1.0822151E0,-1.2173542E-1,-7.6676106E-1,1.21672764E-1,-6.337167E-1,-1.2172923E-1,-3.682762E-1,-6.3867664E-1,2.6327989E-1,-1.852184E-1,2.6327989E-1,8.713504E-2,8.271783E-1,5E-1,5E-1,-1.852184E-1,-4.8212904E-1,5E-1,-1.852184E-1,1.6087748E0,1.6087748E0,4.425643E-2,7.709737E-2,1.1381904E-1,8.113497E-2,-1.3205659E-3,3.626667E-2,9.5016986E-2,5.055055E-2,-2.6995255E-2,1.8484142E-2,-7.331547E-2,-4.6659984E-2,3.5392735E-3,5.7372015E-2,-4.0680304E-2,-5.30375E-3],"split_indices":[49,0,50,0,49,0,50,50,49,49,49,50,50,34,103,49,50,103,49,49,49,0,0,0,0,0,0,0,0,0,0,0,0,0,0,0,0],"split_type":[0,0,0,0,0,0,0,0,0,0,0,0,0,0,0,0,0,0,0,0,0,0,0,0,0,0,0,0,0,0,0,0,0,0,0,0,0],"sum_hessian":[1.0757979E4,9.519311E2,9.806047E3,6.00433E2,9.205614E3,8.9999365E2,8.30562E3,1.5295907E3,6.77603E3,4.5091058E2,1.07868E3,2.7729575E3,4.0030723E3,2.878806E2,1.6302998E2,8.2404425E2,2.546358E2,1.2396067E3,1.5333507E3,2.591584E3,1.411488E3,1.1863354E2,1.6924706E2,1.4260109E2,2.0428904E1,4.760067E2,3.4803754E2,1.7493102E2,7.970478E1,1.1091663E3,1.3044046E2,6.247795E2,9.085713E2,2.2466138E3,3.4497025E2,9.649845E2,4.465036E2],"tree_param":{"num_deleted":"0","num_feature":"116","num_nodes":"37","size_leaf_vector":"0"}},{"base_weights":[-1.8333368E-1,-1.1922168E0,-9.0907395E-2,1.191543E0,-1.6958304E-1,-1.1921504E0,-6.608294E-2,2.4661195E-1,-2.3808722E-1,7.137321E-1,1.433773E-1,-4.094225E-1,-9.501148E-3,5.340811E-1,1.0291946E0,-2.6791887E-2,4.7418454E-1,-6.3345313E-1,-3.3345482E-1,1.15029044E-1,-2.953218E-1,3.2789755E-1,6.732437E-1,1.0407596E0,-3.0958498E-1,-1.7320825E-1,1.1494502E-1,3.0926913E-1,7.068029E-1,-6.6181225E-1,1.6132076E0,-2.4347283E-1,-5.5703026E-1,4.618411E-2,5.6820786E-1,-3.4197643E-1,6.677257E-1],"categories":[],"categories_nodes":[],"categories_segments":[],"categories_sizes":[],"default_left":[1,0,1,0,1,0,1,1,1,1,1,1,1,1,1,1,1,1,1,1,1,0,0,0,0,0,0,0,0,0,0,0,0,0,0,0,0],"id":11,"left_children":[1,-1,3,-1,5,-1,7,9,11,13,15,17,19,21,23,25,27,29,31,33,35,-1,-1,-1,-1,-1,-1,-1,-1,-1,-1,-1,-1,-1,-1,-1,-1],"loss_changes":[9.772837E2,0E0,9.691352E2,0E0,9.576219E2,0E0,4.4207748E2,1.40559E2,2.0766302E2,2.935727E1,1.345639E2,5.13685E1,8.0926216E1,9.486359E0,3.2701416E0,3.2793373E1,3.0929337E1,4.989389E1,4.5438232E1,4.9383884E1,3.1229454E1,0E0,0E0,0E0,0E0,0E0,0E0,0E0,0E0,0E0,0E0,0E0,0E0,0E0,0E0,0E0,0E0],"parents":[2147483647,0,0,2,2,4,4,6,6,7,7,8,8,9,9,10,10,11,11,12,12,13,13,14,14,15,15,16,16,17,17,18,18,19,19,20,20],"right_children":[2,-1,4,-1,6,-1,8,10,12,14,16,18,20,22,24,26,28,30,32,34,36,-1,-1,-1,-1,-1,-1,-1,-1,-1,-1,-1,-1,-1,-1,-1,-1],"split_conditions":[-1.0822151E0,-1.1922168E-1,-7.6676106E-1,1.191543E-1,-6.337167E-1,-1.19215034E-1,-9.7875774E-2,-5.9598184E-1,7.1177816E-1,-1.852184E-1,2.6327989E-1,-1.852184E-1,1.1972E0,5E-1,5E-1,-1.852184E-1,7.1177816E-1,2.9126015E0,8.698731E-1,2.0572731E0,2.9126015E0,3.2789756E-2,6.732437E-2,1.0407596E-1,-3.0958498E-2,-1.7320825E-2,1.14945015E-2,3.0926913E-2,7.068029E-2,-6.618123E-2,1.6132076E-1,-2.4347283E-2,-5.5703025E-2,4.6184114E-3,5.6820787E-2,-3.4197643E-2,6.677257E-2],"split_indices":[49,0,50,0,49,0,50,50,49,49,49,49,50,34,13,49,49,27,50,49,27,0,0,0,0,0,0,0,0,0,0,0,0,0,0,0,0],"split_type":[0,0,0,0,0,0,0,0,0,0,0,0,0,0,0,0,0,0,0,0,0,0,0,0,0,0,0,0,0,0,0,0,0,0,0,0,0],"sum_hessian":[1.0480717E4,8.78585E2,9.602132E3,5.542037E2,9.047929E3,8.3065436E2,8.217274E3,2.9158945E3,5.3013794E3,5.2670874E2,2.3891858E3,3.0296975E3,2.271682E3,3.373093E2,1.8939943E2,1.578246E3,8.1093994E2,7.65343E2,2.2643545E3,1.5827052E3,6.889768E2,1.3727647E2,2.0003282E2,1.8799803E2,1.4014068E0,7.761988E2,8.020471E2,4.7588763E2,3.3505234E2,7.564993E2,8.843707E0,1.6160392E3,6.4831525E2,1.3749332E3,2.077719E2,6.577568E2,3.1219995E1],"tree_param":{"num_deleted":"0","num_feature":"116","num_nodes":"37","size_leaf_vector":"0"}},{"base_weights":[-1.6978404E-1,-1.1703717E0,-8.361703E-2,1.1696441E0,-1.5563324E-1,-1.1702999E0,-6.0060352E-2,4.5017597E-1,-1.507637E-1,3.519117E-1,9.001944E-1,-2.676732E-1,5.0953098E-2,6.734728E-1,1.6308913E-1,1.1196587E0,7.7848816E-1,-1.2416348E-1,-4.6652794E-1,2.3250954E-1,-1.7081231E-1,5.548004E-1,9.8823136E-1,1.8165667E-1,-1.0749071E0,1.1555463E0,1.9536653E-1,1.5005001E-1,8.58748E-1,-3.448713E-1,-2.8014904E-2,-6.829484E-1,-3.992768E-1,5.7114756E-1,1.4399068E-1,-2.24599E-1,2.6668563E-1],"categories":[],"categories_nodes":[],"categories_segments":[],"categories_sizes":[],"default_left":[1,0,1,0,1,0,1,1,1,1,1,1,1,1,1,1,1,1,1,1,1,0,0,0,0,0,0,0,0,0,0,0,0,0,0,0,0],"id":12,"left_children":[1,-1,3,-1,5,-1,7,9,11,13,15,17,19,21,23,25,27,29,31,33,35,-1,-1,-1,-1,-1,-1,-1,-1,-1,-1,-1,-1,-1,-1,-1,-1],"loss_changes":[8.808473E2,0E0,8.493583E2,0E0,8.628328E2,0E0,3.7647833E2,5.3979996E1,1.6288562E2,6.118139E1,4.989029E0,1.2472296E2,1.0210361E2,1.3389496E1,1.484473E1,2.2949295E0,7.1557617E0,5.391305E1,2.6398102E1,4.1711594E1,2.692551E1,0E0,0E0,0E0,0E0,0E0,0E0,0E0,0E0,0E0,0E0,0E0,0E0,0E0,0E0,0E0,0E0],"parents":[2147483647,0,0,2,2,4,4,6,6,7,7,8,8,9,9,10,10,11,11,12,12,13,13,14,14,15,15,16,16,17,17,18,18,19,19,20,20],"right_children":[2,-1,4,-1,6,-1,8,10,12,14,16,18,20,22,24,26,28,30,32,34,36,-1,-1,-1,-1,-1,-1,-1,-1,-1,-1,-1,-1,-1,-1,-1,-1],"split_conditions":[-1.0822151E0,-1.1703717E-1,-7.6676106E-1,1.16964415E-1,-6.337167E-1,-1.1702999E-1,-4.536658E-1,2.6327989E-1,7.1177816E-1,-6.3867664E-1,-5.53287E-1,3.1484067E-1,7.133255E-1,-1.852184E-1,2.0426776E0,5E-1,-5.3905547E-1,-1.852184E-1,-1.852184E-1,-5.5180974E-2,5E-1,5.548004E-2,9.882314E-2,1.8165668E-2,-1.0749071E-1,1.1555463E-1,1.9536654E-2,1.5005002E-2,8.58748E-2,-3.4487132E-2,-2.8014905E-3,-6.8294846E-2,-3.992768E-2,5.7114758E-2,1.4399068E-2,-2.24599E-2,2.6668563E-2],"split_indices":[49,0,50,0,49,0,50,49,49,50,50,50,50,49,27,11,50,49,49,50,102,0,0,0,0,0,0,0,0,0,0,0,0,0,0,0,0],"split_type":[0,0,0,0,0,0,0,0,0,0,0,0,0,0,0,0,0,0,0,0,0,0,0,0,0,0,0,0,0,0,0,0,0,0,0,0,0],"sum_hessian":[1.021669E4,8.090671E2,9.407623E3,5.1038654E2,8.897236E3,7.649339E2,8.1323027E3,1.226858E3,6.905445E3,1.0084408E3,2.1841724E2,4.3715107E3,2.5339336E3,3.7213516E2,6.3630566E2,7.499123E1,1.4342601E2,2.5400378E3,1.831473E3,1.3932498E3,1.1406838E3,2.7225162E2,9.988356E1,6.2774396E2,8.561683E0,7.194751E1,3.0437126E0,1.6567938E1,1.2685808E2,7.6997754E2,1.7700604E3,4.3202396E2,1.399449E3,2.8759048E2,1.1056593E3,1.01623315E3,1.24450714E2],"tree_param":{"num_deleted":"0","num_feature":"116","num_nodes":"37","size_leaf_vector":"0"}},{"base_weights":[-1.5710498E-1,-1.151293E0,-7.68439E-2,1.1505044E0,-1.427321E-1,-1.1512152E0,-5.4547604E-2,2.652143E-1,-1.773523E-1,6.8028456E-1,1.7512734E-1,-3.9881107E-1,-4.6097983E-2,5.145564E-1,1.0048733E0,-7.520719E-2,3.2724229E-1,-4.3653706E-1,6.042955E-2,3.5076372E-2,-3.009606E-1,9.75297E-1,4.5154944E-1,1.0476952E0,6.707141E-1,-1.1146475E-1,4.8963857E-1,5.272768E-1,2.2065775E-1,-3.5859525E-1,-6.290001E-1,-1.797001E-1,6.250493E-1,-7.079697E-2,2.5330728E-1,-3.7463877E-1,1.5720108E-1],"categories":[],"categories_nodes":[],"categories_segments":[],"categories_sizes":[],"default_left":[1,0,1,0,1,0,1,1,1,1,1,1,1,1,1,1,1,1,1,1,1,0,0,0,0,0,0,0,0,0,0,0,0,0,0,0,0],"id":13,"left_children":[1,-1,3,-1,5,-1,7,9,11,13,15,17,19,21,23,25,27,29,31,33,35,-1,-1,-1,-1,-1,-1,-1,-1,-1,-1,-1,-1,-1,-1,-1,-1],"loss_changes":[7.953693E2,0E0,7.461871E2,0E0,7.786395E2,0E0,3.162767E2,8.345245E1,1.6912701E2,2.0905045E1,7.000578E1,3.7540985E1,7.562145E1,7.2721405E0,1.2083435E0,1.4297054E1,2.4259941E1,2.9792145E1,2.2517561E1,6.408306E1,2.9864655E1,0E0,0E0,0E0,0E0,0E0,0E0,0E0,0E0,0E0,0E0,0E0,0E0,0E0,0E0,0E0,0E0],"parents":[2147483647,0,0,2,2,4,4,6,6,7,7,8,8,9,9,10,10,11,11,12,12,13,13,14,14,15,15,16,16,17,17,18,18,19,19,20,20],"right_children":[2,-1,4,-1,6,-1,8,10,12,14,16,18,20,22,24,26,28,30,32,34,36,-1,-1,-1,-1,-1,-1,-1,-1,-1,-1,-1,-1,-1,-1,-1,-1],"split_conditions":[-1.0822151E0,-1.1512931E-1,-7.6676106E-1,1.15050435E-1,-6.337167E-1,-1.1512152E-1,-1.9749698E-1,-6.3867664E-1,2.6327989E-1,-1.852184E-1,-1.852184E-1,5E-1,1.1972E0,-7.2406626E-1,5E-1,5E-1,-4.8212904E-1,7.2755706E-1,5E-1,1.1602765E0,2.5057714E0,9.75297E-2,4.5154944E-2,1.0476952E-1,6.707141E-2,-1.1146475E-2,4.8963856E-2,5.272768E-2,2.2065775E-2,-3.5859525E-2,-6.2900014E-2,-1.797001E-2,6.250493E-2,-7.0796967E-3,2.5330728E-2,-3.7463877E-2,1.5720109E-2],"split_indices":[49,0,50,0,49,0,50,50,49,49,49,103,50,50,103,69,50,50,98,49,49,0,0,0,0,0,0,0,0,0,0,0,0,0,0,0,0],"split_type":[0,0,0,0,0,0,0,0,0,0,0,0,0,0,0,0,0,0,0,0,0,0,0,0,0,0,0,0,0,0,0,0,0,0,0,0,0],"sum_hessian":[9.967815E3,7.435966E2,9.224219E3,4.691196E2,8.7551E3,7.0303986E2,8.0520596E3,2.2339875E3,5.8180723E3,3.9722876E2,1.8367589E3,2.1643074E3,3.6537646E3,2.6467606E2,1.3255272E2,6.944359E2,1.1423229E3,2.000055E3,1.6425238E2,2.7718015E3,8.8196313E2,3.0098742E1,2.3457732E2,1.15603096E2,1.6949629E1,6.53303E2,4.113298E1,3.9571338E2,7.4660956E2,1.4255947E3,5.744603E2,1.1571932E2,4.8533054E1,1.8668074E3,9.049942E2,7.599378E2,1.22025276E2],"tree_param":{"num_deleted":"0","num_feature":"116","num_nodes":"37","size_leaf_vector":"0"}},{"base_weights":[-1.4524688E-1,-1.134557E0,-7.056633E-2,1.1337E0,-1.3081594E-1,-1.1344725E0,-4.952131E-2,3.2793447E-1,-1.3704345E-1,6.649662E-1,2.2800095E-1,-3.114332E-1,-2.260578E-2,5.103661E-1,9.81098E-1,-1.3731092E-2,4.2803022E-1,-2.373708E-1,-5.6548667E-1,1.6279565E-1,-1.341041E-1,5.344188E-1,-9.35833E-1,1.0343223E0,6.0311174E-1,-1.13613404E-1,2.1629037E-1,3.412067E-1,9.388033E-1,-3.508793E-1,-5.4325342E-2,-5.9162873E-1,1.7612898E0,6.594231E-2,4.9604535E-1,-2.1154171E-1,8.9011304E-2],"categories":[],"categories_nodes":[],"categories_segments":[],"categories_sizes":[],"default_left":[1,0,1,0,1,0,1,1,1,1,1,1,1,1,1,1,1,1,1,1,1,0,0,0,0,0,0,0,0,0,0,0,0,0,0,0,0],"id":14,"left_children":[1,-1,3,-1,5,-1,7,9,11,13,15,17,19,21,23,25,27,29,31,33,35,-1,-1,-1,-1,-1,-1,-1,-1,-1,-1,-1,-1,-1,-1,-1,-1],"loss_changes":[7.1920337E2,0E0,6.570231E2,0E0,7.0349585E2,0E0,2.6359625E2,5.043483E1,1.2924937E2,1.6261597E1,5.609437E1,4.8149673E1,8.088409E1,8.584675E0,1.6204758E0,1.2114098E1,2.782972E1,4.1299126E1,3.6230576E1,4.7395943E1,4.223188E1,0E0,0E0,0E0,0E0,0E0,0E0,0E0,0E0,0E0,0E0,0E0,0E0,0E0,0E0,0E0,0E0],"parents":[2147483647,0,0,2,2,4,4,6,6,7,7,8,8,9,9,10,10,11,11,12,12,13,13,14,14,15,15,16,16,17,17,18,18,19,19,20,20],"right_children":[2,-1,4,-1,6,-1,8,10,12,14,16,18,20,22,24,26,28,30,32,34,36,-1,-1,-1,-1,-1,-1,-1,-1,-1,-1,-1,-1,-1,-1,-1,-1],"split_conditions":[-1.0822151E0,-1.13455705E-1,-7.6676106E-1,1.1337E-1,-6.337167E-1,-1.1344725E-1,-3.5404462E-1,-6.671398E-1,2.6327989E-1,-1.852184E-1,-1.852184E-1,7.2755706E-1,3.1484067E-1,5E-1,5E-1,5E-1,7.1177816E-1,5E-1,3.782525E0,9.711608E-1,1.6087748E0,5.3441882E-2,-9.35833E-2,1.0343223E-1,6.0311176E-2,-1.1361341E-2,2.1629037E-2,3.412067E-2,9.388033E-2,-3.5087932E-2,-5.4325345E-3,-5.9162874E-2,1.7612898E-1,6.594231E-3,4.9604535E-2,-2.115417E-2,8.90113E-3],"split_indices":[49,0,50,0,49,0,50,50,49,49,49,50,50,57,103,77,49,37,27,115,49,0,0,0,0,0,0,0,0,0,0,0,0,0,0,0,0],"split_type":[0,0,0,0,0,0,0,0,0,0,0,0,0,0,0,0,0,0,0,0,0,0,0,0,0,0,0,0,0,0,0,0,0,0,0,0,0],"sum_hessian":[9.734541E3,6.8226263E2,9.052278E3,4.3045935E2,8.621819E3,6.450561E2,7.976763E3,1.5009379E3,6.475825E3,3.4196997E2,1.1589679E3,2.5651353E3,3.91069E3,2.3141423E2,1.1055573E2,5.252017E2,6.337662E2,1.98763E3,5.775052E2,1.4684556E3,2.4422344E3,2.2824854E2,3.1656966E0,9.5387764E1,1.5167963E1,3.665435E2,1.5865826E2,5.431133E2,9.065284E1,1.2262821E3,7.61348E2,5.718263E2,5.6789145E0,1.1387075E3,3.2974802E2,1.8130302E3,6.292042E2],"tree_param":{"num_deleted":"0","num_feature":"116","num_nodes":"37","size_leaf_vector":"0"}},{"base_weights":[-1.3412435E-1,-1.1198179E0,-6.4716786E-2,1.1188846E0,-1.1977736E-1,-1.1197258E0,-4.4903774E-2,1.8392165E-1,-1.6918877E-1,5.0022703E-1,9.416673E-2,-2.566231E-1,8.175655E-2,3.4263152E-1,7.665241E-1,-4.2722743E-2,3.5779163E-1,-3.638256E-1,-1.1835193E-1,2.443591E-1,-9.994693E-2,4.2009288E-1,-7.652361E-2,8.57883E-1,3.5349667E-1,-3.67743E-1,2.568607E-2,8.08994E-1,2.850409E-1,-3.4667787E-1,-1.0482624E0,1.8293992E-2,-3.6097336E-1,1.7925943E-1,1.181436E0,-1.9556318E-1,2.751131E-1],"categories":[],"categories_nodes":[],"categories_segments":[],"categories_sizes":[],"default_left":[1,0,1,0,1,0,1,1,1,1,1,1,1,1,1,1,1,1,1,1,1,0,0,0,0,0,0,0,0,0,0,0,0,0,0,0,0],"id":15,"left_children":[1,-1,3,-1,5,-1,7,9,11,13,15,17,19,21,23,25,27,29,31,33,35,-1,-1,-1,-1,-1,-1,-1,-1,-1,-1,-1,-1,-1,-1,-1,-1],"loss_changes":[6.5109485E2,0E0,5.796824E2,0E0,6.3623016E2,0E0,2.2491772E2,7.898224E1,1.1246582E2,2.5550323E1,7.831186E1,5.6297012E1,3.9171154E1,1.2636654E1,8.294937E0,3.1781748E1,2.4114388E1,2.47583E1,5.5086678E1,4.2461662E1,2.2519108E1,0E0,0E0,0E0,0E0,0E0,0E0,0E0,0E0,0E0,0E0,0E0,0E0,0E0,0E0,0E0,0E0],"parents":[2147483647,0,0,2,2,4,4,6,6,7,7,8,8,9,9,10,10,11,11,12,12,13,13,14,14,15,15,16,16,17,17,18,18,19,19,20,20],"right_children":[2,-1,4,-1,6,-1,8,10,12,14,16,18,20,22,24,26,28,30,32,34,36,-1,-1,-1,-1,-1,-1,-1,-1,-1,-1,-1,-1,-1,-1,-1,-1],"split_conditions":[-1.0822151E0,-1.1198179E-1,-7.6676106E-1,1.1188846E-1,-6.337167E-1,-1.11972585E-1,-9.7875774E-2,-5.3905547E-1,1.1602765E0,-1.852184E-1,2.6327989E-1,5E-1,8.983363E-1,5E-1,-5.53287E-1,6.5E0,-4.8212904E-1,5E-1,7.4178874E-1,2.9542696E0,5E-1,4.200929E-2,-7.652361E-3,8.57883E-2,3.5349667E-2,-3.67743E-2,2.568607E-3,8.08994E-2,2.8504089E-2,-3.4667786E-2,-1.04826234E-1,1.8293991E-3,-3.6097337E-2,1.7925944E-2,1.18143596E-1,-1.955632E-2,2.7511312E-2],"split_indices":[49,0,50,0,49,0,50,50,49,49,49,37,50,64,50,0,50,55,50,49,90,0,0,0,0,0,0,0,0,0,0,0,0,0,0,0,0],"split_type":[0,0,0,0,0,0,0,0,0,0,0,0,0,0,0,0,0,0,0,0,0,0,0,0,0,0,0,0,0,0,0,0,0,0,0,0,0],"sum_hessian":[9.51696E3,6.250573E2,8.891902E3,3.944009E2,8.497502E3,5.909755E2,7.906526E3,2.7827073E3,5.123819E3,6.140743E2,2.168633E3,3.7998523E3,1.3239663E3,3.872092E2,2.2686507E2,1.4279801E3,7.4065295E2,2.1394736E3,1.6603788E3,6.985257E2,6.2544055E2,3.268111E2,6.0398098E1,1.8489128E2,4.197379E1,2.4753406E2,1.180446E3,1.0143429E2,6.392187E2,2.0886516E3,5.0822018E1,1.0627538E3,5.97625E2,6.542646E2,4.426112E1,4.9876584E2,1.26674706E2],"tree_param":{"num_deleted":"0","num_feature":"116","num_nodes":"37","size_leaf_vector":"0"}},{"base_weights":[-1.2369889E-1,-1.106791E0,-5.9282325E-2,1.1057726E0,-1.0956263E-1,-1.1066905E0,-4.0681634E-2,3.474825E-1,-1.01803675E-1,2.6152724E-1,7.946957E-1,-3.5928982E-1,-4.8482716E-2,5.4833245E-1,1.24116205E-1,1.0272669E0,6.639794E-1,-3.7972414E-1,1.5649647E0,3.764952E-2,-2.0205773E-1,4.4711328E-1,8.616977E-1,-9.271873E-2,2.3780555E-1,1.0719734E0,2.6331667E-2,-3.0478071E-3,7.66791E-1,-3.019677E-1,-7.290358E-1,-9.608603E-1,1.977712E0,-1.048208E-1,1.7882322E-1,-2.439923E-1,2.3722464E-1],"categories":[],"categories_nodes":[],"categories_segments":[],"categories_sizes":[],"default_left":[1,0,1,0,1,0,1,1,1,1,1,1,1,1,1,1,1,1,1,1,1,0,0,0,0,0,0,0,0,0,0,0,0,0,0,0,0],"id":16,"left_children":[1,-1,3,-1,5,-1,7,9,11,13,15,17,19,21,23,25,27,29,31,33,35,-1,-1,-1,-1,-1,-1,-1,-1,-1,-1,-1,-1,-1,-1,-1,-1],"loss_changes":[5.8996545E2,0E0,5.124118E2,0E0,5.75819E2,0E0,1.8612854E2,4.081929E1,9.303142E1,3.5271854E1,4.5339203E0,4.630623E1,7.429202E1,8.818527E0,1.4999243E1,2.6525269E0,7.7288322E0,3.1045929E1,1.4839048E1,7.240077E1,3.723242E1,0E0,0E0,0E0,0E0,0E0,0E0,0E0,0E0,0E0,0E0,0E0,0E0,0E0,0E0,0E0,0E0],"parents":[2147483647,0,0,2,2,4,4,6,6,7,7,8,8,9,9,10,10,11,11,12,12,13,13,14,14,15,15,16,16,17,17,18,18,19,19,20,20],"right_children":[2,-1,4,-1,6,-1,8,10,12,14,16,18,20,22,24,26,28,30,32,34,36,-1,-1,-1,-1,-1,-1,-1,-1,-1,-1,-1,-1,-1,-1,-1,-1],"split_conditions":[-1.0822151E0,-1.10679105E-1,-7.6676106E-1,1.1057726E-1,-6.337167E-1,-1.10669054E-1,-4.8212904E-1,2.6327989E-1,-1.852184E-1,-6.671398E-1,-5.53287E-1,2.9126015E0,6.706307E-1,-1.852184E-1,5E-1,5E-1,-5.3905547E-1,7.133255E-1,1.04071364E-1,5E-1,2.5057714E0,4.471133E-2,8.616977E-2,-9.271873E-3,2.3780555E-2,1.07197344E-1,2.6331667E-3,-3.0478073E-4,7.66791E-2,-3.0196771E-2,-7.290358E-2,-9.608603E-2,1.977712E-1,-1.048208E-2,1.7882323E-2,-2.439923E-2,2.3722464E-2],"split_indices":[49,0,50,0,49,0,50,49,49,50,50,27,50,49,34,11,50,50,115,37,49,0,0,0,0,0,0,0,0,0,0,0,0,0,0,0,0],"split_type":[0,0,0,0,0,0,0,0,0,0,0,0,0,0,0,0,0,0,0,0,0,0,0,0,0,0,0,0,0,0,0,0,0,0,0,0,0],"sum_hessian":[9.31615E3,5.7190173E2,8.744249E3,3.6089462E2,8.3833545E3,5.407234E2,7.842631E3,1.0662942E3,6.776337E3,8.957199E2,1.7057434E2,1.1615397E3,5.614797E3,2.8917062E2,6.0654926E2,5.89073E1,1.1166704E2,1.1501288E3,1.1410937E1,3.597757E3,2.0170398E3,2.2040503E2,6.8765594E1,2.0869618E2,3.978531E2,5.6320774E1,2.5865238E0,1.5042663E1,9.6624374E1,9.4224945E2,2.0787932E2,1.4162394E0,9.994699E0,1.7907836E3,1.8069736E3,1.8416753E3,1.7536455E2],"tree_param":{"num_deleted":"0","num_feature":"116","num_nodes":"37","size_leaf_vector":"0"}},{"base_weights":[-1.13924414E-1,-1.0952392E0,-5.4238707E-2,1.0941262E0,-1.0010925E-1,-1.0951293E0,-3.682823E-2,1.5902814E-1,-1.4260422E-1,4.963891E-1,9.6224576E-2,-2.6307905E-1,9.364393E-3,3.3890396E-1,8.499717E-1,3.067336E-2,5.2783835E-1,-2.9248804E-1,1.0302001E-1,9.276241E-2,-1.8483424E-1,1.2828174E-1,4.8514327E-1,8.670552E-1,-5.103981E-1,-2.4613251E-1,9.0377845E-2,9.926584E-1,4.1864562E-1,-2.5661904E-1,-6.6014E-1,-1.6604599E-2,1.1390649E0,6.559369E-2,8.453481E-1,-1.2533092E-1,-8.1828696E-1],"categories":[],"categories_nodes":[],"categories_segments":[],"categories_sizes":[],"default_left":[1,0,1,0,1,0,1,1,1,1,1,1,1,1,1,1,1,1,1,1,1,0,0,0,0,0,0,0,0,0,0,0,0,0,0,0,0],"id":17,"left_children":[1,-1,3,-1,5,-1,7,9,11,13,15,17,19,21,23,25,27,29,31,33,35,-1,-1,-1,-1,-1,-1,-1,-1,-1,-1,-1,-1,-1,-1,-1,-1],"loss_changes":[5.349447E2,0E0,4.537405E2,0E0,5.214331E2,0E0,1.6135895E2,5.7824524E1,9.259212E1,2.3569397E1,6.517033E1,3.0402191E1,3.6251595E1,9.119068E0,3.4953613E0,3.3096436E1,1.4999733E1,3.4268585E1,2.6107317E1,3.1960148E1,2.5244791E1,0E0,0E0,0E0,0E0,0E0,0E0,0E0,0E0,0E0,0E0,0E0,0E0,0E0,0E0,0E0,0E0],"parents":[2147483647,0,0,2,2,4,4,6,6,7,7,8,8,9,9,10,10,11,11,12,12,13,13,14,14,15,15,16,16,17,17,18,18,19,19,20,20],"right_children":[2,-1,4,-1,6,-1,8,10,12,14,16,18,20,22,24,26,28,30,32,34,36,-1,-1,-1,-1,-1,-1,-1,-1,-1,-1,-1,-1,-1,-1,-1,-1],"split_conditions":[-1.0822151E0,-1.09523915E-1,-7.6676106E-1,1.09412625E-1,-6.337167E-1,-1.09512925E-1,-9.7875774E-2,-5.9598184E-1,7.1177816E-1,-1.852184E-1,7.1177816E-1,5E-1,1.1972E0,5E-1,5E-1,6.5E0,-4.10971E-1,5E-1,5E-1,2.9542696E0,5E-1,1.2828174E-2,4.851433E-2,8.670552E-2,-5.103981E-2,-2.4613252E-2,9.037784E-3,9.9265836E-2,4.1864563E-2,-2.5661904E-2,-6.6014E-2,-1.6604599E-3,1.13906495E-1,6.559369E-3,8.453482E-2,-1.2533093E-2,-8.18287E-2],"split_indices":[49,0,50,0,49,0,50,50,49,49,49,103,50,34,13,0,50,79,11,49,69,0,0,0,0,0,0,0,0,0,0,0,0,0,0,0,0],"split_type":[0,0,0,0,0,0,0,0,0,0,0,0,0,0,0,0,0,0,0,0,0,0,0,0,0,0,0,0,0,0,0,0,0,0,0,0,0],"sum_hessian":[9.133367E3,5.226664E2,8.610701E3,3.2985895E2,8.280842E3,4.9417725E2,7.786665E3,2.7304397E3,5.0562256E3,4.2744357E2,2.302996E3,2.8199485E3,2.236277E3,2.9708212E2,1.3036143E2,2.0002759E3,3.0272025E2,2.6104502E3,2.094982E2,1.5648005E3,6.714765E2,1.22511406E2,1.7457072E2,1.291028E2,1.258637E0,3.5433978E2,1.645936E3,5.604646E1,2.466738E2,2.379954E3,2.3049602E2,1.8869493E2,2.0803268E1,1.511328E3,5.3472538E1,6.149126E2,5.6563904E1],"tree_param":{"num_deleted":"0","num_feature":"116","num_nodes":"37","size_leaf_vector":"0"}},{"base_weights":[-1.0481413E-1,-1.0849634E0,-4.95738E-2,1.0837461E0,-9.140815E-2,-1.0848433E0,-3.3314712E-2,1.8156339E-1,-1.13832675E-1,5.08631E-1,1.2051117E-1,-2.842423E-1,-1.7460251E-2,3.5925528E-1,8.72974E-1,-6.1704434E-2,2.3562023E-1,-3.176749E-1,1.0358248E-1,-7.559422E-2,1.8833393E-1,1.07559115E-2,4.5708564E-1,9.30801E-1,4.6127036E-1,-9.994176E-3,-4.422608E-1,1.7189293E-1,5.219687E-1,-3.2652283E-1,9.979053E-1,-1.1502894E-1,6.014771E-1,-1.0803502E-1,3.1316426E-1,1.0556169E-1,5.078559E-1],"categories":[],"categories_nodes":[],"categories_segments":[],"categories_sizes":[],"default_left":[1,0,1,0,1,0,1,1,1,1,1,1,1,1,1,1,1,1,1,1,1,0,0,0,0,0,0,0,0,0,0,0,0,0,0,0,0],"id":18,"left_children":[1,-1,3,-1,5,-1,7,9,11,13,15,17,19,21,23,25,27,29,31,33,35,-1,-1,-1,-1,-1,-1,-1,-1,-1,-1,-1,-1,-1,-1,-1,-1],"loss_changes":[4.852763E2,0E0,4.0246042E2,0E0,4.723574E2,0E0,1.338338E2,4.204239E1,9.2400055E1,1.7720741E1,3.7311043E1,2.6386322E1,4.302508E1,8.065578E0,1.8479309E0,1.3558306E1,1.9800098E1,2.2109665E1,1.7708818E1,3.5396442E1,2.0897242E1,0E0,0E0,0E0,0E0,0E0,0E0,0E0,0E0,0E0,0E0,0E0,0E0,0E0,0E0,0E0,0E0],"parents":[2147483647,0,0,2,2,4,4,6,6,7,7,8,8,9,9,10,10,11,11,12,12,13,13,14,14,15,15,16,16,17,17,18,18,19,19,20,20],"right_children":[2,-1,4,-1,6,-1,8,10,12,14,16,18,20,22,24,26,28,30,32,34,36,-1,-1,-1,-1,-1,-1,-1,-1,-1,-1,-1,-1,-1,-1,-1,-1],"split_conditions":[-1.0822151E0,-1.08496346E-1,-7.6676106E-1,1.0837461E-1,-6.337167E-1,-1.0848433E-1,-1.9749698E-1,-6.3867664E-1,2.6327989E-1,-1.852184E-1,-1.852184E-1,5E-1,5E-1,8.5E0,5E-1,5E-1,5E-1,3.782525E0,5E-1,5E-1,1.6087748E0,1.0755912E-3,4.5708563E-2,9.3080096E-2,4.6127036E-2,-9.994176E-4,-4.422608E-2,1.7189292E-2,5.219687E-2,-3.2652285E-2,9.9790536E-2,-1.1502895E-2,6.014771E-2,-1.0803502E-2,3.1316426E-2,1.0556169E-2,5.078559E-2],"split_indices":[49,0,50,0,49,0,50,50,49,49,49,103,83,0,103,51,81,27,98,11,49,0,0,0,0,0,0,0,0,0,0,0,0,0,0,0,0],"split_type":[0,0,0,0,0,0,0,0,0,0,0,0,0,0,0,0,0,0,0,0,0,0,0,0,0,0,0,0,0,0,0,0,0,0,0,0,0],"sum_hessian":[8.9627295E3,4.771869E2,8.485543E3,3.0119043E2,8.1843525E3,4.5118164E2,7.733171E3,2.1075369E3,5.625634E3,3.3036774E2,1.7771692E3,2.0315013E3,3.5941326E3,2.3571416E2,9.465357E1,6.882096E2,1.0889596E3,1.8704401E3,1.6106128E2,2.8029666E3,7.91166E2,5.1909126E1,1.8380502E2,8.189054E1,1.2763025E1,6.0678546E2,8.142416E1,8.920359E2,1.9692366E2,1.8586913E3,1.1748802E1,1.12454605E2,4.8606667E1,2.5877483E3,2.1521822E2,6.294399E2,1.6172617E2],"tree_param":{"num_deleted":"0","num_feature":"116","num_nodes":"37","size_leaf_vector":"0"}},{"base_weights":[-9.631885E-2,-1.0757961E0,-4.5261506E-2,1.0744628E0,-8.33939E-2,-1.0756644E0,-3.0114332E-2,1.2645774E-1,-1.2564492E-1,7.934146E-2,4.7043332E-1,-1.9774598E-1,6.780227E-2,4.2176214E-1,1.6871076E-2,9.707544E-1,3.654564E-1,-1.4872946E-1,-4.1230857E-1,2.974187E-2,9.012845E-1,2.8868386E-1,7.7129495E-1,-1.5786149E-1,9.2124425E-2,1.017816E0,-8.436563E-1,-3.2388774E-1,4.4464344E-1,-2.5726107E-1,-9.042174E-3,-4.4496992E-1,5.5656904E-1,8.735013E-2,-3.1560802E-1,1.4718841E0,4.2052642E-1],"categories":[],"categories_nodes":[],"categories_segments":[],"categories_sizes":[],"default_left":[1,0,1,0,1,0,1,1,1,1,1,1,1,1,1,1,1,1,1,1,1,0,0,0,0,0,0,0,0,0,0,0,0,0,0,0,0],"id":19,"left_children":[1,-1,3,-1,5,-1,7,9,11,13,15,17,19,21,23,25,27,29,31,33,35,-1,-1,-1,-1,-1,-1,-1,-1,-1,-1,-1,-1,-1,-1,-1,-1],"loss_changes":[4.4036597E2,0E0,3.5752728E2,0E0,4.2801514E2,0E0,1.1496387E2,4.7167088E1,6.659148E1,5.4816902E1,1.8064293E1,3.6512848E1,4.111133E1,1.8169037E1,2.852911E1,6.0005302E0,1.6054771E1,4.293886E1,2.0694832E1,2.4721405E1,1.49068985E1,0E0,0E0,0E0,0E0,0E0,0E0,0E0,0E0,0E0,0E0,0E0,0E0,0E0,0E0,0E0,0E0],"parents":[2147483647,0,0,2,2,4,4,6,6,7,7,8,8,9,9,10,10,11,11,12,12,13,13,14,14,15,15,16,16,17,17,18,18,19,19,20,20],"right_children":[2,-1,4,-1,6,-1,8,10,12,14,16,18,20,22,24,26,28,30,32,34,36,-1,-1,-1,-1,-1,-1,-1,-1,-1,-1,-1,-1,-1,-1,-1,-1],"split_conditions":[-1.0822151E0,-1.0757961E-1,-7.6676106E-1,1.07446276E-1,-6.337167E-1,-1.0756644E-1,-2.6717773E-2,7.1177816E-1,1.1602765E0,-5.9598184E-1,-4.10971E-1,1.2256632E0,2.9126015E0,-1.852184E-1,-6.185032E-1,5E-1,5E-1,5E-1,5E-1,2.0226328E0,2.8712785E-1,2.8868387E-2,7.71295E-2,-1.5786149E-2,9.212443E-3,1.017816E-1,-8.436563E-2,-3.2388773E-2,4.4464346E-2,-2.5726108E-2,-9.0421736E-4,-4.4496994E-2,5.5656906E-2,8.735013E-3,-3.1560805E-2,1.4718841E-1,4.205264E-2],"split_indices":[49,0,50,0,49,0,50,49,49,50,50,50,27,49,115,26,0,37,21,50,67,0,0,0,0,0,0,0,0,0,0,0,0,0,0,0,0],"split_type":[0,0,0,0,0,0,0,0,0,0,0,0,0,0,0,0,0,0,0,0,0,0,0,0,0,0,0,0,0,0,0,0,0,0,0,0,0],"sum_hessian":[8.805619E3,4.3527582E2,8.370343E3,2.747705E2,8.0955728E3,4.1155966E2,7.684013E3,2.9116208E3,4.772392E3,2.5619294E3,3.4969128E2,3.476587E3,1.2958053E3,3.9439105E2,2.1675383E3,5.921667E1,2.904746E2,2.8314414E3,6.451455E2,1.2402078E3,5.5597565E1,2.8696158E2,1.074295E2,6.521644E2,1.515374E3,5.81475E1,1.069173E0,2.9611185E1,2.6086343E2,1.592944E3,1.2384976E3,6.2462964E2,2.0515837E1,1.0635437E3,1.7666402E2,2.4480587E1,3.1116978E1],"tree_param":{"num_deleted":"0","num_feature":"116","num_nodes":"37","size_leaf_vector":"0"}},{"base_weights":[-8.844068E-2,-1.0675937E0,-4.129684E-2,1.0661324E0,-7.605027E-2,-1.0674495E0,-2.7213857E-2,2.4919696E-1,-7.3674574E-2,1.7553605E-1,6.594132E-1,-3.029048E-1,-2.9087799E-2,4.2476618E-1,8.1214555E-2,9.553567E-1,5.3731114E-1,-3.2216638E-1,1.3044559E0,-7.901798E-2,1.5008548E-1,4.4830868E-1,-9.2658895E-1,1.0135975E-1,-6.69024E-1,1.0104723E0,-9.3609795E-2,-1.2915452E-1,6.249095E-1,-2.5359854E-1,-6.3592947E-1,-9.2746425E-1,1.6570808E0,-3.3716506E-3,-1.8779387E-1,2.930094E-1,1.7670462E-2],"categories":[],"categories_nodes":[],"categories_segments":[],"categories_sizes":[],"default_left":[1,0,1,0,1,0,1,1,1,1,1,1,1,1,1,1,1,1,1,1,1,0,0,0,0,0,0,0,0,0,0,0,0,0,0,0,0],"id":20,"left_children":[1,-1,3,-1,5,-1,7,9,11,13,15,17,19,21,23,25,27,29,31,33,35,-1,-1,-1,-1,-1,-1,-1,-1,-1,-1,-1,-1,-1,-1,-1,-1],"loss_changes":[3.996783E2,0E0,3.1808237E2,0E0,3.878877E2,0E0,9.8094284E1,3.3097984E1,6.6821884E1,2.190322E1,5.520035E0,3.3381638E1,4.8993538E1,8.559059E0,1.0318474E1,2.8397179E0,7.1147194E0,2.248935E1,1.1614706E1,3.5238544E1,2.2583792E1,0E0,0E0,0E0,0E0,0E0,0E0,0E0,0E0,0E0,0E0,0E0,0E0,0E0,0E0,0E0,0E0],"parents":[2147483647,0,0,2,2,4,4,6,6,7,7,8,8,9,9,10,10,11,11,12,12,13,13,14,14,15,15,16,16,17,17,18,18,19,19,20,20],"right_children":[2,-1,4,-1,6,-1,8,10,12,14,16,18,20,22,24,26,28,30,32,34,36,-1,-1,-1,-1,-1,-1,-1,-1,-1,-1,-1,-1,-1,-1,-1,-1],"split_conditions":[-1.0822151E0,-1.0675937E-1,-7.6676106E-1,1.0661324E-1,-6.337167E-1,-1.06744945E-1,-4.3943423E-1,2.6327989E-1,-1.852184E-1,-6.671398E-1,-5.53287E-1,2.9126015E0,5E-1,5E-1,5E-1,5E-1,-5.3905547E-1,7.133255E-1,1.04071364E-1,6.4216745E-1,1.7252465E-1,4.483087E-2,-9.26589E-2,1.0135975E-2,-6.69024E-2,1.0104723E-1,-9.360979E-3,-1.2915452E-2,6.249095E-2,-2.5359854E-2,-6.359295E-2,-9.274643E-2,1.6570808E-1,-3.3716505E-4,-1.8779388E-2,2.9300941E-2,1.7670462E-3],"split_indices":[49,0,50,0,49,0,50,49,49,50,50,27,83,57,79,11,50,50,115,50,50,0,0,0,0,0,0,0,0,0,0,0,0,0,0,0,0],"split_type":[0,0,0,0,0,0,0,0,0,0,0,0,0,0,0,0,0,0,0,0,0,0,0,0,0,0,0,0,0,0,0,0,0,0,0,0,0],"sum_hessian":[8.658304E3,3.9673248E2,8.261571E3,2.5047351E2,8.011098E3,3.751214E2,7.6359766E3,1.0981774E3,6.5377993E3,9.322118E2,1.6596567E2,1.063634E3,5.474165E3,2.5497527E2,6.772365E2,4.648177E1,1.19483894E2,1.0518291E3,1.180487E1,4.2815776E3,1.1925875E3,2.5126611E2,3.7091522E0,6.603693E2,1.6867153E1,4.4196278E1,2.2854939E0,1.3825138E1,1.0565875E2,8.646764E2,1.8715277E2,1.3881946E0,1.0416675E1,2.5259678E3,1.7556101E3,5.7295166E2,6.196358E2],"tree_param":{"num_deleted":"0","num_feature":"116","num_nodes":"37","size_leaf_vector":"0"}},{"base_weights":[-8.115865E-2,-1.0602337E0,-3.768637E-2,1.0586312E0,-6.934619E-2,-1.0600754E0,-2.4624437E-2,2.0513806E-1,-7.122395E-2,1.4261428E-1,5.256622E-1,-1.4713651E-1,4.884671E-2,3.93883E-1,6.668649E-2,9.3178797E-1,4.1430187E-1,-1.1765226E-1,-4.7323206E-1,3.0293158E-1,-5.281177E-3,4.1656274E-1,-8.1549394E-1,1.08320296E-1,-2.8286135E-1,9.899181E-1,-8.667829E-2,4.8970938E-1,-3.7798244E-1,-1.4098686E-1,3.3585298E-1,-5.309897E-1,1.4699154E0,-4.4398835E-1,3.8903013E-1,-2.6985163E-2,5.884799E-1],"categories":[],"categories_nodes":[],"categories_segments":[],"categories_sizes":[],"default_left":[1,0,1,0,1,0,1,1,1,1,1,1,1,1,1,1,1,1,1,1,1,0,0,0,0,0,0,0,0,0,0,0,0,0,0,0,0],"id":21,"left_children":[1,-1,3,-1,5,-1,7,9,11,13,15,17,19,21,23,25,27,29,31,33,35,-1,-1,-1,-1,-1,-1,-1,-1,-1,-1,-1,-1,-1,-1,-1,-1],"loss_changes":[3.627636E2,0E0,2.8339243E2,0E0,3.5152783E2,0E0,8.13094E1,2.5587513E1,5.75518E1,2.0442677E1,9.050251E0,3.7135094E1,3.3643616E1,7.1629715E0,1.2038698E1,2.6966248E0,1.0075586E1,3.7601116E1,3.674054E1,2.7800114E1,2.601587E1,0E0,0E0,0E0,0E0,0E0,0E0,0E0,0E0,0E0,0E0,0E0,0E0,0E0,0E0,0E0,0E0],"parents":[2147483647,0,0,2,2,4,4,6,6,7,7,8,8,9,9,10,10,11,11,12,12,13,13,14,14,15,15,16,16,17,17,18,18,19,19,20,20],"right_children":[2,-1,4,-1,6,-1,8,10,12,14,16,18,20,22,24,26,28,30,32,34,36,-1,-1,-1,-1,-1,-1,-1,-1,-1,-1,-1,-1,-1,-1,-1,-1],"split_conditions":[-1.0822151E0,-1.0602337E-1,-7.6676106E-1,1.0586312E-1,-6.337167E-1,-1.0600754E-1,-3.682762E-1,2.6327989E-1,7.1177816E-1,-6.671398E-1,-5.53287E-1,5E-1,7.290344E-2,5E-1,5E-1,5E-1,5E-1,5E-1,5E-1,5E-1,2.9126015E0,4.1656274E-2,-8.15494E-2,1.0832029E-2,-2.8286135E-2,9.899181E-2,-8.667829E-3,4.8970938E-2,-3.7798245E-2,-1.4098686E-2,3.35853E-2,-5.3098973E-2,1.4699154E-1,-4.4398837E-2,3.8903013E-2,-2.6985162E-3,5.884799E-2],"split_indices":[49,0,50,0,49,0,50,49,49,50,50,107,50,57,110,11,94,16,21,0,27,0,0,0,0,0,0,0,0,0,0,0,0,0,0,0,0],"split_type":[0,0,0,0,0,0,0,0,0,0,0,0,0,0,0,0,0,0,0,0,0,0,0,0,0,0,0,0,0,0,0,0,0,0,0,0,0],"sum_hessian":[8.522994E3,3.6134976E2,8.1616445E3,2.281688E2,7.9334756E3,3.4167105E2,7.5918047E3,1.2795387E3,6.312266E3,1.0718925E3,2.0764621E2,3.867121E3,2.4451448E3,2.4776694E2,8.241255E2,4.309898E1,1.6454723E2,3.547712E3,3.1940915E2,4.2860562E2,2.0165392E3,2.4384953E2,3.9174154E0,7.370297E2,8.709575E1,4.0798393E1,2.300585E0,1.5059583E2,1.3951408E1,3.3747568E3,1.7295523E2,3.1089493E2,8.514225E0,4.38699E1,3.8473572E2,1.946348E3,7.0191086E1],"tree_param":{"num_deleted":"0","num_feature":"116","num_nodes":"37","size_leaf_vector":"0"}},{"base_weights":[-7.433111E-2,-1.0536101E0,-3.4304984E-2,1.0518514E0,-6.3122034E-2,-1.0534363E0,-2.221459E-2,1.0208866E-1,-9.760025E-2,6.325181E-2,3.9465606E-1,-1.6038853E-1,6.829265E-2,3.7973848E-1,2.2230027E-2,9.0975803E-1,2.9892257E-1,-1.7660187E-1,4.155146E-1,3.61388E-2,7.8639644E-1,2.4633715E-1,7.7215654E-1,-1.9616571E-1,6.837413E-2,9.6341836E-1,-8.701332E-1,1.9658521E-1,7.046727E-1,-3.884415E-1,-1.3401309E-1,-1.7308016E-1,7.61842E-1,8.636237E-2,-2.66569E-1,8.991842E-1,-1.305578E0],"categories":[],"categories_nodes":[],"categories_segments":[],"categories_sizes":[],"default_left":[1,0,1,0,1,0,1,1,1,1,1,1,1,1,1,1,1,1,1,1,1,0,0,0,0,0,0,0,0,0,0,0,0,0,0,0,0],"id":22,"left_children":[1,-1,3,-1,5,-1,7,9,11,13,15,17,19,21,23,25,27,29,31,33,35,-1,-1,-1,-1,-1,-1,-1,-1,-1,-1,-1,-1,-1,-1,-1,-1],"loss_changes":[3.293177E2,0E0,2.5277063E2,0E0,3.186354E2,0E0,7.080479E1,3.2387306E1,4.90015E1,3.2701714E1,1.62034E1,3.193467E1,2.9805487E1,1.4940407E1,2.250131E1,5.7926483E0,1.1622059E1,2.9896652E1,1.9238928E1,1.8840693E1,1.4228241E1,0E0,0E0,0E0,0E0,0E0,0E0,0E0,0E0,0E0,0E0,0E0,0E0,0E0,0E0,0E0,0E0],"parents":[2147483647,0,0,2,2,4,4,6,6,7,7,8,8,9,9,10,10,11,11,12,12,13,13,14,14,15,15,16,16,17,17,18,18,19,19,20,20],"right_children":[2,-1,4,-1,6,-1,8,10,12,14,16,18,20,22,24,26,28,30,32,34,36,-1,-1,-1,-1,-1,-1,-1,-1,-1,-1,-1,-1,-1,-1,-1,-1],"split_conditions":[-1.0822151E0,-1.0536101E-1,-7.6676106E-1,1.0518514E-1,-6.337167E-1,-1.0534363E-1,-2.6717773E-2,7.1177816E-1,1.1602765E0,-6.3867664E-1,-4.10971E-1,5E-1,2.9126015E0,-1.852184E-1,6.5E0,5E-1,5E-1,-1.852184E-1,6E0,2.0226328E0,5E-1,2.4633715E-2,7.721566E-2,-1.9616572E-2,6.8374127E-3,9.634184E-2,-8.701333E-2,1.965852E-2,7.046727E-2,-3.884415E-2,-1.3401309E-2,-1.7308017E-2,7.6184206E-2,8.636237E-3,-2.66569E-2,8.991843E-2,-1.305578E-1],"split_indices":[49,0,50,0,49,0,50,49,49,50,50,109,27,49,0,26,81,49,1,50,105,0,0,0,0,0,0,0,0,0,0,0,0,0,0,0,0],"split_type":[0,0,0,0,0,0,0,0,0,0,0,0,0,0,0,0,0,0,0,0,0,0,0,0,0,0,0,0,0,0,0,0,0,0,0,0,0],"sum_hessian":[8.401582E3,3.2891937E2,8.072663E3,2.077245E2,7.8649385E3,3.1101172E2,7.553927E3,2.8515908E3,4.702336E3,2.51849E3,3.331007E2,3.4112544E3,1.2910817E3,2.88033E2,2.230457E3,5.087274E1,2.8222797E2,3.3185217E3,9.273263E1,1.236755E3,5.4326675E1,2.1617328E2,7.185972E1,3.8849506E2,1.8419619E3,4.9829205E1,1.0435342E0,2.2656801E2,5.565995E1,5.541281E2,2.7643936E3,3.4536667E1,5.8195957E1,1.0613728E3,1.7538226E2,5.208852E1,2.2381535E0],"tree_param":{"num_deleted":"0","num_feature":"116","num_nodes":"37","size_leaf_vector":"0"}},{"base_weights":[-6.8068534E-2,-1.0476309E0,-3.1238345E-2,1.0457001E0,-5.7475403E-2,-1.04744E0,-2.0063493E-2,5.7858832E-2,-1.2000599E-1,2.7599055E-1,2.284699E-2,-2.2801292E-1,-1.867371E-2,1.356273E-1,5.3530455E-1,-8.161174E-2,1.3838725E-1,-2.576896E-1,1.1279633E-1,-6.714551E-2,2.974998E-1,3.0549863E-1,-3.534119E-2,6.054087E-1,-9.395815E-2,-1.1255642E-1,7.7474105E-1,2.975547E-2,2.4706186E-1,-3.0563122E-1,2.4814634E-2,5.076098E-1,-2.2457524E-1,-8.059836E-2,1.099092E0,1.343499E-1,7.6083386E-1],"categories":[],"categories_nodes":[],"categories_segments":[],"categories_sizes":[],"default_left":[1,0,1,0,1,0,1,1,1,1,1,1,1,1,1,1,1,1,1,1,1,0,0,0,0,0,0,0,0,0,0,0,0,0,0,0,0],"id":23,"left_children":[1,-1,3,-1,5,-1,7,9,11,13,15,17,19,21,23,25,27,29,31,33,35,-1,-1,-1,-1,-1,-1,-1,-1,-1,-1,-1,-1,-1,-1,-1,-1],"loss_changes":[2.9891885E2,0E0,2.2574239E2,0E0,2.887942E2,0E0,5.853331E1,3.224912E1,3.6033165E1,2.1185734E1,4.3948162E1,1.6148636E1,2.6072414E1,1.1055013E1,9.090275E0,5.0768208E1,2.040313E1,1.9868301E1,1.7211426E1,2.3226809E1,1.6993486E1,0E0,0E0,0E0,0E0,0E0,0E0,0E0,0E0,0E0,0E0,0E0,0E0,0E0,0E0,0E0,0E0],"parents":[2147483647,0,0,2,2,4,4,6,6,7,7,8,8,9,9,10,10,11,11,12,12,13,13,14,14,15,15,16,16,17,17,18,18,19,19,20,20],"right_children":[2,-1,4,-1,6,-1,8,10,12,14,16,18,20,22,24,26,28,30,32,34,36,-1,-1,-1,-1,-1,-1,-1,-1,-1,-1,-1,-1,-1,-1,-1,-1],"split_conditions":[-1.0822151E0,-1.0476309E-1,-7.6676106E-1,1.0457001E-1,-6.337167E-1,-1.0474401E-1,3.1484067E-1,-5.248238E-1,7.1177816E-1,-1.852184E-1,5E-1,5E-1,5E-1,-5.325373E-1,5E-1,1.6087748E0,2.6327989E-1,5E-1,5E-1,1.15E1,5E-1,3.0549863E-2,-3.5341189E-3,6.0540874E-2,-9.3958145E-3,-1.1255642E-2,7.747411E-2,2.975547E-3,2.4706187E-2,-3.0563122E-2,2.4814634E-3,5.076098E-2,-2.2457523E-2,-8.059836E-3,1.099092E-1,1.343499E-2,7.6083384E-2],"split_indices":[49,0,50,0,49,0,50,50,49,49,37,91,102,67,98,49,49,23,74,1,77,0,0,0,0,0,0,0,0,0,0,0,0,0,0,0,0],"split_type":[0,0,0,0,0,0,0,0,0,0,0,0,0,0,0,0,0,0,0,0,0,0,0,0,0,0,0,0,0,0,0,0,0,0,0,0,0],"sum_hessian":[8.285379E3,2.99236E2,7.986143E3,1.8901204E2,7.797131E3,2.8294937E2,7.5141816E3,4.222466E3,3.2917158E3,5.830499E2,3.6394158E3,1.5927754E3,1.6989403E3,3.792759E2,2.0377403E2,1.9115223E3,1.7278934E3,1.4654153E3,1.273602E2,1.4737854E3,2.2515486E2,1.898537E2,1.8942221E2,1.8338193E2,2.0392101E1,1.8456959E3,6.582646E1,8.64754E2,8.631394E2,1.2527404E3,2.1267485E2,5.8451717E1,6.8908485E1,1.457899E3,1.5886345E1,1.6747372E2,5.7681145E1],"tree_param":{"num_deleted":"0","num_feature":"116","num_nodes":"37","size_leaf_vector":"0"}},{"base_weights":[-6.22563E-2,-1.042216E0,-2.8403914E-2,1.0400954E0,-5.2283056E-2,-1.0420063E0,-1.8091924E-2,9.183161E-2,-7.932674E-2,5.651309E-2,3.8188955E-1,-1.16343595E-1,1.298185E-1,3.5784206E-1,2.1997003E-2,8.7050664E-1,2.8592843E-1,-7.314833E-2,-3.0964914E-1,8.1335306E-2,9.3056494E-1,2.4077828E-1,7.3105603E-1,-1.8653555E-1,7.0013486E-2,9.282509E-1,-8.198772E-1,-3.1264294E-3,4.7637582E-1,-1.6461135E-1,3.278478E-2,-3.2585505E-1,1.507908E0,1.0976666E-1,-1.0503914E0,1.2025275E0,-2.6104856E-1],"categories":[],"categories_nodes":[],"categories_segments":[],"categories_sizes":[],"default_left":[1,0,1,0,1,0,1,1,1,1,1,1,1,1,1,1,1,1,1,1,1,0,0,0,0,0,0,0,0,0,0,0,0,0,0,0,0],"id":24,"left_children":[1,-1,3,-1,5,-1,7,9,11,13,15,17,19,21,23,25,27,29,31,33,35,-1,-1,-1,-1,-1,-1,-1,-1,-1,-1,-1,-1,-1,-1,-1,-1],"loss_changes":[2.7132172E2,0E0,2.018142E2,0E0,2.6175333E2,0E0,5.0345127E1,2.7392162E1,3.7202354E1,2.4815208E1,1.3362461E1,3.4058163E1,2.7984798E1,1.0537699E1,2.1465437E1,5.3647156E0,1.3440775E1,3.2341583E1,2.2440308E1,2.207951E1,1.3655594E1,0E0,0E0,0E0,0E0,0E0,0E0,0E0,0E0,0E0,0E0,0E0,0E0,0E0,0E0,0E0,0E0],"parents":[2147483647,0,0,2,2,4,4,6,6,7,7,8,8,9,9,10,10,11,11,12,12,13,13,14,14,15,15,16,16,17,17,18,18,19,19,20,20],"right_children":[2,-1,4,-1,6,-1,8,10,12,14,16,18,20,22,24,26,28,30,32,34,36,-1,-1,-1,-1,-1,-1,-1,-1,-1,-1,-1,-1,-1,-1,-1,-1],"split_conditions":[-1.0822151E0,-1.042216E-1,-7.6676106E-1,1.0400955E-1,-6.337167E-1,-1.04200624E-1,-6.9412574E-2,7.1177816E-1,1.6087748E0,-6.671398E-1,-4.10971E-1,1.2256632E0,2.9126015E0,-1.852184E-1,7.5E0,5E-1,-2.4019179E-1,5E-1,5E-1,5E-1,5E-1,2.4077829E-2,7.31056E-2,-1.8653555E-2,7.001349E-3,9.282509E-2,-8.198772E-2,-3.1264295E-4,4.763758E-2,-1.6461136E-2,3.2784778E-3,-3.2585505E-2,1.507908E-1,1.0976667E-2,-1.0503914E-1,1.2025275E-1,-2.6104856E-2],"split_indices":[49,0,50,0,49,0,50,49,49,50,50,50,27,49,0,26,50,37,41,52,64,0,0,0,0,0,0,0,0,0,0,0,0,0,0,0,0],"split_type":[0,0,0,0,0,0,0,0,0,0,0,0,0,0,0,0,0,0,0,0,0,0,0,0,0,0,0,0,0,0,0,0,0,0,0,0,0],"sum_hessian":[8.1786445E3,2.7210004E2,7.9065444E3,1.7190498E2,7.7346396E3,2.5729523E2,7.477344E3,2.6749688E3,4.8023755E3,2.3856748E3,2.8929373E2,4.080591E3,7.217846E2,2.4422224E2,2.1414526E3,4.6163887E1,2.4312985E2,3.3364255E3,7.4416547E2,6.816161E2,4.0168575E1,1.8716156E2,5.7060684E1,4.0026077E2,1.7411919E3,4.507497E1,1.0889165E0,9.695631E1,1.4617354E2,1.7902036E3,1.546222E3,7.3840234E2,5.763099E0,6.6579297E2,1.5823108E1,3.269697E1,7.4716063E0],"tree_param":{"num_deleted":"0","num_feature":"116","num_nodes":"37","size_leaf_vector":"0"}},{"base_weights":[-5.687811E-2,-1.0372947E0,-2.5798334E-2,1.0349649E0,-4.75222E-2,-1.0370642E0,-1.629849E-2,-3.3431463E-2,3.2694876E-1,-5.3050347E-2,2.3755412E-1,9.558489E-2,4.557408E-1,1.4525622E-1,-8.182533E-2,1.9419874E-1,1.01554E0,3.098296E-1,-5.335567E-1,3.1626955E-1,6.807312E-1,-5.627026E-2,2.516676E-1,-2.7931362E-1,-4.3836314E-2,8.986834E-2,4.5247996E-1,1.4575895E0,-9.438739E-2,4.358904E-1,-5.523771E-1,-9.807527E-1,1.7503595E-1,2.1535769E-1,1.0303428E0,7.5348496E-1,-1.3120351E0],"categories":[],"categories_nodes":[],"categories_segments":[],"categories_sizes":[],"default_left":[1,0,1,0,1,0,1,1,1,1,1,1,1,1,1,1,1,1,1,1,1,0,0,0,0,0,0,0,0,0,0,0,0,0,0,0,0],"id":25,"left_children":[1,-1,3,-1,5,-1,7,9,11,13,15,17,19,21,23,25,27,29,31,33,35,-1,-1,-1,-1,-1,-1,-1,-1,-1,-1,-1,-1,-1,-1,-1,-1],"loss_changes":[2.4625388E2,0E0,1.8060043E2,0E0,2.3723706E2,0E0,4.379358E1,3.771633E1,1.0505951E1,3.7752907E1,1.5958118E1,1.7400816E1,6.913143E0,1.7994646E1,4.332529E1,1.2217779E1,1.242626E1,1.0677154E1,1.0581116E1,1.0017848E1,1.3466274E1,0E0,0E0,0E0,0E0,0E0,0E0,0E0,0E0,0E0,0E0,0E0,0E0,0E0,0E0,0E0,0E0],"parents":[2147483647,0,0,2,2,4,4,6,6,7,7,8,8,9,9,10,10,11,11,12,12,13,13,14,14,15,15,16,16,17,17,18,18,19,19,20,20],"right_children":[2,-1,4,-1,6,-1,8,10,12,14,16,18,20,22,24,26,28,30,32,34,36,-1,-1,-1,-1,-1,-1,-1,-1,-1,-1,-1,-1,-1,-1,-1,-1],"split_conditions":[-1.0822151E0,-1.0372948E-1,-7.6676106E-1,1.0349649E-1,-6.337167E-1,-1.0370642E-1,5E-1,5E-1,7.5E0,-4.536658E-1,5E-1,1.7252465E-1,5E-1,5E-1,-1.852184E-1,5E-1,5E-1,5E-1,5E-1,5E-1,5E-1,-5.6270263E-3,2.516676E-2,-2.7931362E-2,-4.3836315E-3,8.9868335E-3,4.5247998E-2,1.4575896E-1,-9.438739E-3,4.358904E-2,-5.523771E-2,-9.807527E-2,1.7503595E-2,2.153577E-2,1.0303428E-1,7.53485E-2,-1.3120352E-1],"split_indices":[49,0,50,0,49,0,109,78,1,50,16,50,75,34,49,77,77,23,104,4,79,0,0,0,0,0,0,0,0,0,0,0,0,0,0,0,0],"split_type":[0,0,0,0,0,0,0,0,0,0,0,0,0,0,0,0,0,0,0,0,0,0,0,0,0,0,0,0,0,0,0,0,0,0,0,0,0],"sum_hessian":[8.081427E3,2.4731941E2,7.8341074E3,1.5628255E2,7.677825E3,2.3386789E2,7.443957E3,7.090921E3,3.5303632E2,6.6129585E3,4.779624E2,1.2686908E2,2.2616724E2,8.374582E2,5.7755E3,4.5391632E2,2.4046091E1,9.501924E1,3.1849836E1,1.4110321E2,8.5064026E1,2.8955585E2,5.4790234E2,9.3072345E2,4.844777E3,3.2427588E2,1.2964043E2,1.6973034E1,7.0730586E0,8.3330215E1,1.1689031E1,1.9291069E1,1.2558766E1,1.2477217E2,1.633104E1,8.26678E1,2.3962243E0],"tree_param":{"num_deleted":"0","num_feature":"116","num_nodes":"37","size_leaf_vector":"0"}},{"base_weights":[-5.1908154E-2,-1.0328048E0,-2.3434035E-2,1.0302447E0,-4.316933E-2,-1.0325514E0,-1.4706793E-2,1.4532458E-2,-1.9597036E-1,3.4899298E-2,-2.39135E-1,-1.5110277E-1,-6.919588E-1,-2.4492798E-2,1.4759664E-1,3.0963248E-1,-3.084291E-1,-1.704533E-1,1.4161879E0,-8.073071E-1,1.1460043E0,2.8717312E-1,-5.8643214E-2,-8.59746E-2,1.9746596E-1,5.905411E-1,-7.1562386E-1,-3.3104247E-1,1.4889363E0,-2.2963473E-1,2.7489483E-1,-1.6617425E-1,1.8131006E0,2.0295063E-1,-9.441326E-1,-8.367696E-1,2.041424E0],"categories":[],"categories_nodes":[],"categories_segments":[],"categories_sizes":[],"default_left":[1,0,1,0,1,0,1,1,1,1,1,1,1,1,1,1,1,1,1,1,1,0,0,0,0,0,0,0,0,0,0,0,0,0,0,0,0],"id":26,"left_children":[1,-1,3,-1,5,-1,7,9,11,13,15,17,19,21,23,25,27,29,31,33,35,-1,-1,-1,-1,-1,-1,-1,-1,-1,-1,-1,-1,-1,-1,-1,-1],"loss_changes":[2.2347302E2,0E0,1.6177057E2,0E0,2.1499619E2,0E0,3.9343582E1,3.3035408E1,2.2841469E1,3.961753E1,1.8167292E1,2.8957314E1,1.9000324E1,4.1278458E1,2.3810719E1,1.5911745E1,1.7663692E1,2.4737736E1,7.6213913E0,1.1361843E1,1.1380663E1,0E0,0E0,0E0,0E0,0E0,0E0,0E0,0E0,0E0,0E0,0E0,0E0,0E0,0E0,0E0,0E0],"parents":[2147483647,0,0,2,2,4,4,6,6,7,7,8,8,9,9,10,10,11,11,12,12,13,13,14,14,15,15,16,16,17,17,18,18,19,19,20,20],"right_children":[2,-1,4,-1,6,-1,8,10,12,14,16,18,20,22,24,26,28,30,32,34,36,-1,-1,-1,-1,-1,-1,-1,-1,-1,-1,-1,-1,-1,-1,-1,-1],"split_conditions":[-1.0822151E0,-1.03280485E-1,-7.6676106E-1,1.03024475E-1,-6.337167E-1,-1.03255145E-1,1.2256632E0,5E-1,5E-1,3.931012E-1,6.5E0,5E-1,2.0426776E0,-5.3905547E-1,-1.852184E-1,5E-1,5E-1,2.5057714E0,5E-1,9E0,5E-1,2.8717313E-2,-5.8643217E-3,-8.59746E-3,1.9746596E-2,5.9054114E-2,-7.156239E-2,-3.310425E-2,1.4889364E-1,-2.2963474E-2,2.7489483E-2,-1.6617425E-2,1.8131006E-1,2.0295063E-2,-9.4413266E-2,-8.367696E-2,2.041424E-1],"split_indices":[49,0,50,0,49,0,50,107,69,115,0,41,27,50,49,112,21,49,104,0,84,0,0,0,0,0,0,0,0,0,0,0,0,0,0,0,0],"split_type":[0,0,0,0,0,0,0,0,0,0,0,0,0,0,0,0,0,0,0,0,0,0,0,0,0,0,0,0,0,0,0,0,0,0,0,0,0],"sum_hessian":[8.0010005E3,2.2471136E2,7.776289E3,1.4202986E2,7.6342593E3,2.1249443E2,7.4217646E3,6.391659E3,1.0301055E3,5.917415E3,4.7424408E2,9.458478E2,8.425768E1,3.8756892E3,2.041726E3,5.2781105E1,4.2146298E2,9.351927E2,1.0655103E1,7.980968E1,4.448E0,3.8200443E2,3.4936848E3,3.5909952E2,1.6826265E3,4.1762627E1,1.101848E1,4.1703195E2,4.431027E0,8.2592194E2,1.0927077E2,2.2532918E0,8.401811E0,9.462149E0,7.0347534E1,1.4041713E0,3.0438285E0],"tree_param":{"num_deleted":"0","num_feature":"116","num_nodes":"37","size_leaf_vector":"0"}},{"base_weights":[-4.7333945E-2,-1.0286909E0,-2.1267448E-2,1.0258774E0,-3.9194357E-2,-1.0284122E0,-1.3259335E-2,9.915219E-2,-5.4400314E-2,-6.849135E-3,1.8426232E-1,-1.7175053E-1,8.779261E-3,7.3927057E-1,-2.662168E-2,5.763874E-1,1.389779E-1,-1.9565612E-1,2.5831848E-1,-3.2415427E-2,1.5420797E-1,-1.20006844E-1,8.3474994E-1,-5.4096434E-2,4.444004E-1,3.2692686E-1,7.923081E-1,2.2776255E-1,-6.304353E-2,-2.7209312E-1,-6.885154E-2,1.2517056E-1,1.7580762E0,-6.045146E-2,3.0137685E-1,1.3483438E-1,1.1715231E0],"categories":[],"categories_nodes":[],"categories_segments":[],"categories_sizes":[],"default_left":[1,0,1,0,1,0,1,1,1,1,1,1,1,1,1,1,1,1,1,1,1,0,0,0,0,0,0,0,0,0,0,0,0,0,0,0,0],"id":27,"left_children":[1,-1,3,-1,5,-1,7,9,11,13,15,17,19,21,23,25,27,29,31,33,35,-1,-1,-1,-1,-1,-1,-1,-1,-1,-1,-1,-1,-1,-1,-1,-1],"loss_changes":[2.0277231E2,0E0,1.4502762E2,0E0,1.9482707E2,0E0,3.4235367E1,1.7895325E1,4.0179424E1,1.3065032E1,1.9455574E1,1.9549133E1,2.1114136E1,1.9759636E0,1.1184625E1,5.8588257E0,1.7727957E1,1.7401268E1,1.9808937E1,2.5721386E1,1.5174686E1,0E0,0E0,0E0,0E0,0E0,0E0,0E0,0E0,0E0,0E0,0E0,0E0,0E0,0E0,0E0,0E0],"parents":[2147483647,0,0,2,2,4,4,6,6,7,7,8,8,9,9,10,10,11,11,12,12,13,13,14,14,15,15,16,16,17,17,18,18,19,19,20,20],"right_children":[2,-1,4,-1,6,-1,8,10,12,14,16,18,20,22,24,26,28,30,32,34,36,-1,-1,-1,-1,-1,-1,-1,-1,-1,-1,-1,-1,-1,-1,-1,-1],"split_conditions":[-1.0822151E0,-1.0286909E-1,-7.6676106E-1,1.0258774E-1,-6.337167E-1,-1.0284122E-1,-1.9749698E-1,-1.852184E-1,2.6327989E-1,-7.2406626E-1,-5.53287E-1,5E-1,5E-1,5E-1,5E-1,-5.325373E-1,5E-1,5E-1,5E-1,5E-1,5E-1,-1.2000685E-2,8.347499E-2,-5.4096435E-3,4.4440042E-2,3.2692686E-2,7.923081E-2,2.2776255E-2,-6.304353E-3,-2.7209312E-2,-6.8851537E-3,1.2517056E-2,1.7580763E-1,-6.045146E-3,3.0137686E-2,1.3483438E-2,1.1715231E-1],"split_indices":[49,0,50,0,49,0,50,49,49,50,50,16,83,0,69,67,74,37,108,11,32,0,0,0,0,0,0,0,0,0,0,0,0,0,0,0,0],"split_type":[0,0,0,0,0,0,0,0,0,0,0,0,0,0,0,0,0,0,0,0,0,0,0,0,0,0,0,0,0,0,0,0,0,0,0,0,0],"sum_hessian":[7.9266743E3,2.0410287E2,7.7225713E3,1.2903722E2,7.593534E3,1.930113E2,7.400523E3,1.9824277E3,5.418095E3,8.832696E2,1.0991581E3,1.8955563E3,3.522539E3,2.1863377E1,8.614062E2,1.1258016E2,9.8657794E2,1.7962556E3,9.930064E1,2.7455898E3,7.769491E2,2.160732E0,1.9702644E1,8.14766E2,4.6640205E1,5.339973E1,5.9180435E1,6.852819E2,3.0129602E2,1.1199882E3,6.7626746E2,9.219873E1,7.101908E0,2.5336052E3,2.1198483E2,7.6354083E2,1.3408222E1],"tree_param":{"num_deleted":"0","num_feature":"116","num_nodes":"37","size_leaf_vector":"0"}},{"base_weights":[-4.311875E-2,-1.0249035E0,-1.9253142E-2,1.0218109E0,-3.5549615E-2,-1.024597E0,-1.1905129E-2,-2.6956834E-2,2.907414E-1,-6.0381953E-2,9.370195E-2,1.9808708E-1,5.545781E-1,-4.3356046E-2,-3.6557648E-1,5.3310458E-2,4.1738543E-1,-1.1252192E-1,3.5601923E-1,1.1852643E-1,7.7559316E-1,-5.316782E-2,4.4116232E-1,-1.2864552E-1,-6.4084077E-1,3.6509514E-2,9.646079E-1,5.2561814E-1,-7.5104855E-2,1.1533078E-1,-6.321774E-1,3.9728808E-1,-6.651613E-1,2.8589326E-1,-1.0653838E0,8.947129E-1,-3.5971934E-1],"categories":[],"categories_nodes":[],"categories_segments":[],"categories_sizes":[],"default_left":[1,0,1,0,1,0,1,1,1,1,1,1,1,1,1,1,1,1,1,1,1,0,0,0,0,0,0,0,0,0,0,0,0,0,0,0,0],"id":28,"left_children":[1,-1,3,-1,5,-1,7,9,11,13,15,17,19,21,23,25,27,29,31,33,35,-1,-1,-1,-1,-1,-1,-1,-1,-1,-1,-1,-1,-1,-1,-1,-1],"loss_changes":[1.8397002E2,0E0,1.3011403E2,0E0,1.7654637E2,0E0,3.3601902E1,2.8342442E1,8.433304E0,2.8576857E1,1.991E1,1.2804241E1,8.608273E0,2.4805906E1,1.8871353E1,2.073479E1,9.047411E0,1.0547746E1,7.5437965E0,6.555339E0,8.399551E0,0E0,0E0,0E0,0E0,0E0,0E0,0E0,0E0,0E0,0E0,0E0,0E0,0E0,0E0,0E0,0E0],"parents":[2147483647,0,0,2,2,4,4,6,6,7,7,8,8,9,9,10,10,11,11,12,12,13,13,14,14,15,15,16,16,17,17,18,18,19,19,20,20],"right_children":[2,-1,4,-1,6,-1,8,10,12,14,16,18,20,22,24,26,28,30,32,34,36,-1,-1,-1,-1,-1,-1,-1,-1,-1,-1,-1,-1,-1,-1,-1,-1],"split_conditions":[-1.0822151E0,-1.0249036E-1,-7.6676106E-1,1.0218109E-1,-6.337167E-1,-1.0245971E-1,5E-1,5E-1,5E-1,5E-1,5E-1,7.5E0,-3.825078E-1,2.9126015E0,7.5438845E-1,2.9542696E0,5E-1,1.0136664E-1,5E-1,5E-1,4.9985147E-1,-5.3167823E-3,4.4116233E-2,-1.2864552E-2,-6.4084075E-2,3.6509514E-3,9.646079E-2,5.2561816E-2,-7.5104856E-3,1.1533078E-2,-6.3217744E-2,3.972881E-2,-6.651613E-2,2.8589327E-2,-1.0653838E-1,8.9471295E-2,-3.5971936E-2],"split_indices":[49,0,50,0,49,0,109,83,76,85,81,1,50,27,115,49,110,50,2,23,50,0,0,0,0,0,0,0,0,0,0,0,0,0,0,0,0],"split_type":[0,0,0,0,0,0,0,0,0,0,0,0,0,0,0,0,0,0,0,0,0,0,0,0,0,0,0,0,0,0,0,0,0,0,0,0,0],"sum_hessian":[7.851444E3,1.8533127E2,7.666113E3,1.1720229E2,7.5489106E3,1.7526471E2,7.373646E3,7.02517E3,3.484761E2,5.5016045E3,1.5235651E3,2.5920065E2,8.9275444E1,5.2119854E3,2.8961926E2,1.355572E3,1.6799309E2,8.746623E1,1.7173442E2,3.054599E1,5.8729454E1,5.109407E3,1.0257813E2,1.5643594E2,1.331833E2,1.332054E3,2.3518066E1,1.3767049E2,3.0322588E1,6.1345993E1,2.6120237E1,1.6565094E2,6.083479E0,2.7427185E1,3.118804E0,5.3344353E1,5.3850985E0],"tree_param":{"num_deleted":"0","num_feature":"116","num_nodes":"37","size_leaf_vector":"0"}},{"base_weights":[-3.92361E-2,-1.0213981E0,-1.7446296E-2,1.0179988E0,-3.2228414E-2,-1.0210611E0,-1.0726942E-2,3.0327009E-2,-1.1057908E-1,4.833183E-2,-2.876689E-1,-1.2728061E-1,4.6918353E-1,3.038961E-2,4.1241208E-1,-3.0555266E-1,1.4765035E0,-1.7904726E-1,9.1692835E-2,6.2569225E-1,-7.3744434E-1,-3.4603957E-2,1.04671374E-1,2.5313297E-1,9.176109E-1,-2.0858662E-1,-6.332062E-1,2.725729E-1,-2.0771569E-1,-5.931912E-1,1.4250419E-1,-2.6926255E-1,9.4520944E-1,-1.1959361E0,7.117165E-1],"categories":[],"categories_nodes":[],"categories_segments":[],"categories_sizes":[],"default_left":[1,0,1,0,1,0,1,1,1,1,1,1,1,1,1,1,0,1,1,1,1,0,0,0,0,0,0,0,0,0,0,0,0,0,0],"id":29,"left_children":[1,-1,3,-1,5,-1,7,9,11,13,15,17,19,21,23,25,-1,27,29,31,33,-1,-1,-1,-1,-1,-1,-1,-1,-1,-1,-1,-1,-1,-1],"loss_changes":[1.6688144E2,0E0,1.1682397E2,0E0,1.5995847E2,0E0,3.0194227E1,2.9899826E1,2.083937E1,3.226394E1,9.280485E0,2.3670345E1,1.1849612E1,2.2742718E1,1.8434628E1,8.696262E0,0E0,2.191233E1,1.3992263E1,1.5673355E1,5.7564917E0,0E0,0E0,0E0,0E0,0E0,0E0,0E0,0E0,0E0,0E0,0E0,0E0,0E0,0E0],"parents":[2147483647,0,0,2,2,4,4,6,6,7,7,8,8,9,9,10,10,11,11,12,12,13,13,14,14,15,15,17,17,18,18,19,19,20,20],"right_children":[2,-1,4,-1,6,-1,8,10,12,14,16,18,20,22,24,26,-1,28,30,32,34,-1,-1,-1,-1,-1,-1,-1,-1,-1,-1,-1,-1,-1,-1],"split_conditions":[-1.0822151E0,-1.0213981E-1,-7.6676106E-1,1.0179988E-1,-6.337167E-1,-1.0210611E-1,6.5639913E-1,5E-1,5E-1,1.6087748E0,5E-1,5E-1,5E-1,5E-1,1.1727538E0,5E-1,1.4765035E-1,5E-1,-1.852184E-1,-1.12701E-1,5E-1,-3.4603958E-3,1.0467137E-2,2.5313297E-2,9.176109E-2,-2.0858662E-2,-6.332062E-2,2.7257292E-2,-2.0771569E-2,-5.931912E-2,1.4250419E-2,-2.6926255E-2,9.452095E-2,-1.1959361E-1,7.117165E-2],"split_indices":[49,0,50,0,49,0,50,107,73,49,45,90,2,37,27,85,0,0,49,115,64,0,0,0,0,0,0,0,0,0,0,0,0,0,0],"split_type":[0,0,0,0,0,0,0,0,0,0,0,0,0,0,0,0,0,0,0,0,0,0,0,0,0,0,0,0,0,0,0,0,0,0,0],"sum_hessian":[7.7976255E3,1.6824426E2,7.6293813E3,1.06429535E2,7.5229517E3,1.5911072E2,7.363841E3,5.218829E3,2.145012E3,4.939977E3,2.7885184E2,2.0857083E3,5.93036E1,4.708997E3,2.3098036E2,2.7687192E2,1.9799039E0,1.6870594E3,3.9864877E2,5.2920826E1,6.3827744E0,2.5118035E3,2.1971934E3,1.767543E2,5.4226048E1,2.1490837E2,6.1963554E1,1.0019277E2,1.5868667E3,2.6795738E1,3.7185303E2,1.3964396E1,3.895643E1,4.981458E0,1.4013165E0],"tree_param":{"num_deleted":"0","num_feature":"116","num_nodes":"35","size_leaf_vector":"0"}},{"base_weights":[-3.5715807E-2,-1.0181342E0,-1.5816405E-2,1.0143981E0,-2.9236984E-2,-1.0177636E0,-9.672439E-3,-2.2991026E-2,2.5933596E-1,-3.9559368E-2,2.0475493E-1,1.7606837E-1,4.9749586E-1,1.0653208E-1,-6.272797E-2,1.668344E-1,8.696884E-1,-1.031093E-1,3.17856E-1,1.0326178E-1,6.969558E-1,8.450116E-2,7.869411E-1,-2.3675467E-1,-3.1068344E-2,1.7309101E0,1.4889933E-1,1.6000543E0,2.818952E-1,1.0383197E-1,-5.837667E-1,3.5018694E-1,-8.3659756E-1,2.6012126E-1,-9.7202384E-1,8.10483E-1,-3.6449352E-1],"categories":[],"categories_nodes":[],"categories_segments":[],"categories_sizes":[],"default_left":[1,0,1,0,1,0,1,1,1,1,1,1,1,1,1,1,1,1,1,1,1,0,0,0,0,0,0,0,0,0,0,0,0,0,0,0,0],"id":30,"left_children":[1,-1,3,-1,5,-1,7,9,11,13,15,17,19,21,23,25,27,29,31,33,35,-1,-1,-1,-1,-1,-1,-1,-1,-1,-1,-1,-1,-1,-1,-1,-1],"loss_changes":[1.5134721E2,0E0,1.0496751E2,0E0,1.4490964E2,0E0,2.6335356E1,2.643322E1,6.7889347E0,2.2105522E1,1.1833839E1,1.02642355E1,6.948578E0,1.3335609E1,3.1044334E1,1.2384781E1,1.0450779E1,8.795231E0,6.700159E0,5.510131E0,7.418625E0,0E0,0E0,0E0,0E0,0E0,0E0,0E0,0E0,0E0,0E0,0E0,0E0,0E0,0E0,0E0,0E0],"parents":[2147483647,0,0,2,2,4,4,6,6,7,7,8,8,9,9,10,10,11,11,12,12,13,13,14,14,15,15,16,16,17,17,18,18,19,19,20,20],"right_children":[2,-1,4,-1,6,-1,8,10,12,14,16,18,20,22,24,26,28,30,32,34,36,-1,-1,-1,-1,-1,-1,-1,-1,-1,-1,-1,-1,-1,-1,-1,-1],"split_conditions":[-1.0822151E0,-1.0181343E-1,-7.6676106E-1,1.0143981E-1,-6.337167E-1,-1.0177636E-1,5E-1,5E-1,5E-1,-4.252026E-1,5E-1,7.5E0,-3.825078E-1,7.1177816E-1,-1.852184E-1,-1.052048E0,5E-1,1.0136664E-1,5E-1,5E-1,4.9985147E-1,8.450116E-3,7.869411E-2,-2.3675468E-2,-3.1068344E-3,1.7309101E-1,1.4889933E-2,1.6000544E-1,2.818952E-2,1.0383197E-2,-5.837667E-2,3.5018694E-2,-8.365976E-2,2.6012126E-2,-9.720238E-2,8.10483E-2,-3.6449354E-2],"split_indices":[49,0,50,0,49,0,109,78,76,50,16,1,50,49,49,115,83,50,79,23,50,0,0,0,0,0,0,0,0,0,0,0,0,0,0,0,0],"split_type":[0,0,0,0,0,0,0,0,0,0,0,0,0,0,0,0,0,0,0,0,0,0,0,0,0,0,0,0,0,0,0,0,0,0,0,0,0],"sum_hessian":[7.7415513E3,1.5270006E2,7.5888516E3,9.662938E1,7.492222E3,1.4441522E2,7.3478066E3,7.0020503E3,3.4575647E2,6.5279717E3,4.7407855E2,2.5747504E2,8.828144E1,8.930674E2,5.6349043E3,4.4968436E2,2.439418E1,8.681347E1,1.7066156E2,3.01693E1,5.8112144E1,8.6614667E2,2.6920723E1,8.66338E2,4.7685664E3,4.0152354E0,4.4566913E2,1.0109912E1,1.4284268E1,6.1233917E1,2.5579548E1,1.6669E2,3.9715555E0,2.6990149E1,3.179152E0,5.2710896E1,5.401248E0],"tree_param":{"num_deleted":"0","num_feature":"116","num_nodes":"37","size_leaf_vector":"0"}},{"base_weights":[-3.2478698E-2,-1.0150754E0,-1.4306969E-2,1.0109693E0,-2.6496887E-2,-1.0146677E0,-8.690359E-3,1.4863967E-2,-1.5639412E-1,8.511478E-3,7.5600797E-1,-1.8994848E-1,4.2653012E-1,2.5797993E-2,-2.0471954E-1,1.0159926E0,-2.8041637E-1,-2.4366952E-1,2.2163807E-1,-6.8769133E-1,7.879531E-1,-2.0869212E-2,1.15922466E-1,-2.6561713E-1,6.5876E-1,1.0976923E0,-6.032854E-1,9.654912E-1,-9.849804E-1,-2.6513514E-1,1.3636241E0,3.2607967E-1,-1.152239E0,8.0890983E-1,-9.967764E-1,1.1778587E0,-1.1770838E0],"categories":[],"categories_nodes":[],"categories_segments":[],"categories_sizes":[],"default_left":[1,0,1,0,1,0,1,1,1,1,1,1,1,1,1,1,1,1,1,1,1,0,0,0,0,0,0,0,0,0,0,0,0,0,0,0,0],"id":31,"left_children":[1,-1,3,-1,5,-1,7,9,11,13,15,17,19,21,23,25,27,29,31,33,35,-1,-1,-1,-1,-1,-1,-1,-1,-1,-1,-1,-1,-1,-1,-1,-1],"loss_changes":[1.3724292E2,0E0,9.436902E1,0E0,1.3127144E2,0E0,2.5503132E1,2.9760994E1,1.9801147E1,2.3116146E1,1.4760046E1,2.114822E1,2.2764658E1,2.439882E1,2.4904585E1,6.3724937E0,1.1095854E1,2.949302E1,1.625546E1,7.3054576E0,3.3668533E1,0E0,0E0,0E0,0E0,0E0,0E0,0E0,0E0,0E0,0E0,0E0,0E0,0E0,0E0,0E0,0E0],"parents":[2147483647,0,0,2,2,4,4,6,6,7,7,8,8,9,9,10,10,11,11,12,12,13,13,14,14,15,15,16,16,17,17,18,18,19,19,20,20],"right_children":[2,-1,4,-1,6,-1,8,10,12,14,16,18,20,22,24,26,28,30,32,34,36,-1,-1,-1,-1,-1,-1,-1,-1,-1,-1,-1,-1,-1,-1,-1,-1],"split_conditions":[-1.0822151E0,-1.01507545E-1,-7.6676106E-1,1.0109693E-1,-6.337167E-1,-1.01466775E-1,1.2256632E0,2.9542696E0,5E-1,5E-1,9.125679E-1,2.5057714E0,6.5E0,3.931012E-1,5E-1,5E-1,5E-1,5E-1,5E-1,2.5E0,5E-1,-2.0869214E-3,1.1592247E-2,-2.6561713E-2,6.5876E-2,1.09769225E-1,-6.032854E-2,9.6549116E-2,-9.849804E-2,-2.6513515E-2,1.3636242E-1,3.260797E-2,-1.152239E-1,8.089098E-2,-9.9677645E-2,1.1778587E-1,-1.17708385E-1],"split_indices":[49,0,50,0,49,0,50,49,3,79,50,49,1,115,11,40,37,41,69,0,19,0,0,0,0,0,0,0,0,0,0,0,0,0,0,0,0],"split_type":[0,0,0,0,0,0,0,0,0,0,0,0,0,0,0,0,0,0,0,0,0,0,0,0,0,0,0,0,0,0,0,0,0,0,0,0,0],"sum_hessian":[7.686132E3,1.3856691E2,7.547565E3,8.7718925E1,7.459846E3,1.3105373E2,7.3287925E3,6.321588E3,1.0072045E3,6.2688677E3,5.2720196E1,9.5302075E2,5.4183765E1,5.799578E3,4.692894E2,4.2163334E1,1.0556861E1,8.433528E2,1.09667984E2,1.3049884E1,4.113388E1,3.8215276E3,1.9780505E3,4.390196E2,3.0269817E1,4.0444824E1,1.7185069E0,3.6796525E0,6.8772087E0,8.330622E2,1.029061E1,1.0262884E2,7.039148E0,1.9569846E0,1.1092899E1,3.465765E1,6.476233E0],"tree_param":{"num_deleted":"0","num_feature":"116","num_nodes":"37","size_leaf_vector":"0"}},{"base_weights":[-2.9540965E-2,-1.0121877E0,-1.2970345E-2,1.0076756E0,-2.4033096E-2,-1.0117395E0,-7.845463E-3,4.073018E-2,-6.758748E-2,2.7333634E-2,4.472739E-1,-1.9085509E-1,-2.1447035E-2,-1.3512415E-1,5.4844845E-2,5.489244E-1,-6.3481754E-1,3.1371614E-1,-2.262469E-1,-4.6758454E-2,2.694507E-1,-1.9187465E-1,5.130929E-1,-3.6917657E-2,9.911956E-2,-9.44821E-1,6.149616E-1,4.610615E-1,-1.5922464E0,5.759947E-1,-8.316064E-1,-2.363108E-1,1.3470234E0,-3.840553E-2,-7.134916E-1,1.195807E0,1.7920847E-1],"categories":[],"categories_nodes":[],"categories_segments":[],"categories_sizes":[],"default_left":[1,0,1,0,1,0,1,1,1,1,1,1,1,1,1,1,1,1,1,1,1,0,0,0,0,0,0,0,0,0,0,0,0,0,0,0,0],"id":32,"left_children":[1,-1,3,-1,5,-1,7,9,11,13,15,17,19,21,23,25,27,29,31,33,35,-1,-1,-1,-1,-1,-1,-1,-1,-1,-1,-1,-1,-1,-1,-1,-1],"loss_changes":[1.2442595E2,0E0,8.489434E1,0E0,1.1889782E2,0E0,2.1239595E1,2.1973429E1,1.8663628E1,1.7478802E1,1.450635E1,1.6032417E1,1.7605486E1,2.0934525E1,1.358831E1,1.2240322E1,1.2817697E1,1.820338E1,1.3551876E1,1.2218903E1,1.5786653E1,0E0,0E0,0E0,0E0,0E0,0E0,0E0,0E0,0E0,0E0,0E0,0E0,0E0,0E0,0E0,0E0],"parents":[2147483647,0,0,2,2,4,4,6,6,7,7,8,8,9,9,10,10,11,11,12,12,13,13,14,14,15,15,16,16,17,17,18,18,19,19,20,20],"right_children":[2,-1,4,-1,6,-1,8,10,12,14,16,18,20,22,24,26,28,30,32,34,36,-1,-1,-1,-1,-1,-1,-1,-1,-1,-1,-1,-1,-1,-1,-1,-1],"split_conditions":[-1.0822151E0,-1.01218775E-1,-7.6676106E-1,1.0076757E-1,-6.337167E-1,-1.0117395E-1,2.8637746E-1,1.6087748E0,2.6327989E-1,1.5E0,5E-1,5E-1,5E-1,5E-1,-1.852184E-1,5E-1,1.0136664E-1,5E-1,5E-1,5E-1,4E0,-1.9187465E-2,5.1309288E-2,-3.6917657E-3,9.911956E-3,-9.44821E-2,6.1496165E-2,4.6106152E-2,-1.5922464E-1,5.7599466E-2,-8.316064E-2,-2.363108E-2,1.3470234E-1,-3.840553E-3,-7.134917E-2,1.195807E-1,1.7920848E-2],"split_indices":[49,0,50,0,49,0,50,49,49,0,10,0,11,109,49,34,50,37,39,20,1,0,0,0,0,0,0,0,0,0,0,0,0,0,0,0,0],"split_type":[0,0,0,0,0,0,0,0,0,0,0,0,0,0,0,0,0,0,0,0,0,0,0,0,0,0,0,0,0,0,0,0,0,0,0,0,0],"sum_hessian":[7.6412397E3,1.25722855E2,7.5155166E3,7.9620995E1,7.4358955E3,1.1891095E2,7.316985E3,4.0358188E3,3.281166E3,3.908105E3,1.27713776E2,8.9281323E2,2.3883528E3,5.6540326E2,3.3427017E3,1.1719713E2,1.0516652E1,5.800387E1,8.348094E2,2.1979458E3,1.9040707E2,5.2053516E2,4.486814E1,1.0879708E3,2.254731E3,4.398425E0,1.127987E2,5.145509E0,5.3711433E0,4.7600468E1,1.0403403E1,8.303476E2,4.4617724E0,2.1717947E3,2.6150934E1,1.58146925E1,1.7459238E2],"tree_param":{"num_deleted":"0","num_feature":"116","num_nodes":"37","size_leaf_vector":"0"}},{"base_weights":[-2.688126E-2,-1.00944E0,-1.176382E-2,9.05567E-1,-2.3043133E-2,1.0044825E0,4.675751E-1,-1.0086322E0,-8.790576E-3,-7.943592E-1,8.17408E-1,6.509219E-3,-1.8574968E-1,9.278059E-1,-1.430438E-1,-6.380846E-2,5.3347502E-2,-2.3437935E-1,5.0751126E-1,9.89064E-1,1.4309463E-1,3.5387364E-1,-8.573515E-2,-1.2411445E-1,8.843782E-2,-3.531484E-1,4.7973238E-2,-1.1564752E0,7.319779E-1,2.9883504E-1,1.0542494E0,3.8437858E-1,-1.0224247E0,-1.2210336E-1,1.8691109E-1,-2.625021E-1,7.0306085E-2,6.741548E-2,3.7601018E-1,-2.4530152E-2,-4.3152583E-1,1.7509826E-1,-4.6794012E-1,8.8618207E-1,-1.0486141E0],"categories":[],"categories_nodes":[],"categories_segments":[],"categories_sizes":[],"default_left":[1,0,1,1,1,0,1,0,1,0,1,1,1,1,0,1,1,1,1,1,0,1,1,1,1,1,1,0,1,0,0,0,0,0,0,0,0,0,0,0,0,0,0,0,0],"id":33,"left_children":[1,-1,3,5,7,-1,9,-1,11,-1,13,15,17,19,-1,21,23,25,27,29,-1,31,33,35,37,39,41,-1,43,-1,-1,-1,-1,-1,-1,-1,-1,-1,-1,-1,-1,-1,-1,-1,-1],"loss_changes":[1.12785645E2,0E0,7.741341E1,3.467537E0,1.0379869E2,0E0,8.866533E0,0E0,1.9726511E1,0E0,1.7302237E0,2.2092585E1,1.9666298E1,5.1446056E-1,0E0,2.4591187E1,2.5081627E1,1.820932E1,1.516008E1,2.4688339E-1,0E0,6.0170155E0,2.5296162E1,1.7912392E1,2.0298977E1,9.827919E0,1.0674554E1,0E0,1.0368925E1,0E0,0E0,0E0,0E0,0E0,0E0,0E0,0E0,0E0,0E0,0E0,0E0,0E0,0E0,0E0,0E0],"parents":[2147483647,0,0,2,2,3,3,4,4,6,6,8,8,10,10,11,11,12,12,13,13,15,15,16,16,17,17,18,18,19,19,21,21,22,22,23,23,24,24,25,25,26,26,28,28],"right_children":[2,-1,4,6,8,-1,10,-1,12,-1,14,16,18,20,-1,22,24,26,28,30,-1,32,34,36,38,40,42,-1,44,-1,-1,-1,-1,-1,-1,-1,-1,-1,-1,-1,-1,-1,-1,-1,-1],"split_conditions":[-1.0822151E0,-1.00944E-1,-7.382978E-1,-7.6676106E-1,-6.337167E-1,1.0044825E-1,-6.337167E-1,-1.0086322E-1,5E-1,-7.943592E-2,5E-1,7.5E0,5E-1,5E-1,-1.430438E-2,-5.9598184E-1,5E-1,1.1602765E0,3.1813912E-2,-1.1243054E0,1.4309463E-2,6E0,5E-1,5E-1,5E-1,-6.9412574E-2,5E-1,-1.1564752E-1,5E-1,2.9883504E-2,1.0542494E-1,3.843786E-2,-1.0224247E-1,-1.22103365E-2,1.869111E-2,-2.6250212E-2,7.0306086E-3,6.7415484E-3,3.760102E-2,-2.4530152E-3,-4.3152582E-2,1.7509826E-2,-4.6794012E-2,8.861821E-2,-1.04861416E-1],"split_indices":[49,0,50,50,49,0,49,0,79,0,4,1,11,2,0,50,34,49,115,115,0,1,4,75,95,50,23,0,9,0,0,0,0,0,0,0,0,0,0,0,0,0,0,0,0],"split_type":[0,0,0,0,0,0,0,0,0,0,0,0,0,0,0,0,0,0,0,0,0,0,0,0,0,0,0,0,0,0,0,0,0,0,0,0,0,0,0,0,0,0,0,0,0],"sum_hessian":[7.5928633E3,1.1405539E2,7.4788076E3,8.987789E1,7.3889297E3,7.226442E1,1.7613472E1,1.0433329E2,7.2845967E3,3.5471907E0,1.4066281E1,6.7057812E3,5.7881525E2,1.2646621E1,1.4196597E0,2.680788E3,4.0249932E3,5.414934E2,3.7321835E1,1.1489298E1,1.1573234E0,1.3295651E2,2.5478315E3,6.640685E2,3.3609248E3,3.809849E2,1.6050854E2,3.942644E0,3.3379192E1,1.473305E0,1.0015993E1,1.307786E2,2.177925E0,2.248462E3,2.993696E2,3.8773224E2,2.7633624E2,3.1331194E3,2.2780525E2,7.362122E1,3.0736365E2,1.2930693E2,3.1201618E1,3.118113E1,2.1980624E0],"tree_param":{"num_deleted":"0","num_feature":"116","num_nodes":"45","size_leaf_vector":"0"}},{"base_weights":[-2.445749E-2,-1.0068029E0,-1.0683511E-2,8.9702433E-1,-2.0924311E-2,1.0013574E0,4.5064026E-1,-1.005916E0,-7.971084E-3,-7.796036E-1,7.881072E-1,1.2229064E-2,-1.3563806E-1,9.0139735E-1,-1.3379899E-1,6.6765426E-3,6.9043475E-1,-9.45424E-2,-6.021633E-1,9.645595E-1,1.362642E-1,2.2196142E-2,-1.8923493E-1,9.4377494E-1,-2.546785E-1,-1.6524273E-1,2.2053081E-1,-7.1181333E-1,9.9692416E-1,2.847306E-1,1.0323733E0,-2.0075817E-2,1.0301454E-1,3.0162278E-1,-2.5157794E-1,1.0270638E0,-5.749237E-1,9.003572E-1,-8.954113E-1,-1.887891E-1,8.8035727E-1,-5.728434E-1,5.8515894E-1,-7.936141E-1,9.281962E-1,-7.8171897E-1,1.725433E0],"categories":[],"categories_nodes":[],"categories_segments":[],"categories_sizes":[],"default_left":[1,0,1,1,1,0,1,0,1,0,1,1,1,1,0,1,1,1,1,1,0,1,1,1,1,1,1,1,1,0,0,0,0,0,0,0,0,0,0,0,0,0,0,0,0,0,0],"id":34,"left_children":[1,-1,3,5,7,-1,9,-1,11,-1,13,15,17,19,-1,21,23,25,27,29,-1,31,33,35,37,39,41,43,45,-1,-1,-1,-1,-1,-1,-1,-1,-1,-1,-1,-1,-1,-1,-1,-1,-1,-1],"loss_changes":[1.0221808E2,0E0,6.9288185E1,3.4215546E0,9.402001E1,0E0,7.9098167E0,0E0,1.8763096E1,0E0,1.612772E0,2.3652128E1,1.8998692E1,4.8970032E-1,0E0,1.8952618E1,1.2452614E1,2.0410812E1,1.4785749E1,2.4581242E-1,0E0,1.9733273E1,1.4077797E1,5.7051544E0,9.368259E0,1.8571898E1,4.8950935E1,1.0893562E1,8.563703E0,0E0,0E0,0E0,0E0,0E0,0E0,0E0,0E0,0E0,0E0,0E0,0E0,0E0,0E0,0E0,0E0,0E0,0E0],"parents":[2147483647,0,0,2,2,3,3,4,4,6,6,8,8,10,10,11,11,12,12,13,13,15,15,16,16,17,17,18,18,19,19,21,21,22,22,23,23,24,24,25,25,26,26,27,27,28,28],"right_children":[2,-1,4,6,8,-1,10,-1,12,-1,14,16,18,20,-1,22,24,26,28,30,-1,32,34,36,38,40,42,44,46,-1,-1,-1,-1,-1,-1,-1,-1,-1,-1,-1,-1,-1,-1,-1,-1,-1,-1],"split_conditions":[-1.0822151E0,-1.0068029E-1,-7.382978E-1,-7.6676106E-1,-6.337167E-1,1.0013574E-1,-6.337167E-1,-1.005916E-1,1.2256632E0,-7.7960365E-2,5E-1,2.9542696E0,5E-1,5E-1,-1.3379899E-2,5E-1,9.125679E-1,5E-1,2.0426776E0,-1.1243054E0,1.3626421E-2,3.931012E-1,6.5E0,5E-1,5E-1,3.782525E0,5E-1,5E-1,5E-1,2.8473062E-2,1.0323733E-1,-2.0075818E-3,1.0301455E-2,3.0162279E-2,-2.5157794E-2,1.0270639E-1,-5.749237E-2,9.003572E-2,-8.954113E-2,-1.887891E-2,8.8035725E-2,-5.7284337E-2,5.8515895E-2,-7.936141E-2,9.281962E-2,-7.81719E-2,1.725433E-1],"split_indices":[49,0,50,50,49,0,49,0,50,0,4,49,69,2,0,107,50,90,27,115,0,115,0,40,37,27,104,93,84,0,0,0,0,0,0,0,0,0,0,0,0,0,0,0,0,0,0],"split_type":[0,0,0,0,0,0,0,0,0,0,0,0,0,0,0,0,0,0,0,0,0,0,0,0,0,0,0,0,0,0,0,0,0,0,0,0,0,0,0,0,0,0,0,0,0,0,0],"sum_hessian":[7.554266E3,1.0346076E2,7.450805E3,8.215648E1,7.368649E3,6.558424E1,1.6572237E1,9.4649345E1,7.2739995E3,3.2853284E0,1.3286908E1,6.281078E3,9.929213E2,1.1852623E1,1.4342854E0,6.2310737E3,5.000442E1,9.1364233E2,7.927903E1,1.0708027E1,1.1445956E0,5.774518E3,4.5655563E2,3.943514E1,1.0569282E1,7.465884E2,1.6705392E2,7.471094E1,4.5680943E0,1.4427966E0,9.26523E0,3.791914E3,1.982604E3,5.101906E1,4.055366E2,3.7691757E1,1.7433815E0,3.6265595E0,6.942722E0,7.3094727E2,1.5641116E1,5.2421608E1,1.1463232E2,7.16531E1,3.0578387E0,1.3061383E0,3.2619562E0],"tree_param":{"num_deleted":"0","num_feature":"116","num_nodes":"47","size_leaf_vector":"0"}},{"base_weights":[-2.2197107E-2,-1.0042493E0,-9.650485E-3,8.8831353E-1,-1.894936E-2,9.982697E-1,4.3408778E-1,-1.0032754E0,-7.1773934E-3,-7.64645E-1,7.598073E-1,-1.0173239E-1,1.8254193E-2,8.7594897E-1,-1.2517086E-1,-1.12516016E-1,1.1284667E0,2.2651055E-1,-5.480934E-3,9.411056E-1,1.297579E-1,-6.850272E-2,-3.7708956E-1,-7.499437E-1,1.5262128E0,6.495424E-1,1.8168914E-1,-8.3601706E-2,4.4570584E-2,2.7127656E-1,1.0117679E0,-3.776133E-2,-3.3520833E-1,3.5002866E-1,-4.97826E-1,1.8849751E0,-5.914813E-1,7.5008667E-1,3.4521814E-4,1.3534787E-1,5.904134E-1,-9.483877E-2,9.451701E-1,-1.4790196E-2,1.3390942E-1],"categories":[],"categories_nodes":[],"categories_segments":[],"categories_sizes":[],"default_left":[1,0,1,1,1,0,1,0,1,0,1,1,1,1,0,1,1,1,1,1,0,1,1,0,1,1,1,1,1,0,0,0,0,0,0,0,0,0,0,0,0,0,0,0,0],"id":35,"left_children":[1,-1,3,5,7,-1,9,-1,11,-1,13,15,17,19,-1,21,23,25,27,29,-1,31,33,-1,35,37,39,41,43,-1,-1,-1,-1,-1,-1,-1,-1,-1,-1,-1,-1,-1,-1,-1,-1],"loss_changes":[9.263813E1,0E0,6.2019276E1,3.3687973E0,8.516368E1,0E0,7.0648375E0,0E0,1.7470459E1,0E0,1.5033326E0,2.0554905E1,2.830253E1,4.667368E-1,0E0,1.7760347E1,1.1209543E1,1.0989372E1,2.0104319E1,2.4518299E-1,0E0,1.0734211E1,1.9279797E1,0E0,9.811703E0,3.6376133E0,9.979025E0,2.3300726E1,1.6621859E1,0E0,0E0,0E0,0E0,0E0,0E0,0E0,0E0,0E0,0E0,0E0,0E0,0E0,0E0,0E0,0E0],"parents":[2147483647,0,0,2,2,3,3,4,4,6,6,8,8,10,10,11,11,12,12,13,13,15,15,16,16,17,17,18,18,19,19,21,21,22,22,24,24,25,25,26,26,27,27,28,28],"right_children":[2,-1,4,6,8,-1,10,-1,12,-1,14,16,18,20,-1,22,24,26,28,30,-1,32,34,-1,36,38,40,42,44,-1,-1,-1,-1,-1,-1,-1,-1,-1,-1,-1,-1,-1,-1,-1,-1],"split_conditions":[-1.0822151E0,-1.0042494E-1,-7.382978E-1,-7.6676106E-1,-6.337167E-1,9.982697E-2,-6.337167E-1,-1.00327544E-1,-1.852184E-1,-7.64645E-2,5E-1,2.9126015E0,-3.5404462E-1,5E-1,-1.2517086E-2,4.998515E-1,1.04071364E-1,-6.3867664E-1,7.5E0,-1.1243054E0,1.297579E-2,5E-1,2.5E0,-7.499437E-2,5E-1,5E-1,7.1177816E-1,5E-1,5E-1,2.7127657E-2,1.0117679E-1,-3.776133E-3,-3.3520833E-2,3.500287E-2,-4.97826E-2,1.8849751E-1,-5.9148133E-2,7.500867E-2,3.4521814E-5,1.3534787E-2,5.904134E-2,-9.483877E-3,9.4517015E-2,-1.4790196E-3,1.33909425E-2],"split_indices":[49,0,50,50,49,0,49,0,49,0,4,27,50,2,0,50,115,50,1,115,0,51,0,0,90,103,49,58,75,0,0,0,0,0,0,0,0,0,0,0,0,0,0,0,0],"split_type":[0,0,0,0,0,0,0,0,0,0,0,0,0,0,0,0,0,0,0,0,0,0,0,0,0,0,0,0,0,0,0,0,0,0,0,0,0,0,0,0,0,0,0,0,0],"sum_hessian":[7.518238E3,9.384365E1,7.424394E3,7.512651E1,7.3492676E3,5.952043E1,1.5606077E1,8.585884E1,7.2634087E3,3.0465229E0,1.2559555E1,1.5388696E3,5.724539E3,1.1111518E1,1.448037E0,1.5263981E3,1.2471505E1,5.848054E2,5.1397334E3,9.978953E0,1.1325643E0,1.3097695E3,2.1662863E2,2.0245948E0,1.0446911E1,5.4733147E1,5.3007227E2,2.0068138E3,3.1329197E3,1.4140261E0,8.564927E0,1.1754274E3,1.3434213E2,3.0577978E1,1.8605066E2,9.027448E0,1.4194628E0,4.725858E1,7.4745684E0,4.7728833E2,5.2783947E1,1.9860287E3,2.0785175E1,1.8827618E3,1.250158E3],"tree_param":{"num_deleted":"0","num_feature":"116","num_nodes":"45","size_leaf_vector":"0"}},{"base_weights":[-2.0134987E-2,-1.001753E0,-8.698992E-3,9.9518913E-1,-1.6222911E-2,-1.0011615E0,-5.133651E-3,-1.6074179E-2,2.1721168E-1,-1.1468667E-2,-5.750538E-1,1.2188051E-1,3.892353E-1,-3.623775E-2,9.269321E-2,-3.7043667E-1,-1.314151E0,4.3060046E-2,5.941377E-1,9.263468E-1,2.286056E-1,-5.1342536E-2,2.9041904E-1,5.701177E-2,4.5103908E-1,9.4290674E-1,-5.22803E-1,-3.516615E-1,-1.3805493E0,1.01549774E-1,-8.6973715E-1,-1.3960688E-1,8.8081187E-1,1.0517582E0,-7.994785E-1,2.9181552E-1,-1.3271867E0],"categories":[],"categories_nodes":[],"categories_segments":[],"categories_sizes":[],"default_left":[1,0,1,0,1,0,1,1,1,1,1,1,1,1,1,1,1,1,1,1,1,0,0,0,0,0,0,0,0,0,0,0,0,0,0,0,0],"id":36,"left_children":[1,-1,3,-1,5,-1,7,9,11,13,15,17,19,21,23,25,27,29,31,33,35,-1,-1,-1,-1,-1,-1,-1,-1,-1,-1,-1,-1,-1,-1,-1,-1],"loss_changes":[8.394626E1,0E0,5.586165E1,0E0,8.016008E1,0E0,1.7661366E1,1.7806698E1,5.5364E0,1.7712193E1,8.061415E0,8.183678E0,1.0223736E1,2.7379272E1,1.683831E1,9.630121E0,2.7265358E-1,1.0236232E1,6.7416115E0,6.7967663E0,9.674367E0,0E0,0E0,0E0,0E0,0E0,0E0,0E0,0E0,0E0,0E0,0E0,0E0,0E0,0E0,0E0,0E0],"parents":[2147483647,0,0,2,2,4,4,6,6,7,7,8,8,9,9,10,10,11,11,12,12,13,13,14,14,15,15,16,16,17,17,18,18,19,19,20,20],"right_children":[2,-1,4,-1,6,-1,8,10,12,14,16,18,20,22,24,26,28,30,32,34,36,-1,-1,-1,-1,-1,-1,-1,-1,-1,-1,-1,-1,-1,-1,-1,-1],"split_conditions":[-1.0822151E0,-1.001753E-1,-7.6676106E-1,9.951892E-2,-6.337167E-1,-1.0011615E-1,5E-1,5E-1,5E-1,1.1602765E0,5E-1,5E-1,5E-1,5E-1,5E-1,-2.1884438E-1,-7.268894E-1,5E-1,-5.670937E-1,5E-1,5E-1,-5.1342538E-3,2.9041905E-2,5.701177E-3,4.5103908E-2,9.4290674E-2,-5.2280303E-2,-3.516615E-2,-1.3805494E-1,1.0154977E-2,-8.697372E-2,-1.3960688E-2,8.808119E-2,1.05175816E-1,-7.994785E-2,2.9181553E-2,-1.3271867E-1],"split_indices":[49,0,50,0,49,0,109,20,75,49,19,106,104,16,81,50,115,103,27,86,79,0,0,0,0,0,0,0,0,0,0,0,0,0,0,0,0],"split_type":[0,0,0,0,0,0,0,0,0,0,0,0,0,0,0,0,0,0,0,0,0,0,0,0,0,0,0,0,0,0,0,0,0,0,0,0,0],"sum_hessian":[7.477767E3,8.511661E1,7.3926504E3,5.401758E1,7.338633E3,8.0710526E1,7.2579224E3,6.9184277E3,3.3949435E2,6.862904E3,5.5523926E1,2.1953955E2,1.199548E2,5.5449897E3,1.317914E3,4.4660877E1,1.0863048E1,1.8907399E2,3.0465565E1,2.6517836E1,9.3436966E1,5.3007246E3,2.442655E2,1.1996234E3,1.18290565E2,4.103318E0,4.055756E1,1.107358E0,9.75569E0,1.785234E2,1.0550578E1,8.703052E0,2.1762512E1,2.5085512E1,1.432324E0,9.0569664E1,2.867301E0],"tree_param":{"num_deleted":"0","num_feature":"116","num_nodes":"37","size_leaf_vector":"0"}},{"base_weights":[-1.8289555E-2,-9.992889E-1,-7.885553E-3,8.081107E-1,-1.6439253E-2,9.920867E-1,4.4410422E-1,-9.97796E-1,-6.927668E-3,-8.1586874E-1,7.0251036E-1,-1.9310812E-2,1.6739225E-1,7.699109E-1,-3.379593E-1,-5.4421504E-3,-2.0047416E-1,1.5974487E0,1.5198863E-1,