{"learner":{"attributes":{"best_iteration":"199","best_ntree_limit":"200","scikit_learn":"{\"use_label_encoder\": null, \"n_estimators\": 200, \"objective\": \"binary:logistic\", \"max_depth\": 7, \"max_leaves\": null, \"max_bin\": null, \"grow_policy\": null, \"learning_rate\": 0.1, \"verbosity\": null, \"booster\": null, \"tree_method\": null, \"gamma\": null, \"min_child_weight\": null, \"max_delta_step\": null, \"subsample\": null, \"sampling_method\": null, \"colsample_bytree\": null, \"colsample_bylevel\": null, \"colsample_bynode\": null, \"reg_alpha\": null, \"reg_lambda\": null, \"scale_pos_weight\": null, \"base_score\": null, \"missing\": NaN, \"num_parallel_tree\": null, \"random_state\": null, \"n_jobs\": null, \"monotone_constraints\": null, \"interaction_constraints\": null, \"importance_type\": null, \"gpu_id\": null, \"validate_parameters\": null, \"predictor\": null, \"enable_categorical\": false, \"feature_types\": null, \"max_cat_to_onehot\": null, \"max_cat_threshold\": null, \"eval_metric\": null, \"early_stopping_rounds\": null, \"callbacks\": null, \"classes_\": [0, 1], \"n_classes_\": 2, \"_estimator_type\": \"classifier\"}"},"feature_names":["industry","location","ITU","YTU","anadolu_üniversitesi","diğer_school","ege_üniversitesi","hacettepe_üniversitesi","istanbul_üniversitesi","kocaeli_üniversitesi","marmara_üniversitesi","sakarya_üniversitesi","business_administration_and_management","chemical_engineering","civil_engineering","computer_engineering","computer_programming","diğer_fields_of_study","economics","electrical_and_electronics_engineering","engineering_management","industrial_engineering","information_technology","mathematics","mechanical_engineering","physics","software_engineering","school_count","US","adana","ankara","antalya","bursa","denizli","diğer_x","elazig","eskisehir","istanbul","izmir","kayseri","kocaeli","konya","manisa","mersin","mugla","sakarya","samsun","tekirdağ","trabzon","exp_comp_count","experience_month","almanca","arapça","azerice","diğer_y","fransızca","ingilizce","ispanyolca","italyanca","japonca","rusça","türkçe","elementary","full_professional","limited_working","native_or_bilingual","professional_working","language_count",".NET","AJAX","ASP.NET","Agile Methodologies","Android","AutoCAD","C","C#","C++","CSS","Docker","Eclipse","Engineering","English","Entity Framework","Git","HTML","Hibernate","JIRA","JSON","Java","JavaScript","Linux","Matlab","Microsoft Excel","Microsoft Office","Microsoft Word","MongoDB","Node.js","OOP","PHP","Photoshop","Programming","Project Management","Python","React.js","SQL","Scrum","Software Development","Software Engineering","Spring Framework","Teamwork","Visual Studio","Web Development","XML","jQuery","other","skill_count"],"feature_types":["int","int","float","float","float","float","float","float","float","float","float","float","float","float","float","float","float","float","float","float","float","float","float","float","float","float","float","float","float","float","float","float","float","float","float","float","float","float","float","float","float","float","float","float","float","float","float","float","float","float","float","float","float","float","float","float","float","float","float","float","float","float","float","float","float","float","float","float","float","float","float","float","float","float","float","float","float","float","float","float","float","float","float","float","float","float","float","float","float","float","float","float","float","float","float","float","float","float","float","float","float","float","float","float","float","float","float","float","float","float","float","float","float","float","float","float"],"gradient_booster":{"model":{"gbtree_model_param":{"num_parallel_tree":"1","num_trees":"200","size_leaf_vector":"0"},"tree_info":[0,0,0,0,0,0,0,0,0,0,0,0,0,0,0,0,0,0,0,0,0,0,0,0,0,0,0,0,0,0,0,0,0,0,0,0,0,0,0,0,0,0,0,0,0,0,0,0,0,0,0,0,0,0,0,0,0,0,0,0,0,0,0,0,0,0,0,0,0,0,0,0,0,0,0,0,0,0,0,0,0,0,0,0,0,0,0,0,0,0,0,0,0,0,0,0,0,0,0,0,0,0,0,0,0,0,0,0,0,0,0,0,0,0,0,0,0,0,0,0,0,0,0,0,0,0,0,0,0,0,0,0,0,0,0,0,0,0,0,0,0,0,0,0,0,0,0,0,0,0,0,0,0,0,0,0,0,0,0,0,0,0,0,0,0,0,0,0,0,0,0,0,0,0,0,0,0,0,0,0,0,0,0,0,0,0,0,0,0,0,0,0,0,0,0,0,0,0,0,0],"trees":[{"base_weights":[-4.5361584E-1,-1.9977591E0,-2.4363124E-1,1.9965172E0,-4.582777E-1,-1.9977267E0,-1.9332127E-1,9.792371E-1,-4.9095923E-1,1.5080597E0,6.191825E-1,-9.836392E-1,-1.17976315E-1,1.2353545E0,1.875354E0,-1.7309697E-1,1.1187335E0,-5.0999314E-1,-1.31542E0,3.988588E-1,-4.3081707E-1,1.3825504E0,7.413793E-1,-2.4110219E-1,4.7826087E-1,8.0337757E-1,1.4905933E0,-9.393468E-1,-1.6790123E-1,-1.1557884E0,-1.4774066E0,2.9010567E-1,1.2746114E0,-7.156073E-1,-3.931204E-2],"categories":[],"categories_nodes":[],"categories_segments":[],"categories_sizes":[],"default_left":[1,0,1,0,1,0,1,1,1,1,1,1,1,1,0,1,1,1,1,1,1,0,0,0,0,0,0,0,0,0,0,0,0,0,0],"id":0,"left_children":[1,-1,3,-1,5,-1,7,9,11,13,15,17,19,21,-1,23,25,27,29,31,33,-1,-1,-1,-1,-1,-1,-1,-1,-1,-1,-1,-1,-1,-1],"loss_changes":[2.417337E3,0E0,3.1577493E3,0E0,2.4436724E3,0E0,1.7849941E3,1.9623059E2,7.494E2,3.9626526E1,2.4468924E2,2.7547522E2,3.7569006E2,1.6661957E1,0E0,1.07352085E1,4.324713E1,1.0640259E2,2.4997437E1,8.308501E1,1.613356E2,0E0,0E0,0E0,0E0,0E0,0E0,0E0,0E0,0E0,0E0,0E0,0E0,0E0,0E0],"parents":[2147483647,0,0,2,2,4,4,6,6,7,7,8,8,9,9,10,10,11,11,12,12,13,13,15,15,16,16,17,17,18,18,19,19,20,20],"right_children":[2,-1,4,-1,6,-1,8,10,12,14,16,18,20,22,-1,24,26,28,30,32,34,-1,-1,-1,-1,-1,-1,-1,-1,-1,-1,-1,-1,-1,-1],"split_conditions":[-1.0822151E0,-1.9977592E-1,-7.6676106E-1,1.9965172E-1,-6.337167E-1,-1.9977267E-1,-3.682762E-1,-5.9598184E-1,2.6327989E-1,-1.852184E-1,-1.852184E-1,8.713504E-2,3.1484067E-1,-6.671398E-1,1.875354E-1,5E-1,2.6327989E-1,-1.852184E-1,6.5639913E-1,1.6087748E0,1.1602765E0,1.3825504E-1,7.413793E-2,-2.4110219E-2,4.782609E-2,8.0337755E-2,1.4905934E-1,-9.393468E-2,-1.6790124E-2,-1.15578845E-1,-1.4774066E-1,2.9010568E-2,1.2746114E-1,-7.156073E-2,-3.931204E-3],"split_indices":[49,0,50,0,49,0,50,50,49,49,49,50,50,50,0,12,49,49,50,49,49,0,0,0,0,0,0,0,0,0,0,0,0,0,0],"split_type":[0,0,0,0,0,0,0,0,0,0,0,0,0,0,0,0,0,0,0,0,0,0,0,0,0,0,0,0,0,0,0,0,0,0,0],"sum_hessian":[7.45575E3,8.915E2,6.56425E3,5.7325E2,5.991E3,8.7875E2,5.11225E3,1.0345E3,4.07775E3,4.1775E2,6.1675E2,1.75625E3,2.3215E3,2.4225E2,1.755E2,2.3875E2,3.78E2,7.245E2,1.03175E3,8.7525E2,1.44625E3,1.8525E2,5.7E1,2.1675E2,2.2E1,2.0625E2,1.7175E2,3.205E2,4.04E2,5.2375E2,5.08E2,7.7975E2,9.55E1,8.3675E2,6.095E2],"tree_param":{"num_deleted":"0","num_feature":"116","num_nodes":"35","size_leaf_vector":"0"}},{"base_weights":[-4.1020963E-1,-1.8168561E0,-2.2009055E-1,1.8158168E0,-4.138664E-1,-1.8168286E0,-1.7429057E-1,8.8539994E-1,-4.427376E-1,1.3666823E0,5.589655E-1,-8.8826627E-1,-1.0622134E-1,1.11728E0,1.7042384E0,-1.5571736E-1,1.011036E0,-4.596424E-1,-1.1895216E0,3.5939792E-1,-3.8809282E-1,1.2191113E0,5.1363236E-1,-2.1713541E-1,4.327595E-1,7.2463274E-1,1.3500988E0,-8.476346E-1,-1.511634E-1,-1.3725705E0,-1.0510418E0,5.1455703E-2,6.375249E-1,-6.449864E-1,-3.5387512E-2],"categories":[],"categories_nodes":[],"categories_segments":[],"categories_sizes":[],"default_left":[1,0,1,0,1,0,1,1,1,1,1,1,1,1,0,1,1,1,1,1,1,0,0,0,0,0,0,0,0,0,0,0,0,0,0],"id":1,"left_children":[1,-1,3,-1,5,-1,7,9,11,13,15,17,19,21,-1,23,25,27,29,31,33,-1,-1,-1,-1,-1,-1,-1,-1,-1,-1,-1,-1,-1,-1],"loss_changes":[1.9846934E3,0E0,2.5809155E3,0E0,2.0071702E3,0E0,1.4519221E3,1.6132E2,6.1039374E2,3.3139282E1,1.9931572E2,2.2568152E2,3.0474243E2,1.42673645E1,0E0,8.757686E0,3.5701324E1,8.661723E1,2.4621948E1,7.496823E1,1.3101202E2,0E0,0E0,0E0,0E0,0E0,0E0,0E0,0E0,0E0,0E0,0E0,0E0,0E0,0E0],"parents":[2147483647,0,0,2,2,4,4,6,6,7,7,8,8,9,9,10,10,11,11,12,12,13,13,15,15,16,16,17,17,18,18,19,19,20,20],"right_children":[2,-1,4,-1,6,-1,8,10,12,14,16,18,20,22,-1,24,26,28,30,32,34,-1,-1,-1,-1,-1,-1,-1,-1,-1,-1,-1,-1,-1,-1],"split_conditions":[-1.0822151E0,-1.8168561E-1,-7.6676106E-1,1.8158168E-1,-6.337167E-1,-1.8168287E-1,-3.682762E-1,-5.9598184E-1,2.6327989E-1,-1.852184E-1,-1.852184E-1,8.713504E-2,3.1484067E-1,-6.3867664E-1,1.7042385E-1,5E-1,2.6327989E-1,-1.852184E-1,-1.852184E-1,7.1177816E-1,1.1602765E0,1.2191113E-1,5.1363237E-2,-2.1713542E-2,4.327595E-2,7.2463274E-2,1.3500988E-1,-8.476346E-2,-1.51163405E-2,-1.3725705E-1,-1.05104186E-1,5.1455703E-3,6.3752495E-2,-6.449864E-2,-3.5387513E-3],"split_indices":[49,0,50,0,49,0,50,50,49,49,49,50,50,50,0,12,49,49,49,49,49,0,0,0,0,0,0,0,0,0,0,0,0,0,0],"split_type":[0,0,0,0,0,0,0,0,0,0,0,0,0,0,0,0,0,0,0,0,0,0,0,0,0,0,0,0,0,0,0,0,0,0,0],"sum_hessian":[7.4218423E3,8.8266376E2,6.5391787E3,5.675752E2,5.9716035E3,8.700405E2,5.101563E3,1.0306782E3,4.0708848E3,4.1525525E2,6.15423E2,1.7510083E3,2.3198765E3,2.4128932E2,1.7396594E2,2.3870593E2,3.7671707E2,7.2376556E2,1.0272428E3,8.746991E2,1.4451774E3,2.0558841E2,3.570092E1,2.167185E2,2.1987425E1,2.0591756E2,1.707995E2,3.19794E2,4.0397153E2,4.3858646E2,5.886563E2,4.1566254E2,4.590366E2,8.3567975E2,6.094976E2],"tree_param":{"num_deleted":"0","num_feature":"116","num_nodes":"35","size_leaf_vector":"0"}},{"base_weights":[-3.7394217E-1,-1.6809078E0,-2.0014152E-1,1.67998E0,-3.7594527E-1,-1.6808835E0,-1.5769032E-1,7.7843475E-1,-4.0786937E-1,1.251287E0,4.8447105E-1,-8.2301235E-1,-9.916468E-2,1.0172377E0,1.5722033E0,-1.6695362E-1,8.885812E-1,-4.391814E-1,-1.0836444E0,1.6778907E-1,-5.227165E-1,1.1442747E0,5.960531E-1,-3.6977363E-1,-8.09287E-3,7.4842644E-1,1.5212855E0,-7.755205E-1,-1.750306E-1,-9.3539274E-1,-1.2349162E0,5.4422032E-2,9.052459E-1,-7.106797E-1,-8.406262E-2],"categories":[],"categories_nodes":[],"categories_segments":[],"categories_sizes":[],"default_left":[1,0,1,0,1,0,1,1,1,1,1,1,1,1,0,1,1,1,1,1,1,0,0,0,0,0,0,0,0,0,0,0,0,0,0],"id":2,"left_children":[1,-1,3,-1,5,-1,7,9,11,13,15,17,19,21,-1,23,25,27,29,31,33,-1,-1,-1,-1,-1,-1,-1,-1,-1,-1,-1,-1,-1,-1],"loss_changes":[1.6659172E3,0E0,2.1410237E3,0E0,1.6865673E3,0E0,1.1889075E3,1.4821362E2,5.132491E2,2.9181091E1,1.7437396E2,1.7040173E2,2.599626E2,1.2149063E1,0E0,8.188126E0,3.509543E1,6.138652E1,2.1644287E1,1.1787892E2,7.322337E1,0E0,0E0,0E0,0E0,0E0,0E0,0E0,0E0,0E0,0E0,0E0,0E0,0E0,0E0],"parents":[2147483647,0,0,2,2,4,4,6,6,7,7,8,8,9,9,10,10,11,11,12,12,13,13,15,15,16,16,17,17,18,18,19,19,20,20],"right_children":[2,-1,4,-1,6,-1,8,10,12,14,16,18,20,22,-1,24,26,28,30,32,34,-1,-1,-1,-1,-1,-1,-1,-1,-1,-1,-1,-1,-1,-1],"split_conditions":[-1.0822151E0,-1.6809079E-1,-7.6676106E-1,1.67998E-1,-6.337167E-1,-1.6808836E-1,-3.5404462E-1,-5.9598184E-1,2.6327989E-1,-1.852184E-1,-1.852184E-1,8.713504E-2,7.4178874E-1,-6.671398E-1,1.5722033E-1,7.5E0,7.1177816E-1,-1.852184E-1,6.5639913E-1,1.6087748E0,1.6087748E0,1.1442747E-1,5.960531E-2,-3.6977362E-2,-8.09287E-4,7.484265E-2,1.5212856E-1,-7.755205E-2,-1.750306E-2,-9.3539275E-2,-1.2349162E-1,5.4422035E-3,9.052459E-2,-7.1067974E-2,-8.406262E-3],"split_indices":[49,0,50,0,49,0,50,50,49,49,49,50,50,50,0,1,49,49,50,49,49,0,0,0,0,0,0,0,0,0,0,0,0,0,0],"split_type":[0,0,0,0,0,0,0,0,0,0,0,0,0,0,0,0,0,0,0,0,0,0,0,0,0,0,0,0,0,0,0,0,0,0,0],"sum_hessian":[7.3344287E3,8.598394E2,6.4745894E3,5.5291547E2,5.921674E3,8.4754315E2,5.074131E3,1.0696355E3,4.0044954E3,4.08803E2,6.6083246E2,1.7071163E3,2.2973792E3,2.3880702E2,1.69996E2,2.5322353E2,4.0760892E2,6.9147327E2,1.015643E3,1.4095685E3,8.8781067E2,1.821503E2,5.665671E1,1.1064003E2,1.425835E2,3.3547778E2,7.213114E1,3.0332208E2,3.881512E2,5.165701E2,4.990729E2,1.2226829E3,1.868856E2,6.210644E2,2.6674628E2],"tree_param":{"num_deleted":"0","num_feature":"116","num_nodes":"35","size_leaf_vector":"0"}},{"base_weights":[-3.427676E-1,-1.5753043E0,-1.8280533E-1,1.5744345E0,-3.4281883E-1,-1.5752816E0,-1.4296947E-1,5.499446E-1,-4.2966723E-1,1.0273576E0,2.6084566E-1,-7.11399E-1,1.6266178E-2,7.465454E-1,1.3458745E0,-3.55542E-1,5.780506E-1,-4.3976548E-1,-9.247539E-1,3.2790762E-1,-3.8044226E-1,1.0047565E0,1.3658254E-1,1.4667783E0,1.1209483E0,-1.0544019E-1,-5.6197745E-1,3.282561E-1,8.289201E-1,-8.834717E-1,-2.5515446E-1,-1.0616568E0,-6.819877E-1,9.0594244E-1,1.9465028E-1,-5.6611043E-1,-1.1988737E-1],"categories":[],"categories_nodes":[],"categories_segments":[],"categories_sizes":[],"default_left":[1,0,1,0,1,0,1,1,1,1,1,1,1,1,1,1,1,1,1,1,1,0,0,0,0,0,0,0,0,0,0,0,0,0,0,0,0],"id":3,"left_children":[1,-1,3,-1,5,-1,7,9,11,13,15,17,19,21,23,25,27,29,31,33,35,-1,-1,-1,-1,-1,-1,-1,-1,-1,-1,-1,-1,-1,-1,-1,-1],"loss_changes":[1.4217916E3,0E0,1.7960012E3,0E0,1.4414833E3,0E0,1.0010091E3,2.0328247E2,4.477574E2,4.871643E1,1.800652E2,1.2617029E2,1.7083676E2,4.6747025E1,5.40506E0,1.6109741E1,3.781163E1,7.863406E1,3.990149E1,5.94321E1,2.9343307E1,0E0,0E0,0E0,0E0,0E0,0E0,0E0,0E0,0E0,0E0,0E0,0E0,0E0,0E0,0E0,0E0],"parents":[2147483647,0,0,2,2,4,4,6,6,7,7,8,8,9,9,10,10,11,11,12,12,13,13,14,14,15,15,16,16,17,17,18,18,19,19,20,20],"right_children":[2,-1,4,-1,6,-1,8,10,12,14,16,18,20,22,24,26,28,30,32,34,36,-1,-1,-1,-1,-1,-1,-1,-1,-1,-1,-1,-1,-1,-1,-1,-1],"split_conditions":[-1.0822151E0,-1.5753043E-1,-7.6676106E-1,1.5744345E-1,-6.337167E-1,-1.5752816E-1,-1.9749698E-1,-5.248238E-1,7.1177816E-1,-1.852184E-1,-1.852184E-1,3.1484067E-1,8.271783E-1,-6.24445E-1,-5.9598184E-1,-4.252026E-1,2.6327989E-1,-1.852184E-1,2.6327989E-1,1.7454308E-3,1.6087748E0,1.0047565E-1,1.3658254E-2,1.4667784E-1,1.12094834E-1,-1.054402E-2,-5.6197744E-2,3.282561E-2,8.2892016E-2,-8.8347174E-2,-2.5515446E-2,-1.06165685E-1,-6.819877E-2,9.059425E-2,1.9465027E-2,-5.6611042E-2,-1.1988737E-2],"split_indices":[49,0,50,0,49,0,50,50,49,49,49,50,50,50,50,50,49,49,49,50,49,0,0,0,0,0,0,0,0,0,0,0,0,0,0,0,0],"split_type":[0,0,0,0,0,0,0,0,0,0,0,0,0,0,0,0,0,0,0,0,0,0,0,0,0,0,0,0,0,0,0,0,0,0,0,0,0],"sum_hessian":[7.2118433E3,8.274386E2,6.3844043E3,5.3210315E2,5.8523013E3,8.1560657E2,5.036695E3,1.4737938E3,3.562901E3,5.548954E2,9.1889844E2,2.1830796E3,1.3798213E3,2.966794E2,2.5821597E2,3.121713E2,6.067272E2,9.617215E2,1.2213582E3,7.7286035E2,6.0696094E2,2.079867E2,8.869272E1,1.6435153E2,9.386443E1,1.4183966E2,1.7033162E2,3.0517166E2,3.015555E2,2.8145898E2,6.802625E2,7.7879816E2,4.4256003E2,1.4370555E2,6.291548E2,3.5372687E2,2.5323404E2],"tree_param":{"num_deleted":"0","num_feature":"116","num_nodes":"37","size_leaf_vector":"0"}},{"base_weights":[-3.1550938E-1,-1.49119E0,-1.6754192E-1,1.4903437E0,-3.13551E-1,-1.4911678E0,-1.298605E-1,4.1824743E-1,-4.3138325E-1,9.484526E-1,1.8379441E-1,-6.98582E-1,-4.1188706E-2,6.824596E-1,1.2562132E0,-1.0999287E-1,7.1192545E-1,-1.0239179E0,-5.7361937E-1,2.188238E-1,-3.4364992E-1,9.4081587E-1,1.5547095E-1,1.3802319E0,1.031231E0,-3.6710688E-1,1.2463353E-1,4.8301464E-1,1.0250882E0,-1.0490127E0,1.454564E0,-2.6183408E-1,-7.4857086E-1,3.937898E-2,7.5802433E-1,-4.3034315E-1,1.6166118E-1],"categories":[],"categories_nodes":[],"categories_segments":[],"categories_sizes":[],"default_left":[1,0,1,0,1,0,1,1,1,1,1,1,1,1,1,1,1,1,1,1,1,0,0,0,0,0,0,0,0,0,0,0,0,0,0,0,0],"id":4,"left_children":[1,-1,3,-1,5,-1,7,9,11,13,15,17,19,21,23,25,27,29,31,33,35,-1,-1,-1,-1,-1,-1,-1,-1,-1,-1,-1,-1,-1,-1,-1,-1],"loss_changes":[1.2289271E3,0E0,1.5199232E3,0E0,1.2479078E3,0E0,8.252462E2,2.2012668E2,3.3580188E2,4.3605408E1,1.9093442E2,7.713727E1,1.0312096E2,3.981807E1,5.5692444E0,4.7779198E1,3.1033447E1,3.444519E1,7.52724E1,6.820266E1,2.6620583E1,0E0,0E0,0E0,0E0,0E0,0E0,0E0,0E0,0E0,0E0,0E0,0E0,0E0,0E0,0E0,0E0],"parents":[2147483647,0,0,2,2,4,4,6,6,7,7,8,8,9,9,10,10,11,11,12,12,13,13,14,14,15,15,16,16,17,17,18,18,19,19,20,20],"right_children":[2,-1,4,-1,6,-1,8,10,12,14,16,18,20,22,24,26,28,30,32,34,36,-1,-1,-1,-1,-1,-1,-1,-1,-1,-1,-1,-1,-1,-1,-1,-1],"split_conditions":[-1.0822151E0,-1.49119E-1,-7.6676106E-1,1.4903437E-1,-6.337167E-1,-1.4911678E-1,-1.2633899E-1,-5.248238E-1,7.1177816E-1,-1.852184E-1,2.6327989E-1,-1.852184E-1,8.271783E-1,-6.3867664E-1,-5.9598184E-1,-1.852184E-1,7.1177816E-1,2.9126015E0,3.1484067E-1,1.6087748E0,2.5057714E0,9.408159E-2,1.5547096E-2,1.3802318E-1,1.03123106E-1,-3.671069E-2,1.2463353E-2,4.8301466E-2,1.0250882E-1,-1.0490127E-1,1.454564E-1,-2.618341E-2,-7.4857086E-2,3.9378977E-3,7.580244E-2,-4.3034315E-2,1.6166119E-2],"split_indices":[49,0,50,0,49,0,50,50,49,49,49,49,50,50,50,49,49,27,50,49,49,0,0,0,0,0,0,0,0,0,0,0,0,0,0,0,0],"split_type":[0,0,0,0,0,0,0,0,0,0,0,0,0,0,0,0,0,0,0,0,0,0,0,0,0,0,0,0,0,0,0,0,0,0,0,0,0],"sum_hessian":[7.0647603E3,7.88738E2,6.2760225E3,5.0724243E2,5.7687803E3,7.7746045E2,4.99132E3,1.7712162E3,3.2201035E3,5.421416E2,1.2290746E3,1.9108171E3,1.3092863E3,2.9252985E2,2.4961176E2,7.902617E2,4.388129E2,5.282758E2,1.3825413E3,7.041964E2,6.050899E2,1.9576886E2,9.6760994E1,1.5760118E2,9.201058E1,3.7679184E2,4.1346985E2,2.5497653E2,1.8383635E2,5.235516E2,4.72424E0,4.9783472E2,8.847066E2,5.2916455E2,1.7503183E2,5.1660706E2,8.848283E1],"tree_param":{"num_deleted":"0","num_feature":"116","num_nodes":"37","size_leaf_vector":"0"}},{"base_weights":[-2.9120216E-1,-1.4228655E0,-1.5383554E-1,1.4220185E0,-2.8728378E-1,-1.4228435E0,-1.17997915E-1,6.381991E-1,-3.0392748E-1,1.039015E0,4.3052414E-1,-6.2586534E-1,-6.905851E-2,8.534717E-1,1.3106531E0,-4.6178248E-2,7.642704E-1,-3.1798494E-1,-8.535543E-1,1.5890469E-1,-3.5342604E-1,5.581665E-1,1.0497029E0,-1.0054812E-1,7.357903E-1,6.464413E-1,1.3213891E0,-5.786472E-1,-1.1773421E-1,-1.0147628E0,-7.342844E-1,7.4409485E-2,7.6087177E-1,-4.3050987E-1,3.3320153E-1],"categories":[],"categories_nodes":[],"categories_segments":[],"categories_sizes":[],"default_left":[1,0,1,0,1,0,1,1,1,1,1,1,1,1,0,1,1,1,1,1,1,0,0,0,0,0,0,0,0,0,0,0,0,0,0],"id":5,"left_children":[1,-1,3,-1,5,-1,7,9,11,13,15,17,19,21,-1,23,25,27,29,31,33,-1,-1,-1,-1,-1,-1,-1,-1,-1,-1,-1,-1,-1,-1],"loss_changes":[1.072999E3,0E0,1.2953279E3,0E0,1.0912858E3,0E0,6.9506586E2,8.076718E1,2.999551E2,1.5628754E1,1.0255592E2,1.1703839E2,1.4883673E2,1.1020889E1,0E0,1.1396072E1,2.403064E1,3.7150505E1,1.7740173E1,6.477263E1,5.421041E1,0E0,0E0,0E0,0E0,0E0,0E0,0E0,0E0,0E0,0E0,0E0,0E0,0E0,0E0],"parents":[2147483647,0,0,2,2,4,4,6,6,7,7,8,8,9,9,10,10,11,11,12,12,13,13,15,15,16,16,17,17,18,18,19,19,20,20],"right_children":[2,-1,4,-1,6,-1,8,10,12,14,16,18,20,22,-1,24,26,28,30,32,34,-1,-1,-1,-1,-1,-1,-1,-1,-1,-1,-1,-1,-1,-1],"split_conditions":[-1.0822151E0,-1.4228655E-1,-7.6676106E-1,1.4220186E-1,-6.337167E-1,-1.4228435E-1,-3.682762E-1,-6.24445E-1,2.6327989E-1,-1.852184E-1,-1.852184E-1,8.713504E-2,6.4216745E-1,5E-1,1.3106531E-1,5E-1,7.1177816E-1,-1.852184E-1,-1.852184E-1,1.6087748E0,2.5057714E0,5.581665E-2,1.0497029E-1,-1.0054812E-2,7.3579036E-2,6.464413E-2,1.3213891E-1,-5.7864722E-2,-1.1773421E-2,-1.01476274E-1,-7.3428445E-2,7.4409484E-3,7.608718E-2,-4.3050986E-2,3.3320155E-2],"split_indices":[49,0,50,0,49,0,50,50,49,49,49,50,50,34,0,69,49,49,49,49,49,0,0,0,0,0,0,0,0,0,0,0,0,0,0],"split_type":[0,0,0,0,0,0,0,0,0,0,0,0,0,0,0,0,0,0,0,0,0,0,0,0,0,0,0,0,0,0,0,0,0,0,0],"sum_hessian":[6.90282E3,7.4618524E2,6.1566343E3,4.7990543E2,5.676729E3,7.355173E2,4.941212E3,9.746728E2,3.9665388E3,3.3128473E2,6.43388E2,1.67244E3,2.294099E3,1.9929648E2,1.3198827E2,2.653048E2,3.780832E2,7.120307E2,9.6040924E2,1.2735773E3,1.0205218E3,8.109794E1,1.1819855E2,2.4887228E2,1.6432545E1,3.1386243E2,6.422077E1,3.0853174E2,4.03499E2,4.0520914E2,5.552001E2,1.1178005E3,1.5577664E2,9.1785266E2,1.0266913E2],"tree_param":{"num_deleted":"0","num_feature":"116","num_nodes":"35","size_leaf_vector":"0"}},{"base_weights":[-2.6928946E-1,-1.3664882E0,-1.4145817E-1,1.3656226E0,-2.6355198E-1,-1.3664657E0,-1.0728652E-1,4.3347585E-1,-3.2801595E-1,9.382751E-1,2.5791562E-1,-5.544772E-1,2.0547234E-2,7.3393714E-1,1.2482425E0,-2.1432818E-1,5.138496E-1,-3.385289E-1,-7.298422E-1,2.5584808E-1,-2.7978227E-1,4.6942022E-1,9.146822E-1,1.2588176E0,6.355176E-1,-3.2888092E-2,-4.3346095E-1,4.1349423E-1,9.309346E-1,-6.7457396E-1,-2.0510066E-1,-8.497644E-1,-5.269911E-1,7.5693417E-1,1.420845E-1,-4.317404E-1,-6.960962E-2],"categories":[],"categories_nodes":[],"categories_segments":[],"categories_sizes":[],"default_left":[1,0,1,0,1,0,1,1,1,1,1,1,1,1,1,1,1,1,1,1,1,0,0,0,0,0,0,0,0,0,0,0,0,0,0,0,0],"id":6,"left_children":[1,-1,3,-1,5,-1,7,9,11,13,15,17,19,21,23,25,27,29,31,33,35,-1,-1,-1,-1,-1,-1,-1,-1,-1,-1,-1,-1,-1,-1,-1,-1],"loss_changes":[9.443382E2,0E0,1.1104109E3,0E0,9.61801E2,0E0,5.838077E2,1.2540994E2,2.7415952E2,2.2232574E1,1.27421684E2,7.947986E1,9.679796E1,1.0217842E1,1.3163757E-1,1.4733694E1,2.8220901E1,4.2248734E1,2.7793884E1,4.3671604E1,1.9188763E1,0E0,0E0,0E0,0E0,0E0,0E0,0E0,0E0,0E0,0E0,0E0,0E0,0E0,0E0,0E0,0E0],"parents":[2147483647,0,0,2,2,4,4,6,6,7,7,8,8,9,9,10,10,11,11,12,12,13,13,14,14,15,15,16,16,17,17,18,18,19,19,20,20],"right_children":[2,-1,4,-1,6,-1,8,10,12,14,16,18,20,22,24,26,28,30,32,34,36,-1,-1,-1,-1,-1,-1,-1,-1,-1,-1,-1,-1,-1,-1,-1,-1],"split_conditions":[-1.0822151E0,-1.3664882E-1,-7.6676106E-1,1.3656227E-1,-6.337167E-1,-1.3664657E-1,-1.9749698E-1,-5.9598184E-1,7.1177816E-1,-1.852184E-1,-1.852184E-1,3.1484067E-1,8.271783E-1,5E-1,5E-1,-4.252026E-1,7.1177816E-1,-1.852184E-1,2.6327989E-1,1.7454308E-3,1.6087748E0,4.694202E-2,9.146822E-2,1.2588176E-1,6.355176E-2,-3.2888092E-3,-4.3346096E-2,4.1349422E-2,9.309346E-2,-6.74574E-2,-2.0510066E-2,-8.497644E-2,-5.2699115E-2,7.569342E-2,1.420845E-2,-4.317404E-2,-6.960962E-3],"split_indices":[49,0,50,0,49,0,50,50,49,49,49,50,50,34,82,50,49,49,49,50,49,0,0,0,0,0,0,0,0,0,0,0,0,0,0,0,0],"split_type":[0,0,0,0,0,0,0,0,0,0,0,0,0,0,0,0,0,0,0,0,0,0,0,0,0,0,0,0,0,0,0,0,0,0,0,0,0],"sum_hessian":[6.7333228E3,7.0160785E2,6.031715E3,4.5126624E2,5.5804487E3,6.915784E2,4.88887E3,1.4168306E3,3.4720398E3,3.6447842E2,1.052352E3,2.104292E3,1.3677477E3,2.2169774E2,1.4278069E2,3.6992926E2,6.824228E2,9.443406E2,1.1599514E3,7.6698315E2,6.007645E2,9.145387E1,1.3024387E2,1.3932167E2,3.4590147E0,2.0299838E2,1.669309E2,5.516749E2,1.3074788E2,2.6723682E2,6.7710376E2,7.2698224E2,4.3296915E2,1.4086629E2,6.261169E2,3.4805853E2,2.5270601E2],"tree_param":{"num_deleted":"0","num_feature":"116","num_nodes":"37","size_leaf_vector":"0"}},{"base_weights":[-2.4943976E-1,-1.3193679E0,-1.3026875E-1,1.3184685E0,-2.4208872E-1,-1.3193443E0,-9.7659424E-2,6.457105E-1,-2.3473738E-1,3.9139235E-1,9.0202594E-1,-4.908971E-1,-4.166946E-2,7.5122136E-1,5.588234E-2,1.1935586E0,7.327364E-1,-2.276946E-1,-7.316911E-1,4.444196E-1,-1.575556E-1,4.9188697E-1,9.367759E-1,2.750334E-1,-1.8391666E-1,1.2040966E0,5.9984875E-1,4.6540263E-1,1.0938E0,-4.322769E-1,-6.021965E-2,-5.9718233E-1,-8.7369806E-1,2.4481921E-1,7.0646566E-1,-3.2200962E-1,9.493072E-2],"categories":[],"categories_nodes":[],"categories_segments":[],"categories_sizes":[],"default_left":[1,0,1,0,1,0,1,1,1,1,1,1,1,1,1,1,1,1,1,1,1,0,0,0,0,0,0,0,0,0,0,0,0,0,0,0,0],"id":7,"left_children":[1,-1,3,-1,5,-1,7,9,11,13,15,17,19,21,23,25,27,29,31,33,35,-1,-1,-1,-1,-1,-1,-1,-1,-1,-1,-1,-1,-1,-1,-1,-1],"loss_changes":[8.3629663E2,0E0,9.567456E2,0E0,8.527621E2,0E0,4.9281308E2,4.873163E1,2.0189815E2,4.5802353E1,1.7596466E1,1.1103519E2,1.3127516E2,8.352432E0,1.0434368E1,1.2797546E-1,2.2595062E1,2.8745548E1,1.6972076E1,2.329358E1,7.8156204E1,0E0,0E0,0E0,0E0,0E0,0E0,0E0,0E0,0E0,0E0,0E0,0E0,0E0,0E0,0E0,0E0],"parents":[2147483647,0,0,2,2,4,4,6,6,7,7,8,8,9,9,10,10,11,11,12,12,13,13,14,14,15,15,16,16,17,17,18,18,19,19,20,20],"right_children":[2,-1,4,-1,6,-1,8,10,12,14,16,18,20,22,24,26,28,30,32,34,36,-1,-1,-1,-1,-1,-1,-1,-1,-1,-1,-1,-1,-1,-1,-1,-1],"split_conditions":[-1.0822151E0,-1.3193679E-1,-7.6676106E-1,1.3184685E-1,-6.337167E-1,-1.3193443E-1,-4.8212904E-1,-1.852184E-1,2.6327989E-1,-6.3867664E-1,-5.9598184E-1,8.713504E-2,-2.6717773E-2,5E-1,5E-1,5E-1,2.6327989E-1,-1.852184E-1,6.5639913E-1,7.1177816E-1,1.1602765E0,4.91887E-2,9.3677595E-2,2.7503341E-2,-1.8391667E-2,1.2040966E-1,5.9984874E-2,4.6540264E-2,1.0938E-1,-4.322769E-2,-6.021965E-3,-5.9718233E-2,-8.736981E-2,2.448192E-2,7.064657E-2,-3.2200962E-2,9.4930725E-3],"split_indices":[49,0,50,0,49,0,50,49,49,50,50,50,50,34,15,82,49,49,50,49,49,0,0,0,0,0,0,0,0,0,0,0,0,0,0,0,0],"split_type":[0,0,0,0,0,0,0,0,0,0,0,0,0,0,0,0,0,0,0,0,0,0,0,0,0,0,0,0,0,0,0,0,0,0,0,0,0],"sum_hessian":[6.5593105E3,6.56362E2,5.9029487E3,4.221959E2,5.480753E3,6.469806E2,4.833772E3,7.5199786E2,4.0817744E3,3.7873798E2,3.732599E2,1.7535917E3,2.3281826E3,1.8214809E2,1.965899E2,1.3489957E2,2.3836032E2,8.387417E2,9.1485E2,4.4765228E2,1.8805304E3,7.749316E1,1.0465492E2,1.0264042E2,9.394948E1,1.315368E2,3.3627648E0,1.382719E2,1.0008843E2,3.7683295E2,4.6190875E2,4.7250186E2,4.423481E2,2.5520047E2,1.924518E2,1.1386249E3,7.4190546E2],"tree_param":{"num_deleted":"0","num_feature":"116","num_nodes":"37","size_leaf_vector":"0"}},{"base_weights":[-2.3109724E-1,-1.2795619E0,-1.1991764E-1,1.2786162E0,-2.2232082E-1,-1.2795372E0,-8.8794656E-2,5.974071E-1,-2.1334624E-1,4.7923407E-1,1.1044602E0,-4.4935635E-1,-3.7580602E-2,8.1979245E-1,2.3069268E-1,1.131016E0,3.085078E-1,-2.2884712E-1,-7.0177895E-1,3.8919154E-1,-1.4656013E-1,6.9661134E-1,1.103371E0,-8.487986E-3,4.2348555E-1,1.1690276E0,4.300302E-1,-5.997331E-1,8.161495E-1,-4.354332E-1,-6.020514E-2,-7.10306E-1,8.558512E-1,2.0306535E-1,6.3403517E-1,-2.9570454E-1,7.941665E-2],"categories":[],"categories_nodes":[],"categories_segments":[],"categories_sizes":[],"default_left":[1,0,1,0,1,0,1,1,1,1,1,1,1,1,1,1,1,1,1,1,1,0,0,0,0,0,0,0,0,0,0,0,0,0,0,0,0],"id":8,"left_children":[1,-1,3,-1,5,-1,7,9,11,13,15,17,19,21,23,25,27,29,31,33,35,-1,-1,-1,-1,-1,-1,-1,-1,-1,-1,-1,-1,-1,-1,-1,-1],"loss_changes":[7.446089E2,0E0,8.277257E2,0E0,7.599682E2,0E0,4.0879932E2,4.3502014E1,1.6789462E2,5.0402878E1,2.5706177E0,9.600528E1,1.0800909E2,8.02655E0,1.600127E1,3.0488434E0,3.17957E0,3.215192E1,1.1300781E1,2.140001E1,6.2363052E1,0E0,0E0,0E0,0E0,0E0,0E0,0E0,0E0,0E0,0E0,0E0,0E0,0E0,0E0,0E0,0E0],"parents":[2147483647,0,0,2,2,4,4,6,6,7,7,8,8,9,9,10,10,11,11,12,12,13,13,14,14,15,15,16,16,17,17,18,18,19,19,20,20],"right_children":[2,-1,4,-1,6,-1,8,10,12,14,16,18,20,22,24,26,28,30,32,34,36,-1,-1,-1,-1,-1,-1,-1,-1,-1,-1,-1,-1,-1,-1,-1,-1],"split_conditions":[-1.0822151E0,-1.279562E-1,-7.6676106E-1,1.2786162E-1,-6.337167E-1,-1.2795372E-1,-4.8212904E-1,2.6327989E-1,2.6327989E-1,-6.3867664E-1,5E-1,1.7252465E-1,-1.2486171E-2,-1.852184E-1,5E-1,5E-1,5E-1,-1.852184E-1,3.782525E0,7.1177816E-1,1.1602765E0,6.966113E-2,1.103371E-1,-8.4879866E-4,4.2348556E-2,1.1690276E-1,4.300302E-2,-5.997331E-2,8.161495E-2,-4.354332E-2,-6.020514E-3,-7.10306E-2,8.558512E-2,2.0306535E-2,6.340352E-2,-2.9570455E-2,7.941665E-3],"split_indices":[49,0,50,0,49,0,50,49,49,50,11,50,50,49,17,112,15,49,27,49,49,0,0,0,0,0,0,0,0,0,0,0,0,0,0,0,0],"split_type":[0,0,0,0,0,0,0,0,0,0,0,0,0,0,0,0,0,0,0,0,0,0,0,0,0,0,0,0,0,0,0,0,0,0,0,0,0],"sum_hessian":[6.3880874E3,6.1144324E2,5.7766445E3,3.933347E2,5.3833096E3,6.027052E2,4.7806045E3,7.338348E2,4.0467698E3,5.967113E2,1.371235E2,1.7266909E3,2.3200786E3,2.5078297E2,3.459283E2,1.3228891E2,4.8345833E0,9.226216E2,8.040694E2,4.714141E2,1.8486647E3,1.7724684E2,7.353614E1,1.5481693E2,1.9111137E2,1.2485106E2,7.4378514E0,1.6683196E0,3.1662638E0,4.139507E2,5.0867087E2,8.002326E2,3.836777E0,2.6886023E2,2.0255385E2,1.1134683E3,7.3519635E2],"tree_param":{"num_deleted":"0","num_feature":"116","num_nodes":"37","size_leaf_vector":"0"}},{"base_weights":[-2.1411045E-1,-1.245631E0,-1.1036209E-1,1.2446272E0,-2.0412703E-1,-1.2456046E0,-8.0691166E-2,3.445769E-1,-2.5132048E-1,7.764142E-1,2.0630355E-1,-4.3503627E-1,2.2065995E-2,5.804673E-1,1.1062984E0,-1.5980184E-1,4.085294E-1,-3.1536427E-1,-6.684821E-1,2.3045255E-1,-2.4388239E-1,3.3796516E-1,7.5229925E-1,1.1126516E0,3.1745443E-1,3.4914304E-2,-3.1635267E-1,7.007795E-1,3.153083E-1,-4.6098876E-1,-1.0038673E-1,-7.049834E-1,1.1142407E-1,1.5088354E-1,8.714496E-1,-2.847098E-1,4.285123E-1],"categories":[],"categories_nodes":[],"categories_segments":[],"categories_sizes":[],"default_left":[1,0,1,0,1,0,1,1,1,1,1,1,1,1,1,1,1,1,1,1,1,0,0,0,0,0,0,0,0,0,0,0,0,0,0,0,0],"id":9,"left_children":[1,-1,3,-1,5,-1,7,9,11,13,15,17,19,21,23,25,27,29,31,33,35,-1,-1,-1,-1,-1,-1,-1,-1,-1,-1,-1,-1,-1,-1,-1,-1],"loss_changes":[6.658025E2,0E0,7.187357E2,0E0,6.799519E2,0E0,3.433456E2,8.074596E1,1.695974E2,2.0576782E1,7.615091E1,5.6208008E1,7.5318214E1,8.414825E0,2.5430298E-1,1.117981E1,1.7822395E1,4.1809418E1,1.9536713E1,3.8729523E1,1.6513664E1,0E0,0E0,0E0,0E0,0E0,0E0,0E0,0E0,0E0,0E0,0E0,0E0,0E0,0E0,0E0,0E0],"parents":[2147483647,0,0,2,2,4,4,6,6,7,7,8,8,9,9,10,10,11,11,12,12,13,13,14,14,15,15,16,16,17,17,18,18,19,19,20,20],"right_children":[2,-1,4,-1,6,-1,8,10,12,14,16,18,20,22,24,26,28,30,32,34,36,-1,-1,-1,-1,-1,-1,-1,-1,-1,-1,-1,-1,-1,-1,-1,-1],"split_conditions":[-1.0822151E0,-1.245631E-1,-7.6676106E-1,1.24462724E-1,-6.337167E-1,-1.2456047E-1,-1.9749698E-1,-5.9598184E-1,7.1177816E-1,-1.852184E-1,-1.852184E-1,6.5639913E-1,8.271783E-1,5E-1,5E-1,-5.325373E-1,-5.105922E-1,5E-1,5E-1,2.0572731E0,5E-1,3.3796515E-2,7.522993E-2,1.1126516E-1,3.1745445E-2,3.4914303E-3,-3.1635266E-2,7.007795E-2,3.153083E-2,-4.6098877E-2,-1.0038673E-2,-7.049834E-2,1.1142408E-2,1.5088354E-2,8.714496E-2,-2.8470982E-2,4.2851232E-2],"split_indices":[49,0,50,0,49,0,50,50,49,49,49,50,50,34,22,67,50,37,78,49,96,0,0,0,0,0,0,0,0,0,0,0,0,0,0,0,0],"split_type":[0,0,0,0,0,0,0,0,0,0,0,0,0,0,0,0,0,0,0,0,0,0,0,0,0,0,0,0,0,0,0,0,0,0,0,0,0],"sum_hessian":[6.221658E3,5.675704E2,5.654088E3,3.651443E2,5.288944E3,5.594606E2,4.729483E3,1.3539489E3,3.3755342E3,3.2726434E2,1.0266846E3,2.0185062E3,1.357028E3,2.0704306E2,1.2022127E2,3.6539355E2,6.6129095E2,1.3359866E3,6.825197E2,7.609283E2,5.960997E2,8.709497E1,1.1994809E2,1.1885357E2,1.3677027E0,1.6319296E2,2.0220058E2,1.583483E2,5.029427E2,7.9578326E2,5.4020325E2,6.520963E2,3.0423439E1,6.780012E2,8.292707E1,5.625203E2,3.3579338E1],"tree_param":{"num_deleted":"0","num_feature":"116","num_nodes":"37","size_leaf_vector":"0"}},{"base_weights":[-1.98352E-1,-1.2164849E0,-1.0155122E-1,1.2154121E0,-1.8738984E-1,-1.2164568E0,-7.3317714E-2,4.3976223E-1,-1.9284137E-1,2.1878347E-1,6.575014E-1,-4.2072868E-1,-3.6292695E-2,6.414083E-1,-2.1006144E-3,1.0656704E0,5.1580095E-1,-2.4587E-1,-6.29901E-1,1.09618366E-1,-2.7418014E-1,6.686565E-1,-7.0154846E-1,-1.7291114E-1,2.2269395E-1,1.0777897E0,4.556895E-1,4.1018826E-1,1.0779228E0,-4.3348962E-1,-1.08400464E-1,-7.7907914E-1,-5.237163E-1,-8.5855156E-2,2.7616915E-1,-3.8688248E-1,-2.3838975E-2],"categories":[],"categories_nodes":[],"categories_segments":[],"categories_sizes":[],"default_left":[1,0,1,0,1,0,1,1,1,1,1,1,1,1,1,1,1,1,1,1,1,0,0,0,0,0,0,0,0,0,0,0,0,0,0,0,0],"id":10,"left_children":[1,-1,3,-1,5,-1,7,9,11,13,15,17,19,21,23,25,27,29,31,33,35,-1,-1,-1,-1,-1,-1,-1,-1,-1,-1,-1,-1,-1,-1,-1,-1],"loss_changes":[5.973513E2,0E0,6.261692E2,0E0,6.102204E2,0E0,2.8716898E2,4.242865E1,1.3546393E2,4.113454E1,2.5197678E1,5.6403076E1,7.820547E1,6.003765E0,1.1188307E1,3.4999084E-1,1.9290604E1,2.1718563E1,1.0734802E1,4.5494812E1,2.4156807E1,0E0,0E0,0E0,0E0,0E0,0E0,0E0,0E0,0E0,0E0,0E0,0E0,0E0,0E0,0E0,0E0],"parents":[2147483647,0,0,2,2,4,4,6,6,7,7,8,8,9,9,10,10,11,11,12,12,13,13,14,14,15,15,16,16,17,17,18,18,19,19,20,20],"right_children":[2,-1,4,-1,6,-1,8,10,12,14,16,18,20,22,24,26,28,30,32,34,36,-1,-1,-1,-1,-1,-1,-1,-1,-1,-1,-1,-1,-1,-1,-1,-1],"split_conditions":[-1.0822151E0,-1.2164849E-1,-7.6676106E-1,1.2154122E-1,-6.337167E-1,-1.2164568E-1,-3.682762E-1,-1.852184E-1,2.6327989E-1,-6.671398E-1,-5.9598184E-1,2.4368265E-1,7.4178874E-1,5E-1,5E-1,5E-1,7.1177816E-1,-1.852184E-1,-1.852184E-1,5E-1,1.6087748E0,6.686565E-2,-7.0154846E-2,-1.7291114E-2,2.2269396E-2,1.0777897E-1,4.556895E-2,4.1018825E-2,1.0779228E-1,-4.3348964E-2,-1.0840046E-2,-7.790791E-2,-5.237163E-2,-8.585515E-3,2.7616916E-2,-3.868825E-2,-2.3838975E-3],"split_indices":[49,0,50,0,49,0,50,49,49,50,50,50,50,57,84,82,49,49,49,37,49,0,0,0,0,0,0,0,0,0,0,0,0,0,0,0,0],"split_type":[0,0,0,0,0,0,0,0,0,0,0,0,0,0,0,0,0,0,0,0,0,0,0,0,0,0,0,0,0,0,0,0,0,0,0,0,0],"sum_hessian":[6.061284E3,5.252486E2,5.5360356E3,3.3794937E2,5.1980864E3,5.177448E2,4.6803413E3,8.83794E2,3.7965474E3,4.3962888E2,4.4416513E2,1.5453296E3,2.251218E3,1.5024887E2,2.8938E2,1.1278029E2,3.3138483E2,8.4288824E2,7.0244135E2,1.3956926E3,8.5552527E2,1.4775311E2,2.4957652E0,1.6456548E2,1.2481453E2,1.0983121E2,2.949079E0,2.8042728E2,5.0957565E1,3.5551917E2,4.8736905E2,2.894534E2,4.129879E2,6.423171E2,7.5337555E2,5.89562E2,2.6596326E2],"tree_param":{"num_deleted":"0","num_feature":"116","num_nodes":"37","size_leaf_vector":"0"}},{"base_weights":[-1.8378359E-1,-1.1912822E0,-9.348247E-2,1.1901292E0,-1.7207472E-1,-1.191252E0,-6.6678114E-2,2.2304279E-1,-2.49326E-1,5.9105206E-1,1.0162289E-1,-4.2929482E-1,-2.0552993E-2,3.8154578E-1,8.8346386E-1,-7.367082E-2,4.082734E-1,-6.8508714E-1,-3.4260714E-1,1.0320681E-1,-3.1459206E-1,5.950043E-1,1.04496576E-1,1.02815E0,6.770274E-1,-3.591435E-1,-1.21694915E-2,-5.089073E-1,4.4552577E-1,-7.1605957E-1,1.6926221E0,-2.2255482E-1,-5.1100826E-1,6.4543374E-2,1.1352047E0,-3.6991447E-1,9.1752553E-1],"categories":[],"categories_nodes":[],"categories_segments":[],"categories_sizes":[],"default_left":[1,0,1,0,1,0,1,1,1,1,1,1,1,1,1,1,1,1,1,1,1,0,0,0,0,0,0,0,0,0,0,0,0,0,0,0,0],"id":11,"left_children":[1,-1,3,-1,5,-1,7,9,11,13,15,17,19,21,23,25,27,29,31,33,35,-1,-1,-1,-1,-1,-1,-1,-1,-1,-1,-1,-1,-1,-1,-1,-1],"loss_changes":[5.373147E2,0E0,5.472241E2,0E0,5.4886896E2,0E0,2.4519365E2,8.00019E1,1.1699208E2,2.6881577E1,7.251466E1,3.5032715E1,4.5603016E1,1.5349525E1,4.8204803E0,1.5074201E1,1.698964E1,3.078563E1,2.3942505E1,3.512226E1,2.5641373E1,0E0,0E0,0E0,0E0,0E0,0E0,0E0,0E0,0E0,0E0,0E0,0E0,0E0,0E0,0E0,0E0],"parents":[2147483647,0,0,2,2,4,4,6,6,7,7,8,8,9,9,10,10,11,11,12,12,13,13,14,14,15,15,16,16,17,17,18,18,19,19,20,20],"right_children":[2,-1,4,-1,6,-1,8,10,12,14,16,18,20,22,24,26,28,30,32,34,36,-1,-1,-1,-1,-1,-1,-1,-1,-1,-1,-1,-1,-1,-1,-1,-1],"split_conditions":[-1.0822151E0,-1.1912822E-1,-7.6676106E-1,1.19012915E-1,-6.337167E-1,-1.191252E-1,-2.6717773E-2,-5.248238E-1,7.1177816E-1,-1.852184E-1,2.6327989E-1,-1.852184E-1,1.2114315E0,-6.671398E-1,-5.9598184E-1,6.5E0,-1.1965628E0,2.9126015E0,6.5639913E-1,2.9542696E0,2.9126015E0,5.9500434E-2,1.0449658E-2,1.02814995E-1,6.770274E-2,-3.591435E-2,-1.2169492E-3,-5.0890733E-2,4.4552576E-2,-7.160596E-2,1.6926222E-1,-2.2255482E-2,-5.1100828E-2,6.4543374E-3,1.13520466E-1,-3.6991447E-2,9.175255E-2],"split_indices":[49,0,50,0,49,0,50,50,49,49,49,49,50,50,50,0,115,27,50,49,27,0,0,0,0,0,0,0,0,0,0,0,0,0,0,0,0],"split_type":[0,0,0,0,0,0,0,0,0,0,0,0,0,0,0,0,0,0,0,0,0,0,0,0,0,0,0,0,0,0,0,0,0,0,0,0,0],"sum_hessian":[5.9061924E3,4.8481958E2,5.421373E3,3.1196973E2,5.1094033E3,4.7789468E2,4.6315083E3,1.790751E3,2.8407576E3,4.4329837E2,1.3474525E3,1.5894828E3,1.2512747E3,2.596034E2,1.8369499E2,8.578378E2,4.8961472E2,4.0057874E2,1.188904E3,8.8108057E2,3.701941E2,1.459813E2,1.1362209E2,1.0566007E2,7.803492E1,1.5119441E2,7.0664343E2,1.861592E1,4.7099878E2,3.961177E2,4.461046E0,6.954458E2,4.9345828E2,8.5028735E2,3.079318E1,3.5495624E2,1.5237858E1],"tree_param":{"num_deleted":"0","num_feature":"116","num_nodes":"37","size_leaf_vector":"0"}},{"base_weights":[-1.7013581E-1,-1.1693622E0,-8.595188E-2,1.1681176E0,-1.5787719E-1,-1.1693295E0,-6.0555805E-2,4.3433616E-1,-1.5097275E-1,3.317548E-1,9.0848696E-1,-3.341845E-1,-2.1619484E-2,6.342544E-1,1.5153065E-1,9.529163E-1,1.5524889E-2,-1.912235E-1,-5.609853E-1,1.8217081E-1,-1.5170373E-1,5.2112955E-1,9.381809E-1,-4.9294576E-2,3.1474718E-1,9.863548E-1,2.0223139E-1,7.3127663E-1,-1.6030493E0,-3.49154E-1,-6.9793075E-2,-5.711646E-1,8.983777E-1,-2.1417797E-2,3.52152E-1,-2.3532614E-1,9.0867214E-2],"categories":[],"categories_nodes":[],"categories_segments":[],"categories_sizes":[],"default_left":[1,0,1,0,1,0,1,1,1,1,1,1,1,1,1,1,1,1,1,1,1,0,0,0,0,0,0,0,0,0,0,0,0,0,0,0,0],"id":12,"left_children":[1,-1,3,-1,5,-1,7,9,11,13,15,17,19,21,23,25,27,29,31,33,35,-1,-1,-1,-1,-1,-1,-1,-1,-1,-1,-1,-1,-1,-1,-1,-1],"loss_changes":[4.8443604E2,0E0,4.7947177E2,0E0,4.94698E2,0E0,2.0528154E2,3.4169968E1,9.190854E1,3.1755135E1,4.9635468E0,5.1933E1,6.0323093E1,6.9997406E0,1.205902E1,2.800644E0,9.240051E0,1.8884365E1,9.723816E0,3.0690323E1,2.8192802E1,0E0,0E0,0E0,0E0,0E0,0E0,0E0,0E0,0E0,0E0,0E0,0E0,0E0,0E0,0E0,0E0],"parents":[2147483647,0,0,2,2,4,4,6,6,7,7,8,8,9,9,10,10,11,11,12,12,13,13,14,14,15,15,16,16,17,17,18,18,19,19,20,20],"right_children":[2,-1,4,-1,6,-1,8,10,12,14,16,18,20,22,24,26,28,30,32,34,36,-1,-1,-1,-1,-1,-1,-1,-1,-1,-1,-1,-1,-1,-1,-1,-1],"split_conditions":[-1.0822151E0,-1.1693622E-1,-7.6676106E-1,1.1681177E-1,-6.337167E-1,-1.1693295E-1,-4.536658E-1,2.6327989E-1,2.6327989E-1,-6.3867664E-1,5E-1,3.1484067E-1,3.1484067E-1,-1.852184E-1,5E-1,5E-1,1.1067929E0,-1.852184E-1,3.782525E0,5E-1,1.6087748E0,5.2112956E-2,9.381809E-2,-4.929458E-3,3.147472E-2,9.863549E-2,2.0223139E-2,7.3127665E-2,-1.6030493E-1,-3.49154E-2,-6.9793076E-3,-5.711646E-2,8.9837775E-2,-2.1417798E-3,3.52152E-2,-2.3532614E-2,9.086722E-3],"split_indices":[49,0,50,0,49,0,50,49,49,50,6,50,50,49,17,11,67,49,27,37,49,0,0,0,0,0,0,0,0,0,0,0,0,0,0,0,0],"split_type":[0,0,0,0,0,0,0,0,0,0,0,0,0,0,0,0,0,0,0,0,0,0,0,0,0,0,0,0,0,0,0,0,0,0,0,0,0],"sum_hessian":[5.7591455E3,4.4649966E2,5.312646E3,2.873447E2,5.0253013E3,4.401234E2,4.5851777E3,7.077183E2,3.8774595E3,5.832363E2,1.2448203E2,1.6040094E3,2.27345E3,2.1680983E2,3.6642648E2,1.1851803E2,5.964003E0,9.8498193E2,6.190275E2,8.85626E2,1.3878241E3,1.5997865E2,5.6831173E1,1.6459866E2,2.0182784E2,1.1316334E2,5.354694E0,4.515427E0,1.448576E0,4.2732913E2,5.576528E2,6.1534406E2,3.6835072E0,4.033739E2,4.8225204E2,1.0320659E3,3.5575818E2],"tree_param":{"num_deleted":"0","num_feature":"116","num_nodes":"37","size_leaf_vector":"0"}},{"base_weights":[-1.5738873E-1,-1.1501992E0,-7.897684E-2,1.1488508E0,-1.4477175E-1,-1.1501638E0,-5.4976676E-2,2.5719395E-1,-1.7769094E-1,6.0659295E-1,1.5749985E-1,-3.2074782E-1,2.6775043E-2,4.267821E-1,9.641368E-1,-1.16843976E-1,3.130486E-1,-3.596738E-1,1.340733E-1,1.4139391E-1,-2.76937E-1,1.8269028E-1,6.0552746E-1,9.7856987E-1,3.2172495E-1,-4.4226706E-2,-5.100344E-1,2.4625702E-1,6.243074E-1,-2.7161303E-1,-5.262122E-1,2.0552505E-2,9.567692E-1,1.0921781E-1,1.0590149E0,-3.2717568E-1,8.2730967E-1],"categories":[],"categories_nodes":[],"categories_segments":[],"categories_sizes":[],"default_left":[1,0,1,0,1,0,1,1,1,1,1,1,1,1,1,1,1,1,1,1,1,0,0,0,0,0,0,0,0,0,0,0,0,0,0,0,0],"id":13,"left_children":[1,-1,3,-1,5,-1,7,9,11,13,15,17,19,21,23,25,27,29,31,33,35,-1,-1,-1,-1,-1,-1,-1,-1,-1,-1,-1,-1,-1,-1,-1,-1],"loss_changes":[4.3753046E2,0E0,4.2114117E2,0E0,4.465404E2,0E0,1.7405357E2,4.4565826E1,9.539971E1,1.7864632E1,4.2662678E1,3.4019684E1,4.680408E1,8.220341E0,5.598068E-1,1.0317844E1,1.310424E1,2.5782913E1,1.4176457E1,2.8700462E1,2.0708813E1,0E0,0E0,0E0,0E0,0E0,0E0,0E0,0E0,0E0,0E0,0E0,0E0,0E0,0E0,0E0,0E0],"parents":[2147483647,0,0,2,2,4,4,6,6,7,7,8,8,9,9,10,10,11,11,12,12,13,13,14,14,15,15,16,16,17,17,18,18,19,19,20,20],"right_children":[2,-1,4,-1,6,-1,8,10,12,14,16,18,20,22,24,26,28,30,32,34,36,-1,-1,-1,-1,-1,-1,-1,-1,-1,-1,-1,-1,-1,-1,-1,-1],"split_conditions":[-1.0822151E0,-1.1501992E-1,-7.6676106E-1,1.14885084E-1,-6.337167E-1,-1.1501638E-1,-1.9749698E-1,-5.9598184E-1,7.1177816E-1,-1.852184E-1,-1.852184E-1,5E-1,1.2114315E0,5E-1,5E-1,5E-1,7.1177816E-1,6.4216745E-1,5E-1,2.9542696E0,2.9126015E0,1.8269029E-2,6.0552746E-2,9.785699E-2,3.2172497E-2,-4.4226707E-3,-5.1003437E-2,2.4625702E-2,6.243074E-2,-2.7161304E-2,-5.2621223E-2,2.0552506E-3,9.567692E-2,1.0921781E-2,1.05901495E-1,-3.2717567E-2,8.273097E-2],"split_indices":[49,0,50,0,49,0,50,50,49,49,49,103,50,34,82,56,49,50,11,49,27,0,0,0,0,0,0,0,0,0,0,0,0,0,0,0,0],"split_type":[0,0,0,0,0,0,0,0,0,0,0,0,0,0,0,0,0,0,0,0,0,0,0,0,0,0,0,0,0,0,0,0,0,0,0,0,0],"sum_hessian":[5.620474E3,4.1040988E2,5.2100645E3,2.641518E2,4.9459126E3,4.0455026E2,4.5413623E3,1.2811561E3,3.2602063E3,2.8327496E2,9.9788116E2,1.9178163E3,1.34239E3,1.8994446E2,9.33305E1,3.6115506E2,6.367261E2,1.7668123E3,1.5100395E2,9.7497534E2,3.6741464E2,8.114974E1,1.08794716E2,9.076794E1,2.562561E0,3.057917E2,5.536336E1,5.25708E2,1.11018074E2,1.1574281E3,6.093842E2,1.335947E2,1.740926E1,9.430274E2,3.194795E1,3.520993E2,1.5315362E1],"tree_param":{"num_deleted":"0","num_feature":"116","num_nodes":"37","size_leaf_vector":"0"}},{"base_weights":[-1.4540462E-1,-1.1333684E0,-7.2449684E-2,1.131904E0,-1.3259572E-1,-1.13333E0,-4.9822915E-2,1.785119E-1,-1.9314848E-1,4.8262993E-1,8.484762E-2,-2.914207E-1,7.902313E-2,2.919954E-1,7.7396685E-1,-5.3749725E-2,3.3213237E-1,-5.811128E-1,-2.2623447E-1,2.7603343E-1,-1.3209571E-1,4.8292068E-1,5.959338E-2,8.3702E-1,2.0252576E-1,-2.3879449E-1,3.0805286E-2,8.343103E-1,2.721148E-1,-6.115194E-1,1.4935408E0,-1.653978E-1,-4.8307964E-1,1.4173374E-1,7.6076007E-1,-1.5835553E-1,1.1675749E0],"categories":[],"categories_nodes":[],"categories_segments":[],"categories_sizes":[],"default_left":[1,0,1,0,1,0,1,1,1,1,1,1,1,1,1,1,1,1,1,1,1,0,0,0,0,0,0,0,0,0,0,0,0,0,0,0,0],"id":14,"left_children":[1,-1,3,-1,5,-1,7,9,11,13,15,17,19,21,23,25,27,29,31,33,35,-1,-1,-1,-1,-1,-1,-1,-1,-1,-1,-1,-1,-1,-1,-1,-1],"loss_changes":[3.9577002E2,0E0,3.7070108E2,0E0,4.0359674E2,0E0,1.4736261E2,4.94258E1,7.4011635E1,2.2472466E1,4.5563087E1,3.8252472E1,3.0591362E1,1.1004141E1,5.633133E0,1.3345282E1,1.4162739E1,2.4426155E1,2.5872635E1,2.4651335E1,1.2310649E1,0E0,0E0,0E0,0E0,0E0,0E0,0E0,0E0,0E0,0E0,0E0,0E0,0E0,0E0,0E0,0E0],"parents":[2147483647,0,0,2,2,4,4,6,6,7,7,8,8,9,9,10,10,11,11,12,12,13,13,14,14,15,15,16,16,17,17,18,18,19,19,20,20],"right_children":[2,-1,4,-1,6,-1,8,10,12,14,16,18,20,22,24,26,28,30,32,34,36,-1,-1,-1,-1,-1,-1,-1,-1,-1,-1,-1,-1,-1,-1,-1,-1],"split_conditions":[-1.0822151E0,-1.1333684E-1,-7.6676106E-1,1.13190405E-1,-6.337167E-1,-1.13333E-1,-2.6717773E-2,-5.248238E-1,1.1602765E0,-1.852184E-1,2.6327989E-1,-1.852184E-1,8.983363E-1,-6.671398E-1,5E-1,-6.185032E-1,-4.8212904E-1,2.9126015E0,1.2256632E0,2.0572731E0,5E-1,4.8292067E-2,5.959338E-3,8.3702E-2,2.0252576E-2,-2.387945E-2,3.0805287E-3,8.343103E-2,2.7211482E-2,-6.115194E-2,1.4935409E-1,-1.653978E-2,-4.8307966E-2,1.4173374E-2,7.607601E-2,-1.5835553E-2,1.1675749E-1],"split_indices":[49,0,50,0,49,0,50,50,49,49,49,49,50,50,23,115,50,27,50,49,41,0,0,0,0,0,0,0,0,0,0,0,0,0,0,0,0],"split_type":[0,0,0,0,0,0,0,0,0,0,0,0,0,0,0,0,0,0,0,0,0,0,0,0,0,0,0,0,0,0,0,0,0,0,0,0,0],"sum_hessian":[5.4910854E3,3.7659943E2,5.114486E3,2.4242339E2,4.8720625E3,3.712239E2,4.5008384E3,1.73559E3,2.7652485E3,4.0769492E2,1.327895E3,2.0316249E3,7.3362366E2,2.4764935E2,1.6004555E2,8.514563E2,4.7643875E2,3.717275E2,1.6598973E3,3.7933304E2,3.5429062E2,1.35365E2,1.12284355E2,1.4372238E2,1.632317E1,2.664715E2,5.849848E2,4.9485283E1,4.2695346E2,3.6705313E2,4.674372E0,1.343353E3,3.1654434E2,2.9804758E2,8.128548E1,3.4813474E2,6.1559005E0],"tree_param":{"num_deleted":"0","num_feature":"116","num_nodes":"37","size_leaf_vector":"0"}},{"base_weights":[-1.3426547E-1,-1.1185234E0,-6.643114E-2,1.1169294E0,-1.2141992E-1,-1.1184816E0,-4.514542E-2,3.6395738E-1,-1.1266443E-1,2.7033678E-1,8.4350055E-1,-3.8891345E-1,-5.5095613E-2,5.2151203E-1,1.2119752E-1,6.227185E-1,1.0366362E0,-4.089394E-1,1.4934963E0,3.7477557E-2,-2.1456774E-1,4.168472E-1,8.380928E-1,-8.886404E-2,2.9261452E-1,9.964117E-1,3.2470343E-1,3.9511758E-1,1.0964707E0,-2.9027757E-1,-6.7458194E-1,1.8913412E0,5.4808074E-1,-1.0362676E-1,1.7668335E-1,-2.6146036E-1,2.760716E-1],"categories":[],"categories_nodes":[],"categories_segments":[],"categories_sizes":[],"default_left":[1,0,1,0,1,0,1,1,1,1,1,1,1,1,1,1,1,1,1,1,1,0,0,0,0,0,0,0,0,0,0,0,0,0,0,0,0],"id":15,"left_children":[1,-1,3,-1,5,-1,7,9,11,13,15,17,19,21,23,25,27,29,31,33,35,-1,-1,-1,-1,-1,-1,-1,-1,-1,-1,-1,-1,-1,-1,-1,-1],"loss_changes":[3.58351E2,0E0,3.270081E2,0E0,3.6507663E2,0E0,1.232632E2,2.8154045E1,6.088507E1,1.9805492E1,3.7375107E0,2.5502281E1,4.6813473E1,6.1881256E0,1.2056217E1,5.296726E0,1.6135674E0,2.0423737E1,1.658598E0,3.943811E1,2.6867287E1,0E0,0E0,0E0,0E0,0E0,0E0,0E0,0E0,0E0,0E0,0E0,0E0,0E0,0E0,0E0,0E0],"parents":[2147483647,0,0,2,2,4,4,6,6,7,7,8,8,9,9,10,10,11,11,12,12,13,13,14,14,15,15,16,16,17,17,18,18,19,19,20,20],"right_children":[2,-1,4,-1,6,-1,8,10,12,14,16,18,20,22,24,26,28,30,32,34,36,-1,-1,-1,-1,-1,-1,-1,-1,-1,-1,-1,-1,-1,-1,-1,-1],"split_conditions":[-1.0822151E0,-1.1185234E-1,-7.6676106E-1,1.1169294E-1,-6.337167E-1,-1.1184817E-1,-4.8212904E-1,2.6327989E-1,-1.852184E-1,-6.3867664E-1,5E-1,2.9126015E0,6.5639913E-1,-1.852184E-1,5E-1,1.05E1,5E-1,3.7176704E-1,3E0,5E-1,2.5057714E0,4.168472E-2,8.380928E-2,-8.886404E-3,2.9261453E-2,9.964117E-2,3.247034E-2,3.951176E-2,1.0964707E-1,-2.9027758E-2,-6.74582E-2,1.8913412E-1,5.4808076E-2,-1.0362676E-2,1.7668335E-2,-2.6146038E-2,2.7607162E-2],"split_indices":[49,0,50,0,49,0,50,49,49,50,15,27,50,49,17,0,5,50,1,37,49,0,0,0,0,0,0,0,0,0,0,0,0,0,0,0,0],"split_type":[0,0,0,0,0,0,0,0,0,0,0,0,0,0,0,0,0,0,0,0,0,0,0,0,0,0,0,0,0,0,0,0,0,0,0,0,0],"sum_hessian":[5.367342E3,3.4506418E2,5.022278E3,2.2215622E2,4.8001216E3,3.401401E2,4.4599814E3,6.3118616E2,3.8287952E3,5.293965E2,1.01789665E2,6.5930524E2,3.16949E3,1.9629924E2,3.3309726E2,4.9466515E1,5.232315E1,6.5313965E2,6.1656413E0,2.0058589E3,1.1636311E3,1.4926683E2,4.7032406E1,1.4989331E2,1.8320395E2,2.090695E1,2.8559566E1,5.112517E0,4.7210632E1,4.52916E2,2.0022363E2,3.6353095E0,2.5303319E0,9.9626355E2,1.0095953E3,1.0625458E3,1.01085236E2],"tree_param":{"num_deleted":"0","num_feature":"116","num_nodes":"37","size_leaf_vector":"0"}},{"base_weights":[-1.2371009E-1,-1.1053786E0,-6.076537E-2,1.1036404E0,-1.1095875E-1,-1.1053331E0,-4.0803924E-2,1.5824318E-1,-1.604068E-1,5.0286883E-1,9.468961E-2,-2.4879405E-1,8.442548E-2,3.340268E-1,8.8124424E-1,2.5091916E-2,5.436205E-1,-2.828007E-1,1.6768385E-1,4.3229677E-2,9.8361224E-1,9.7349264E-2,5.124347E-1,9.2837054E-1,5.1546746E-1,-2.8415394E-1,9.102885E-2,1.024705E0,4.3953505E-1,-3.011742E-1,3.615495E-1,2.8103074E-1,-4.0800357E-1,-5.1277522E-2,3.6439002E-1,1.165424E0,-1.2019131E0],"categories":[],"categories_nodes":[],"categories_segments":[],"categories_sizes":[],"default_left":[1,0,1,0,1,0,1,1,1,1,1,1,1,1,1,1,1,1,1,1,1,0,0,0,0,0,0,0,0,0,0,0,0,0,0,0,0],"id":16,"left_children":[1,-1,3,-1,5,-1,7,9,11,13,15,17,19,21,23,25,27,29,31,33,35,-1,-1,-1,-1,-1,-1,-1,-1,-1,-1,-1,-1,-1,-1,-1,-1],"loss_changes":[3.248192E2,0E0,2.8896454E2,0E0,3.3053125E2,0E0,1.0542911E2,3.6361088E1,5.988102E1,1.6226059E1,4.3876793E1,2.8836426E1,2.716458E1,7.5681953E0,8.8629913E-1,2.484629E1,8.98843E0,2.2361572E1,1.0168324E1,2.1366718E1,1.4167612E1,0E0,0E0,0E0,0E0,0E0,0E0,0E0,0E0,0E0,0E0,0E0,0E0,0E0,0E0,0E0,0E0],"parents":[2147483647,0,0,2,2,4,4,6,6,7,7,8,8,9,9,10,10,11,11,12,12,13,13,14,14,15,15,16,16,17,17,18,18,19,19,20,20],"right_children":[2,-1,4,-1,6,-1,8,10,12,14,16,18,20,22,24,26,28,30,32,34,36,-1,-1,-1,-1,-1,-1,-1,-1,-1,-1,-1,-1,-1,-1,-1,-1],"split_conditions":[-1.0822151E0,-1.10537864E-1,-7.6676106E-1,1.1036404E-1,-6.337167E-1,-1.1053331E-1,-4.0949374E-2,-5.9598184E-1,1.1602765E0,-1.852184E-1,7.1177816E-1,5E-1,2.9126015E0,5E-1,5E-1,6.5E0,-4.10971E-1,5E-1,5E-1,5E-1,5E-1,9.734927E-3,5.1243473E-2,9.283706E-2,5.154675E-2,-2.8415395E-2,9.102885E-3,1.0247051E-1,4.3953504E-2,-3.011742E-2,3.6154952E-2,2.8103074E-2,-4.080036E-2,-5.127752E-3,3.6439E-2,1.165424E-1,-1.2019131E-1],"split_indices":[49,0,50,0,49,0,50,50,49,49,49,103,27,34,103,0,50,109,85,83,105,0,0,0,0,0,0,0,0,0,0,0,0,0,0,0,0],"split_type":[0,0,0,0,0,0,0,0,0,0,0,0,0,0,0,0,0,0,0,0,0,0,0,0,0,0,0,0,0,0,0,0,0,0,0,0,0],"sum_hessian":[5.2568394E3,3.1576074E2,4.9410786E3,2.0332303E2,4.737756E3,3.1125616E2,4.4264995E3,1.661332E3,2.7651675E3,2.5759338E2,1.4037386E3,2.0316885E3,7.33479E2,1.7941571E2,7.817766E1,1.216241E3,1.8749776E2,1.878615E3,1.5307352E2,7.023493E2,3.1129711E1,7.7779015E1,1.01636696E2,6.7892395E1,1.0285259E1,2.1316805E2,1.0030729E3,3.1777388E1,1.5572037E2,1.8270497E3,5.156526E1,1.283204E2,2.4753122E1,5.4331067E2,1.5903859E2,2.9169853E1,1.9598583E0],"tree_param":{"num_deleted":"0","num_feature":"116","num_nodes":"37","size_leaf_vector":"0"}},{"base_weights":[-1.13841E-1,-1.093696E0,-5.551756E-2,1.0917981E0,-1.0130218E-1,-1.0936462E0,-3.684899E-2,2.5755414E-1,-1.0560489E-1,9.662793E-2,4.2580712E-1,-2.670108E-1,-2.5136978E-3,3.9012286E-1,-2.842775E-2,8.511918E-1,3.299146E-1,-1.932583E-1,-4.9431604E-1,6.1265E-2,-2.37358E-1,-1.4895763E-2,4.9860254E-1,-1.1532645E-3,-1.0756352E0,8.9981467E-1,4.8611078E-1,2.53316E-1,8.347161E-1,-2.210014E-1,3.0933228E-1,-5.1272047E-1,1.2074627E0,-5.548896E-2,2.0259358E-1,-2.785878E-1,7.482393E-1],"categories":[],"categories_nodes":[],"categories_segments":[],"categories_sizes":[],"default_left":[1,0,1,0,1,0,1,1,1,1,1,1,1,1,1,1,1,1,1,1,1,0,0,0,0,0,0,0,0,0,0,0,0,0,0,0,0],"id":17,"left_children":[1,-1,3,-1,5,-1,7,9,11,13,15,17,19,21,23,25,27,29,31,33,35,-1,-1,-1,-1,-1,-1,-1,-1,-1,-1,-1,-1,-1,-1,-1,-1],"loss_changes":[2.946116E2,0E0,2.5580473E2,0E0,2.9940384E2,0E0,8.9036285E1,2.2508331E1,5.932669E1,1.5682169E1,1.6314842E1,2.3201347E1,3.2618446E1,5.615389E0,8.576774E0,8.7989044E-1,1.2689255E1,1.472113E1,1.1261635E1,2.827136E1,1.9108734E1,0E0,0E0,0E0,0E0,0E0,0E0,0E0,0E0,0E0,0E0,0E0,0E0,0E0,0E0,0E0,0E0],"parents":[2147483647,0,0,2,2,4,4,6,6,7,7,8,8,9,9,10,10,11,11,12,12,13,13,14,14,15,15,16,16,17,17,18,18,19,19,20,20],"right_children":[2,-1,4,-1,6,-1,8,10,12,14,16,18,20,22,24,26,28,30,32,34,36,-1,-1,-1,-1,-1,-1,-1,-1,-1,-1,-1,-1,-1,-1,-1,-1],"split_conditions":[-1.0822151E0,-1.093696E-1,-7.6676106E-1,1.0917981E-1,-6.337167E-1,-1.0936462E-1,-3.5404462E-1,-1.852184E-1,2.6327989E-1,-6.671398E-1,-5.9598184E-1,6.5639913E-1,1.2114315E0,8.5E0,5E-1,5E-1,7.1177816E-1,5E-1,3.782525E0,3.931012E-1,2.9126015E0,-1.4895763E-3,4.9860254E-2,-1.1532645E-4,-1.0756352E-1,8.998147E-2,4.861108E-2,2.53316E-2,8.347161E-2,-2.2100141E-2,3.093323E-2,-5.1272046E-2,1.2074627E-1,-5.548896E-3,2.0259358E-2,-2.7858779E-2,7.482393E-2],"split_indices":[49,0,50,0,49,0,50,49,49,50,50,50,50,0,21,103,49,109,27,115,27,0,0,0,0,0,0,0,0,0,0,0,0,0,0,0,0],"split_type":[0,0,0,0,0,0,0,0,0,0,0,0,0,0,0,0,0,0,0,0,0,0,0,0,0,0,0,0,0,0,0,0,0,0,0,0,0],"sum_hessian":[5.1552563E3,2.8861792E2,4.866638E3,1.8587807E2,4.6807603E3,2.8450183E2,4.3962583E3,8.3181165E2,3.5644468E3,4.259676E2,4.0584402E2,1.3886697E3,2.175777E3,1.2663845E2,2.9932916E2,7.320886E1,3.3263516E2,1.0498732E3,3.3879657E2,1.7116647E3,4.6411243E2,2.69354E1,9.970305E1,2.9270673E2,6.6224365E0,6.3312035E1,9.896825E0,2.9011493E2,4.2520245E1,9.9548254E2,5.439056E1,3.3586298E2,2.9335883E0,9.376573E2,7.740073E2,4.4616565E2,1.7946783E1],"tree_param":{"num_deleted":"0","num_feature":"116","num_nodes":"37","size_leaf_vector":"0"}},{"base_weights":[-1.0474627E-1,-1.0832754E0,-5.0744712E-2,1.0812006E0,-9.251953E-2,-1.083221E0,-3.3322882E-2,1.3419631E-1,-1.3787176E-1,8.76778E-2,4.8250708E-1,-2.580224E-1,4.459279E-3,4.7162464E-1,2.9867884E-2,3.6090377E-1,9.218285E-1,-2.847239E-1,2.922556E-1,-1.6071843E-1,1.00418255E-1,3.3145472E-1,8.3562994E-1,-2.1335119E-1,8.108612E-2,4.0885743E-1,-8.330055E-1,1.0385622E0,-4.8863837E-1,-4.7921363E-1,-2.2471282E-1,7.500427E-2,1.5329535E0,-1.9436932E-1,9.721652E-1,3.8271267E-2,4.3092227E-1],"categories":[],"categories_nodes":[],"categories_segments":[],"categories_sizes":[],"default_left":[1,0,1,0,1,0,1,1,1,1,1,1,1,1,1,1,1,1,1,1,1,0,0,0,0,0,0,0,0,0,0,0,0,0,0,0,0],"id":18,"left_children":[1,-1,3,-1,5,-1,7,9,11,13,15,17,19,21,23,25,27,29,31,33,35,-1,-1,-1,-1,-1,-1,-1,-1,-1,-1,-1,-1,-1,-1,-1,-1],"loss_changes":[2.672808E2,0E0,2.2686859E2,0E0,2.7125162E2,0E0,7.648524E1,2.7150517E1,4.598241E1,3.2874924E1,1.0218891E1,2.1506142E1,1.9540016E1,9.613281E0,1.6073671E1,9.2911415E0,7.4515533E0,1.6127945E1,1.8205189E1,1.7459156E1,1.5999443E1,0E0,0E0,0E0,0E0,0E0,0E0,0E0,0E0,0E0,0E0,0E0,0E0,0E0,0E0,0E0,0E0],"parents":[2147483647,0,0,2,2,4,4,6,6,7,7,8,8,9,9,10,10,11,11,12,12,13,13,14,14,15,15,16,16,17,17,18,18,19,19,20,20],"right_children":[2,-1,4,-1,6,-1,8,10,12,14,16,18,20,22,24,26,28,30,32,34,36,-1,-1,-1,-1,-1,-1,-1,-1,-1,-1,-1,-1,-1,-1,-1,-1],"split_conditions":[-1.0822151E0,-1.08327545E-1,-7.6676106E-1,1.0812006E-1,-6.337167E-1,-1.083221E-1,-2.6717773E-2,7.1177816E-1,7.1177816E-1,-6.3867664E-1,5E-1,5E-1,6E0,-1.852184E-1,6.5E0,5E-1,5E-1,-1.852184E-1,5E-1,3.782525E0,5E-1,3.3145472E-2,8.356299E-2,-2.133512E-2,8.108612E-3,4.0885743E-2,-8.330055E-2,1.0385622E-1,-4.886384E-2,-4.7921363E-2,-2.2471283E-2,7.5004273E-3,1.5329535E-1,-1.9436931E-2,9.7216524E-2,3.8271267E-3,4.309223E-2],"split_indices":[49,0,50,0,49,0,50,49,49,50,81,78,1,49,0,32,12,49,4,27,102,0,0,0,0,0,0,0,0,0,0,0,0,0,0,0,0],"split_type":[0,0,0,0,0,0,0,0,0,0,0,0,0,0,0,0,0,0,0,0,0,0,0,0,0,0,0,0,0,0,0,0,0,0,0,0,0],"sum_hessian":[5.058144E3,2.6354504E2,4.794599E3,1.6976285E2,4.6248364E3,2.5978784E2,4.3650483E3,1.6772687E3,2.6877795E3,1.4807583E3,1.9651039E2,1.4570114E3,1.2307683E3,1.9284074E2,1.2879176E3,1.5533537E2,4.117502E1,1.390044E3,6.6967445E1,4.520181E2,7.7875024E2,1.4060692E2,5.223384E1,2.2348642E2,1.0644312E3,1.4996938E2,5.3660083E0,3.827127E1,2.9037473E0,3.261241E2,1.0639198E3,5.789095E1,9.076491E0,4.3978333E2,1.2234781E1,6.5643243E2,1.22317795E2],"tree_param":{"num_deleted":"0","num_feature":"116","num_nodes":"37","size_leaf_vector":"0"}},{"base_weights":[-9.624458E-2,-1.0739477E0,-4.632053E-2,1.0716774E0,-8.440812E-2,-1.073888E0,-3.0102735E-2,2.7643496E-1,-7.860635E-2,1.927154E-1,7.476835E-1,-3.0963078E-1,-3.217373E-2,4.1244248E-1,9.5011465E-2,5.0579214E-1,9.643894E-1,-3.288458E-1,1.3765773E0,1.4884634E-2,-2.5496948E-1,4.4235432E-1,-8.9391E-1,2.1685882E-2,4.1140598E-1,9.2121065E-1,1.9412202E-1,2.905981E-1,1.0317836E0,-2.4253142E-1,-5.9190184E-1,1.6291862E0,3.5007414E-1,-9.3660876E-2,1.1584378E-1,-2.7636492E-1,1.1951797E0],"categories":[],"categories_nodes":[],"categories_segments":[],"categories_sizes":[],"default_left":[1,0,1,0,1,0,1,1,1,1,1,1,1,1,1,1,1,1,1,1,1,0,0,0,0,0,0,0,0,0,0,0,0,0,0,0,0],"id":19,"left_children":[1,-1,3,-1,5,-1,7,9,11,13,15,17,19,21,23,25,27,29,31,33,35,-1,-1,-1,-1,-1,-1,-1,-1,-1,-1,-1,-1,-1,-1,-1,-1],"loss_changes":[2.425727E2,0E0,2.015121E2,0E0,2.4581784E2,0E0,6.452437E1,2.3247189E1,4.0177994E1,1.0797966E1,4.1824417E0,2.0762867E1,3.272098E1,6.455084E0,8.127814E0,5.544324E0,1.7840309E0,1.3947311E1,1.3110485E0,2.8254892E1,1.7215965E1,0E0,0E0,0E0,0E0,0E0,0E0,0E0,0E0,0E0,0E0,0E0,0E0,0E0,0E0,0E0,0E0],"parents":[2147483647,0,0,2,2,4,4,6,6,7,7,8,8,9,9,10,10,11,11,12,12,13,13,14,14,15,15,16,16,17,17,18,18,19,19,20,20],"right_children":[2,-1,4,-1,6,-1,8,10,12,14,16,18,20,22,24,26,28,30,32,34,36,-1,-1,-1,-1,-1,-1,-1,-1,-1,-1,-1,-1,-1,-1,-1,-1],"split_conditions":[-1.0822151E0,-1.0739477E-1,-7.6676106E-1,1.0716774E-1,-6.337167E-1,-1.07388794E-1,-4.8212904E-1,2.6327989E-1,-1.852184E-1,-6.671398E-1,5E-1,2.9126015E0,1.2256632E0,5E-1,5E-1,1.05E1,5E-1,4.998515E-1,5E-1,5E-1,5E-1,4.4235434E-2,-8.9391E-2,2.168588E-3,4.1140597E-2,9.2121065E-2,1.9412203E-2,2.905981E-2,1.0317836E-1,-2.4253143E-2,-5.9190184E-2,1.6291861E-1,3.5007413E-2,-9.366088E-3,1.1584378E-2,-2.7636493E-2,1.19517975E-1],"split_indices":[49,0,50,0,49,0,50,49,49,50,15,27,50,57,81,0,5,50,54,37,41,0,0,0,0,0,0,0,0,0,0,0,0,0,0,0,0],"split_type":[0,0,0,0,0,0,0,0,0,0,0,0,0,0,0,0,0,0,0,0,0,0,0,0,0,0,0,0,0,0,0,0,0,0,0,0,0],"sum_hessian":[4.969662E3,2.4043901E2,4.729223E3,1.5491164E2,4.5743115E3,2.3701251E2,4.337299E3,5.9189386E2,3.7454053E3,5.038003E2,8.8093575E1,6.258475E2,3.1195576E3,1.540761E2,3.497242E2,4.3203247E1,4.4890324E1,6.19592E2,6.2555237E0,2.5763257E3,5.4323193E2,1.5127373E2,2.8023655E0,2.8479132E2,6.4932884E1,1.7680952E1,2.5522295E1,4.5647683E0,4.0325554E1,4.679646E2,1.5162735E2,4.5489616E0,1.7065623E0,1.2415521E3,1.3347737E3,5.361313E2,7.100636E0],"tree_param":{"num_deleted":"0","num_feature":"116","num_nodes":"37","size_leaf_vector":"0"}},{"base_weights":[-8.828939E-2,-1.065568E0,-4.220365E-2,1.0630821E0,-7.690359E-2,-1.0655026E0,-2.7140891E-2,1.2949933E-1,-1.0972181E-1,8.335028E-2,5.1782304E-1,-1.7895126E-1,8.650803E-2,3.720154E-1,2.3876762E-2,9.5479107E-1,4.0842077E-1,-2.0963416E-1,1.7630146E-1,2.3943922E-1,-8.193235E-2,2.3288055E-1,7.597006E-1,4.0342532E-2,-8.257453E-1,1.0129393E0,-1.384753E-1,9.837258E-3,6.174467E-1,-4.018011E-1,-1.6793853E-1,2.9075637E-1,-4.3656397E-1,1.8049896E-1,1.1581835E0,-1.7681554E-1,2.5876182E-1],"categories":[],"categories_nodes":[],"categories_segments":[],"categories_sizes":[],"default_left":[1,0,1,0,1,0,1,1,1,1,1,1,1,1,1,1,1,1,1,1,1,0,0,0,0,0,0,0,0,0,0,0,0,0,0,0,0],"id":20,"left_children":[1,-1,3,-1,5,-1,7,9,11,13,15,17,19,21,23,25,27,29,31,33,35,-1,-1,-1,-1,-1,-1,-1,-1,-1,-1,-1,-1,-1,-1,-1,-1],"loss_changes":[2.2021014E2,0E0,1.792369E2,0E0,2.2282214E2,0E0,5.5816036E1,2.665221E1,3.839577E1,2.2869068E1,7.164936E0,2.2804749E1,1.901661E1,1.2099026E1,1.5506115E1,2.1044083E0,1.0669674E1,1.5341797E1,1.1813486E1,2.0735655E1,1.141433E1,0E0,0E0,0E0,0E0,0E0,0E0,0E0,0E0,0E0,0E0,0E0,0E0,0E0,0E0,0E0,0E0],"parents":[2147483647,0,0,2,2,4,4,6,6,7,7,8,8,9,9,10,10,11,11,12,12,13,13,14,14,15,15,16,16,17,17,18,18,19,19,20,20],"right_children":[2,-1,4,-1,6,-1,8,10,12,14,16,18,20,22,24,26,28,30,32,34,36,-1,-1,-1,-1,-1,-1,-1,-1,-1,-1,-1,-1,-1,-1,-1,-1],"split_conditions":[-1.0822151E0,-1.06556796E-1,-7.6676106E-1,1.06308214E-1,-6.337167E-1,-1.0655027E-1,-1.2633899E-1,7.1177816E-1,1.1602765E0,-5.9598184E-1,-4.10971E-1,5E-1,8.983363E-1,-1.852184E-1,5E-1,5E-1,-3.113498E-1,-1.852184E-1,5E-1,2.9542696E0,5E-1,2.3288054E-2,7.597006E-2,4.0342533E-3,-8.257453E-2,1.0129394E-1,-1.384753E-2,9.837258E-4,6.174467E-2,-4.0180113E-2,-1.6793853E-2,2.9075637E-2,-4.3656398E-2,1.8049896E-2,1.15818344E-1,-1.7681554E-2,2.5876183E-2],"split_indices":[49,0,50,0,49,0,50,49,49,50,50,103,50,49,107,110,50,49,85,49,30,0,0,0,0,0,0,0,0,0,0,0,0,0,0,0,0],"split_type":[0,0,0,0,0,0,0,0,0,0,0,0,0,0,0,0,0,0,0,0,0,0,0,0,0,0,0,0,0,0,0,0,0,0,0,0,0],"sum_hessian":[4.8893623E3,2.191892E2,4.6701733E3,1.4125296E2,4.5289204E3,2.1606685E2,4.3128535E3,1.4886329E3,2.8242205E3,1.3315981E3,1.5703477E2,2.0877537E3,7.364668E2,2.2658298E2,1.1050153E3,2.9896513E1,1.2713826E2,1.9221492E3,1.6560457E2,3.8578317E2,3.5068362E2,1.6791963E2,5.866334E1,1.0849414E3,2.007377E1,2.8456455E1,1.4400575E0,4.40975E1,8.3040764E1,3.4116223E2,1.5809869E3,1.3998705E2,2.5617523E1,3.6365036E2,2.213282E1,2.746693E2,7.601429E1],"tree_param":{"num_deleted":"0","num_feature":"116","num_nodes":"37","size_leaf_vector":"0"}},{"base_weights":[-8.098287E-2,-1.0580121E0,-3.8459554E-2,1.0552883E0,-7.009028E-2,-1.0579406E0,-2.4489095E-2,1.4475109E-1,-8.909246E-2,7.756668E-3,2.530078E-1,-2.3800401E-1,-8.074838E-3,7.0402175E-2,-3.4795147E-1,7.530208E-1,2.0283335E-1,-2.7514276E-1,1.734445E-1,-6.182346E-2,1.8577097E-1,3.6681548E-1,-1.5526808E-2,-4.4906962E-1,7.7977294E-1,6.239673E-1,9.913324E-1,1.4325504E-1,4.8149773E-1,-3.204162E-1,5.617093E-2,-9.6984667E-1,2.5197372E-1,-3.284464E-2,-4.693668E-1,1.0046463E-1,5.149343E-1],"categories":[],"categories_nodes":[],"categories_segments":[],"categories_sizes":[],"default_left":[1,0,1,0,1,0,1,1,1,1,1,1,1,1,1,1,1,1,1,1,1,0,0,0,0,0,0,0,0,0,0,0,0,0,0,0,0],"id":21,"left_children":[1,-1,3,-1,5,-1,7,9,11,13,15,17,19,21,23,25,27,29,31,33,35,-1,-1,-1,-1,-1,-1,-1,-1,-1,-1,-1,-1,-1,-1,-1,-1],"loss_changes":[1.9990225E2,0E0,1.5965945E2,0E0,2.0197055E2,0E0,4.688774E1,1.7569515E1,3.7439636E1,1.17015705E1,1.6450226E1,1.6757088E1,2.0963587E1,1.1375364E1,9.317418E0,1.2262383E0,9.93907E0,1.5067993E1,8.427483E0,1.858749E1,1.2213375E1,0E0,0E0,0E0,0E0,0E0,0E0,0E0,0E0,0E0,0E0,0E0,0E0,0E0,0E0,0E0,0E0],"parents":[2147483647,0,0,2,2,4,4,6,6,7,7,8,8,9,9,10,10,11,11,12,12,13,13,14,14,15,15,16,16,17,17,18,18,19,19,20,20],"right_children":[2,-1,4,-1,6,-1,8,10,12,14,16,18,20,22,24,26,28,30,32,34,36,-1,-1,-1,-1,-1,-1,-1,-1,-1,-1,-1,-1,-1,-1,-1,-1],"split_conditions":[-1.0822151E0,-1.0580122E-1,-7.6676106E-1,1.0552883E-1,-6.337167E-1,-1.05794065E-1,-1.9749698E-1,-1.852184E-1,2.6327989E-1,5E-1,-5.9598184E-1,5E-1,5E-1,-6.671398E-1,5E-1,2.6327989E-1,5E-1,1.1727538E0,-6.185032E-1,5E-1,1.6087748E0,3.6681548E-2,-1.5526809E-3,-4.4906963E-2,7.797729E-2,6.239673E-2,9.9133246E-2,1.4325504E-2,4.8149776E-2,-3.204162E-2,5.617093E-3,-9.698467E-2,2.5197372E-2,-3.2844641E-3,-4.693668E-2,1.00464625E-2,5.1493432E-2],"split_indices":[49,0,50,0,49,0,50,49,49,56,50,103,83,50,78,49,81,27,115,85,49,0,0,0,0,0,0,0,0,0,0,0,0,0,0,0,0],"split_type":[0,0,0,0,0,0,0,0,0,0,0,0,0,0,0,0,0,0,0,0,0,0,0,0,0,0,0,0,0,0,0,0,0,0,0,0,0],"sum_hessian":[4.8115073E3,1.9968147E2,4.6118257E3,1.2871378E2,4.483112E3,1.9683832E2,4.286274E3,1.1838153E3,3.1024585E3,5.2302295E2,6.6079236E2,1.0924965E3,2.0099619E3,4.453859E2,7.7637024E1,5.89836E1,6.018088E2,1.0023521E3,9.0144394E1,1.5741659E3,4.35796E2,9.936299E1,3.4602292E2,7.180075E1,5.8362694E0,4.0610153E1,1.8373444E1,4.970531E2,1.0475565E2,8.8187787E2,1.2047424E2,5.0642905E0,8.508011E1,1.4706727E3,1.03493225E2,3.471368E2,8.865917E1],"tree_param":{"num_deleted":"0","num_feature":"116","num_nodes":"37","size_leaf_vector":"0"}},{"base_weights":[-7.420657E-2,-1.0511725E0,-3.5032496E-2,1.0481868E0,-6.384347E-2,-1.051094E0,-2.210677E-2,6.4168E-2,-1.337738E-1,4.5569643E-2,5.766651E-1,-2.4721184E-1,-2.6615668E-2,2.2461495E-1,-9.5255235E-3,3.8789213E-1,1.108718E0,-2.741838E-1,3.0205277E-1,-7.1593024E-2,2.5573075E-1,1.5490137E-1,6.6409403E-1,-1.1629284E-1,1.0953828E-1,3.1481247E-2,9.289618E-1,1.2603697E0,1.5398495E-1,-3.0737156E-1,1.2238615E-1,6.293982E-2,1.3216106E0,-5.729365E-2,-9.993654E-1,2.186668E-2,7.32843E-1],"categories":[],"categories_nodes":[],"categories_segments":[],"categories_sizes":[],"default_left":[1,0,1,0,1,0,1,1,1,1,1,1,1,1,1,1,1,1,1,1,1,0,0,0,0,0,0,0,0,0,0,0,0,0,0,0,0],"id":22,"left_children":[1,-1,3,-1,5,-1,7,9,11,13,15,17,19,21,23,25,27,29,31,33,35,-1,-1,-1,-1,-1,-1,-1,-1,-1,-1,-1,-1,-1,-1,-1,-1],"loss_changes":[1.8147038E2,0E0,1.4240279E2,0E0,1.8307217E2,0E0,4.1091595E1,2.2910313E1,2.2590866E1,2.291932E1,8.025003E0,1.3459202E1,1.2172363E1,1.6646936E1,2.2608332E1,1.2249969E1,2.9199944E0,1.1371735E1,1.0335998E1,1.0905481E1,1.4682275E1,0E0,0E0,0E0,0E0,0E0,0E0,0E0,0E0,0E0,0E0,0E0,0E0,0E0,0E0,0E0,0E0],"parents":[2147483647,0,0,2,2,4,4,6,6,7,7,8,8,9,9,10,10,11,11,12,12,13,13,14,14,15,15,16,16,17,17,18,18,19,19,20,20],"right_children":[2,-1,4,-1,6,-1,8,10,12,14,16,18,20,22,24,26,28,30,32,34,36,-1,-1,-1,-1,-1,-1,-1,-1,-1,-1,-1,-1,-1,-1,-1,-1],"split_conditions":[-1.0822151E0,-1.05117254E-1,-7.6676106E-1,1.0481868E-1,-6.337167E-1,-1.0510941E-1,3.1484067E-1,1.6087748E0,7.1177816E-1,-4.9636063E-1,1.1727538E0,5E-1,5E-1,2.6327989E-1,5E-1,5E-1,1.7252465E-1,5E-1,5E-1,5E-1,1.621478E0,1.5490137E-2,6.64094E-2,-1.1629284E-2,1.0953828E-2,3.1481248E-3,9.2896186E-2,1.2603697E-1,1.5398495E-2,-3.0737156E-2,1.2238615E-2,6.2939823E-3,1.3216107E-1,-5.729365E-3,-9.993654E-2,2.1866679E-3,7.32843E-2],"split_indices":[49,0,50,0,49,0,50,49,49,50,27,78,102,49,37,74,50,91,4,20,115,0,0,0,0,0,0,0,0,0,0,0,0,0,0,0,0],"split_type":[0,0,0,0,0,0,0,0,0,0,0,0,0,0,0,0,0,0,0,0,0,0,0,0,0,0,0,0,0,0,0,0,0,0,0,0,0],"sum_hessian":[4.7415913E3,1.8180116E2,4.5597905E3,1.17220375E2,4.44257E3,1.7921391E2,4.263356E3,2.4053728E3,1.8579833E3,2.3221902E3,8.318262E1,9.019104E2,9.560729E2,5.4570636E2,1.7764839E3,6.2674633E1,2.0507984E1,8.6017194E2,4.173843E1,8.253434E2,1.307295E2,4.7216095E2,7.354537E1,9.366189E2,8.398649E2,3.8422997E1,2.4251635E1,1.7420715E1,3.0872695E0,7.939533E2,6.621864E1,3.4669308E1,7.069125E0,8.138614E2,1.1481959E1,8.8429985E1,4.2299522E1],"tree_param":{"num_deleted":"0","num_feature":"116","num_nodes":"37","size_leaf_vector":"0"}},{"base_weights":[-6.7885526E-2,-1.0449551E0,-3.1836905E-2,1.041681E0,-5.8069088E-2,-1.0448691E0,-1.9896377E-2,9.4016545E-2,-9.075244E-2,5.7375077E-2,3.8096407E-1,-1.333602E-1,1.4255016E-1,-1.6829602E-1,1.0898346E-1,2.6738188E-1,8.163915E-1,-8.817117E-2,-3.261446E-1,9.102141E-2,9.808837E-1,-2.5294772E-1,6.6888016E-1,4.2813757E-1,6.659608E-2,3.138408E-1,-8.084345E-1,9.412301E-1,-5.45586E-1,-1.7694551E-1,1.2626829E-2,-3.4578508E-1,1.5443997E0,3.215923E-1,-7.588937E-2,1.1859015E0,2.9795598E-3],"categories":[],"categories_nodes":[],"categories_segments":[],"categories_sizes":[],"default_left":[1,0,1,0,1,0,1,1,1,1,1,1,1,1,1,1,1,1,1,1,1,0,0,0,0,0,0,0,0,0,0,0,0,0,0,0,0],"id":23,"left_children":[1,-1,3,-1,5,-1,7,9,11,13,15,17,19,21,23,25,27,29,31,33,35,-1,-1,-1,-1,-1,-1,-1,-1,-1,-1,-1,-1,-1,-1,-1,-1],"loss_changes":[1.6474976E2,0E0,1.2714915E2,0E0,1.6595842E2,0E0,3.425713E1,1.7091969E1,2.6028372E1,1.68424E1,8.888372E0,1.9250004E1,1.738614E1,1.9251196E1,1.5884559E1,7.6272545E0,6.907831E0,1.6056438E1,1.5958691E1,1.4733925E1,4.6724777E0,0E0,0E0,0E0,0E0,0E0,0E0,0E0,0E0,0E0,0E0,0E0,0E0,0E0,0E0,0E0,0E0],"parents":[2147483647,0,0,2,2,4,4,6,6,7,7,8,8,9,9,10,10,11,11,12,12,13,13,14,14,15,15,16,16,17,17,18,18,19,19,20,20],"right_children":[2,-1,4,-1,6,-1,8,10,12,14,16,18,20,22,24,26,28,30,32,34,36,-1,-1,-1,-1,-1,-1,-1,-1,-1,-1,-1,-1,-1,-1,-1,-1],"split_conditions":[-1.0822151E0,-1.0449552E-1,-7.6676106E-1,1.0416811E-1,-6.337167E-1,-1.04486905E-1,-2.6717773E-2,7.1177816E-1,1.6087748E0,7.5E0,5E-1,1.2256632E0,2.9126015E0,5E-1,-6.3867664E-1,5E-1,5E-1,5E-1,5E-1,8.983363E-1,5E-1,-2.5294771E-2,6.688802E-2,4.281376E-2,6.6596083E-3,3.138408E-2,-8.084345E-2,9.412301E-2,-5.45586E-2,-1.7694551E-2,1.2626828E-3,-3.457851E-2,1.5443997E-1,3.215923E-2,-7.5889374E-3,1.18590154E-1,2.97956E-4],"split_indices":[49,0,50,0,49,0,50,49,49,0,81,50,27,109,50,32,12,37,41,50,64,0,0,0,0,0,0,0,0,0,0,0,0,0,0,0,0],"split_type":[0,0,0,0,0,0,0,0,0,0,0,0,0,0,0,0,0,0,0,0,0,0,0,0,0,0,0,0,0,0,0,0,0,0,0,0,0],"sum_hessian":[4.6774106E3,1.6543509E2,4.511975E3,1.0670016E2,4.4052754E3,1.6308202E2,4.2421934E3,1.6266903E3,2.615503E3,1.4435568E3,1.8313354E2,2.211963E3,4.0353983E2,2.6825983E2,1.175297E3,1.4652599E2,3.6607555E1,1.7931115E3,4.188515E2,3.8121664E2,2.2323168E1,2.4425922E2,2.4000595E1,1.3672568E2,1.0385713E3,1.411392E2,5.3867917E0,3.3816837E1,2.7907197E0,9.530183E2,8.400932E2,4.1530597E2,3.545516E0,1.596916E2,2.2152504E2,1.8278399E1,4.0447683E0],"tree_param":{"num_deleted":"0","num_feature":"116","num_nodes":"37","size_leaf_vector":"0"}},{"base_weights":[-6.205708E-2,-1.0392776E0,-2.8909545E-2,1.0356865E0,-5.279521E-2,-1.039183E0,-1.7893907E-2,1.6326095E-1,-5.5848278E-2,3.2981947E-2,3.1698E-1,-2.5966668E-1,-2.0011155E-2,-7.30927E-2,2.711528E-1,7.0220625E-1,2.4223082E-1,-2.8039405E-1,1.2897679E0,-5.71682E-2,1.5534788E-1,-1.3511252E-2,-7.7369165E-1,3.461297E-1,-4.8374352E-1,7.3969257E-1,3.018928E-3,1.3650588E-2,4.2477888E-1,-3.1493083E-1,3.0337185E-1,1.6823027E0,3.5002446E-1,-8.0396354E-2,2.4517007E-1,2.8776708E-1,-3.174877E-2],"categories":[],"categories_nodes":[],"categories_segments":[],"categories_sizes":[],"default_left":[1,0,1,0,1,0,1,1,1,1,1,1,1,1,1,1,1,1,1,1,1,0,0,0,0,0,0,0,0,0,0,0,0,0,0,0,0],"id":24,"left_children":[1,-1,3,-1,5,-1,7,9,11,13,15,17,19,21,23,25,27,29,31,33,35,-1,-1,-1,-1,-1,-1,-1,-1,-1,-1,-1,-1,-1,-1,-1,-1],"loss_changes":[1.4955562E2,0E0,1.1365547E2,0E0,1.5043645E2,0E0,2.9038174E1,1.4640833E1,2.5497118E1,1.0052305E1,9.490517E0,1.7126404E1,1.93636E1,1.1490996E1,7.105198E0,1.4129276E0,1.17820015E1,1.0497627E1,2.018978E0,1.7238049E1,1.2882996E1,0E0,0E0,0E0,0E0,0E0,0E0,0E0,0E0,0E0,0E0,0E0,0E0,0E0,0E0,0E0,0E0],"parents":[2147483647,0,0,2,2,4,4,6,6,7,7,8,8,9,9,10,10,11,11,12,12,13,13,14,14,15,15,16,16,17,17,18,18,19,19,20,20],"right_children":[2,-1,4,-1,6,-1,8,10,12,14,16,18,20,22,24,26,28,30,32,34,36,-1,-1,-1,-1,-1,-1,-1,-1,-1,-1,-1,-1,-1,-1,-1,-1],"split_conditions":[-1.0822151E0,-1.03927754E-1,-7.6676106E-1,1.0356865E-1,-6.337167E-1,-1.0391831E-1,-3.682762E-1,-1.852184E-1,-1.852184E-1,5E-1,-5.9598184E-1,2.9126015E0,5E-1,5E-1,5E-1,5E-1,5E-1,5E-1,3E0,5E-1,8.414099E-1,-1.3511252E-3,-7.736917E-2,3.461297E-2,-4.837435E-2,7.396926E-2,3.018928E-4,1.3650588E-3,4.2477887E-2,-3.1493083E-2,3.0337185E-2,1.6823028E-1,3.5002448E-2,-8.039636E-3,2.4517007E-2,2.8776709E-2,-3.1748773E-3],"split_indices":[49,0,50,0,49,0,50,49,49,77,50,27,101,103,105,4,17,16,1,78,50,0,0,0,0,0,0,0,0,0,0,0,0,0,0,0,0],"split_type":[0,0,0,0,0,0,0,0,0,0,0,0,0,0,0,0,0,0,0,0,0,0,0,0,0,0,0,0,0,0,0,0,0,0,0,0,0],"sum_hessian":[4.616918E3,1.5047322E2,4.466445E3,9.708219E1,4.369363E3,1.4833426E2,4.2210283E3,7.305999E2,3.4904285E3,3.9610776E2,3.3449216E2,5.2101074E2,2.9694177E3,2.7453198E2,1.2157576E2,5.299318E1,2.81499E2,5.1494116E2,6.069535E0,2.4507908E3,5.1862714E2,2.539541E2,2.057788E1,1.11084274E2,1.0491489E1,5.024159E1,2.7515888E0,1.2546763E2,1.5603134E2,4.8661273E2,2.832846E1,3.723881E0,2.3456538E0,2.276616E3,1.741746E2,3.0337378E2,2.1525333E2],"tree_param":{"num_deleted":"0","num_feature":"116","num_nodes":"37","size_leaf_vector":"0"}},{"base_weights":[-5.6653734E-2,-1.034067E0,-2.62285E-2,1.0301275E0,-4.7954146E-2,-1.0339633E0,-1.6090564E-2,-3.403744E-2,3.4244624E-1,-5.3972553E-2,2.4132432E-1,2.3501152E-1,6.366492E-1,1.4057174E-1,-8.360462E-2,3.0850607E-1,-3.6664817E-1,-1.2555765E-1,4.253241E-1,1.1149428E-1,9.12682E-1,-6.885484E-2,2.490139E-1,-1.5047936E-1,2.5928563E-2,3.7748724E-1,-1.783961E-1,6.1930686E-2,-1.4457114E0,5.5777583E-2,-1.175411E0,2.2207208E-1,8.3246714E-1,3.3866417E-1,-1.065952E0,-2.446388E-1,1.0935904E0],"categories":[],"categories_nodes":[],"categories_segments":[],"categories_sizes":[],"default_left":[1,0,1,0,1,0,1,1,1,1,1,1,1,1,1,1,1,1,1,1,1,0,0,0,0,0,0,0,0,0,0,0,0,0,0,0,0],"id":25,"left_children":[1,-1,3,-1,5,-1,7,9,11,13,15,17,19,21,23,25,27,29,31,33,35,-1,-1,-1,-1,-1,-1,-1,-1,-1,-1,-1,-1,-1,-1,-1,-1],"loss_changes":[1.3575145E2,0E0,1.0169533E2,0E0,1.3635901E2,0E0,2.7074673E1,2.2004894E1,6.190302E0,2.155246E1,1.1167333E1,1.0244503E1,7.5911064E0,1.1242744E1,2.3761362E1,8.271101E0,1.2755139E1,9.98008E0,7.878088E0,5.5562596E0,7.5213184E0,0E0,0E0,0E0,0E0,0E0,0E0,0E0,0E0,0E0,0E0,0E0,0E0,0E0,0E0,0E0,0E0],"parents":[2147483647,0,0,2,2,4,4,6,6,7,7,8,8,9,9,10,10,11,11,12,12,13,13,14,14,15,15,16,16,17,17,18,18,19,19,20,20],"right_children":[2,-1,4,-1,6,-1,8,10,12,14,16,18,20,22,24,26,28,30,32,34,36,-1,-1,-1,-1,-1,-1,-1,-1,-1,-1,-1,-1,-1,-1,-1,-1],"split_conditions":[-1.0822151E0,-1.03406705E-1,-7.6676106E-1,1.03012756E-1,-6.337167E-1,-1.03396334E-1,5E-1,5E-1,5E-1,-4.536658E-1,5E-1,6E0,-3.825078E-1,5E-1,7.1177816E-1,5E-1,5E-1,5E-1,5E-1,5E-1,-4.0173084E-1,-6.885484E-3,2.490139E-2,-1.5047937E-2,2.5928563E-3,3.7748724E-2,-1.783961E-2,6.193069E-3,-1.4457114E-1,5.5777584E-3,-1.175411E-1,2.2207208E-2,8.3246715E-2,3.3866417E-2,-1.06595196E-1,-2.446388E-2,1.0935904E-1],"split_indices":[49,0,50,0,49,0,109,78,76,50,19,1,50,34,49,107,63,83,75,23,115,0,0,0,0,0,0,0,0,0,0,0,0,0,0,0,0],"split_type":[0,0,0,0,0,0,0,0,0,0,0,0,0,0,0,0,0,0,0,0,0,0,0,0,0,0,0,0,0,0,0,0,0,0,0,0,0],"sum_hessian":[4.5648228E3,1.3680978E2,4.428013E3,8.829854E1,4.3397144E3,1.3486632E2,4.204848E3,4.005266E3,1.9958208E2,3.7356255E3,2.6964062E2,1.4751318E2,5.2068893E1,4.9328738E2,3.2423381E3,2.4325339E2,2.6387245E1,5.1078785E1,9.6434395E1,1.842296E1,3.364593E1,1.6841145E2,3.2487592E2,2.0129633E3,1.2293749E3,2.132642E2,2.998919E1,1.9560768E1,6.8264756E0,4.436307E1,6.7157116E0,6.535408E1,3.1080317E1,1.6040558E1,2.382402E0,4.500799E0,2.9145134E1],"tree_param":{"num_deleted":"0","num_feature":"116","num_nodes":"37","size_leaf_vector":"0"}},{"base_weights":[-5.1739246E-2,-1.0292587E0,-2.3855686E-2,1.0249368E0,-4.3603484E-2,-1.0291448E0,-1.4547947E-2,3.512287E-2,-1.3646841E-1,5.4338865E-2,-3.2632583E-1,-1.709374E-1,2.4694866E-1,3.5828296E-2,4.313014E-1,-4.0684518E-1,3.7120435E-1,2.429131E-1,-1.9853587E-1,3.4423026E-1,-1.5901054E0,1.4751377E-2,3.4881845E-1,2.4861225E-1,9.635806E-1,-6.248557E-1,-1.0408258E-1,-4.775612E-2,1.0184755E0,3.9362192E-1,-5.167909E-1,-3.7958384E-1,-1.013448E-1,-7.916305E-1,5.128614E-1],"categories":[],"categories_nodes":[],"categories_segments":[],"categories_sizes":[],"default_left":[1,0,1,0,1,0,1,1,1,1,1,1,1,1,1,1,1,1,1,1,0,0,0,0,0,0,0,0,0,0,0,0,0,0,0],"id":26,"left_children":[1,-1,3,-1,5,-1,7,9,11,13,15,17,19,21,23,25,27,29,31,33,-1,-1,-1,-1,-1,-1,-1,-1,-1,-1,-1,-1,-1,-1,-1],"loss_changes":[1.2318698E2,0E0,9.10931E1,0E0,1.2356925E2,0E0,2.5398354E1,2.0716883E1,1.6086666E1,1.9735886E1,8.608452E0,1.2777317E1,1.8516151E1,1.7801132E1,1.2635126E1,8.877125E0,4.41642E0,8.2322235E0,1.835572E1,1.8853678E1,0E0,0E0,0E0,0E0,0E0,0E0,0E0,0E0,0E0,0E0,0E0,0E0,0E0,0E0,0E0],"parents":[2147483647,0,0,2,2,4,4,6,6,7,7,8,8,9,9,10,10,11,11,12,12,13,13,14,14,15,15,16,16,17,17,18,18,19,19],"right_children":[2,-1,4,-1,6,-1,8,10,12,14,16,18,20,22,24,26,28,30,32,34,-1,-1,-1,-1,-1,-1,-1,-1,-1,-1,-1,-1,-1,-1,-1],"split_conditions":[-1.0822151E0,-1.02925874E-1,-7.6676106E-1,1.0249368E-1,-6.337167E-1,-1.02914475E-1,6.5639913E-1,5E-1,2.5057714E0,1.6087748E0,5E-1,5E-1,5E-1,5E-1,1.1727538E0,5E-1,5E-1,1.6087748E0,3.1813912E-2,-5.670937E-1,-1.5901054E-1,1.4751377E-3,3.4881845E-2,2.4861226E-2,9.635806E-2,-6.2485572E-2,-1.0408258E-2,-4.775612E-3,1.0184755E-1,3.9362192E-2,-5.1679093E-2,-3.7958384E-2,-1.013448E-2,-7.916305E-2,5.128614E-2],"split_indices":[49,0,50,0,49,0,50,107,49,49,82,0,52,109,27,76,64,49,115,27,0,0,0,0,0,0,0,0,0,0,0,0,0,0,0],"split_type":[0,0,0,0,0,0,0,0,0,0,0,0,0,0,0,0,0,0,0,0,0,0,0,0,0,0,0,0,0,0,0,0,0,0,0],"sum_hessian":[4.5194087E3,1.24343994E2,4.395065E3,8.028491E1,4.31478E3,1.225789E2,4.1922007E3,2.9791833E3,1.2130176E3,2.8296006E3,1.4958272E2,1.1134713E3,9.954631E1,2.6982017E3,1.313989E2,1.344762E2,1.5106514E1,6.912416E1,1.0443472E3,9.531168E1,4.234633E0,2.5289482E3,1.6925354E2,9.891598E1,3.2482914E1,7.7562126E1,5.6914078E1,9.732901E0,5.373614E0,5.808352E1,1.1040637E1,3.637837E2,6.805634E2,1.1843321E1,8.346836E1],"tree_param":{"num_deleted":"0","num_feature":"116","num_nodes":"35","size_leaf_vector":"0"}},{"base_weights":[-4.722538E-2,-1.0247943E0,-2.1695776E-2,1.0200529E0,-3.9641224E-2,-1.0246693E0,-1.3162158E-2,4.9911182E-2,-9.5301196E-2,8.201061E-3,2.3068945E-1,-2.4492402E-1,-3.994222E-2,2.2991108E-2,-5.302722E-1,-5.3899703E-3,3.056908E-1,8.9126594E-2,-3.0887684E-1,-8.828009E-2,1.3268353E-1,1.7220374E-2,1.2954353E0,-6.293033E-1,5.799884E-1,-8.34353E-2,1.3989966E0,2.5063172E-1,6.522256E-1,7.276662E-1,-1.7339525E-1,-3.484003E-1,2.3763092E-1,-1.0112501E-1,9.2749137E-1,2.2467634E-1,-3.9273474E-1],"categories":[],"categories_nodes":[],"categories_segments":[],"categories_sizes":[],"default_left":[1,0,1,0,1,0,1,1,1,1,1,1,1,1,1,1,1,1,1,1,1,0,0,0,0,0,0,0,0,0,0,0,0,0,0,0,0],"id":27,"left_children":[1,-1,3,-1,5,-1,7,9,11,13,15,17,19,21,23,25,27,29,31,33,35,-1,-1,-1,-1,-1,-1,-1,-1,-1,-1,-1,-1,-1,-1,-1,-1],"loss_changes":[1.1176807E2,0E0,8.166771E1,0E0,1.1196874E2,0E0,2.167073E1,1.7839834E1,1.5038712E1,1.5332092E1,7.8553505E0,1.05055485E1,1.10874815E1,1.3732252E1,6.023567E0,1.1945753E1,6.2594147E0,1.3467196E1,8.979317E0,1.363148E1,1.4142359E1,0E0,0E0,0E0,0E0,0E0,0E0,0E0,0E0,0E0,0E0,0E0,0E0,0E0,0E0,0E0,0E0],"parents":[2147483647,0,0,2,2,4,4,6,6,7,7,8,8,9,9,10,10,11,11,12,12,13,13,14,14,15,15,16,16,17,17,18,18,19,19,20,20],"right_children":[2,-1,4,-1,6,-1,8,10,12,14,16,18,20,22,24,26,28,30,32,34,36,-1,-1,-1,-1,-1,-1,-1,-1,-1,-1,-1,-1,-1,-1,-1,-1],"split_conditions":[-1.0822151E0,-1.02479436E-1,-7.6676106E-1,1.02005295E-1,-6.337167E-1,-1.0246693E-1,3.1484067E-1,8.9890337E-1,2.6327989E-1,5E-1,-1.852184E-1,5.5E0,5E-1,3.782525E0,5E-1,2.0426776E0,5E-1,2E0,5E-1,5E-1,5E-1,1.7220374E-3,1.2954353E-1,-6.293033E-2,5.7998843E-2,-8.34353E-3,1.3989966E-1,2.5063172E-2,6.522256E-2,7.2766624E-2,-1.7339526E-2,-3.484003E-2,2.3763092E-2,-1.0112501E-2,9.274914E-2,2.2467634E-2,-3.9273474E-2],"split_indices":[49,0,50,0,49,0,50,115,49,107,49,0,101,27,101,27,12,1,16,58,107,0,0,0,0,0,0,0,0,0,0,0,0,0,0,0,0],"split_type":[0,0,0,0,0,0,0,0,0,0,0,0,0,0,0,0,0,0,0,0,0,0,0,0,0,0,0,0,0,0,0,0,0,0,0,0,0],"sum_hessian":[4.4783257E3,1.1298054E2,4.365345E3,7.2979515E1,4.2923657E3,1.1137799E2,4.180988E3,2.3651877E3,1.8157999E3,1.922633E3,4.4255472E2,4.8946423E2,1.3263357E3,1.8721682E3,5.0464855E1,1.0692338E2,3.3563135E2,7.858585E1,4.108784E2,1.0365691E3,2.897667E2,1.8647249E3,7.443288E0,4.6729916E1,3.734941E0,1.0218527E2,4.738106E0,2.9110284E2,4.4528507E1,2.2379559E1,5.620629E1,3.8350574E2,2.7372656E1,1.024514E3,1.205503E1,2.4707924E2,4.268746E1],"tree_param":{"num_deleted":"0","num_feature":"116","num_nodes":"37","size_leaf_vector":"0"}},{"base_weights":[-4.2994812E-2,-1.0206217E0,-1.9632319E-2,1.0154202E0,-3.5939705E-2,-1.0204843E0,-1.1812113E-2,1.5479834E-2,-1.8382919E-1,9.185868E-3,7.9372865E-1,-8.3531165E-1,-1.3528012E-1,-7.1899835E-3,2.9425398E-1,1.0546814E0,-1.4727128E-1,-3.167732E-1,-1.2949594E0,-1.5990408E-1,1.0102302E0,-7.866733E-2,6.904864E-2,3.2139674E-1,-6.3247234E-1,-9.657036E-1,1.2238183E0,8.7369674E-1,-1.1938338E0,-4.600139E-1,1.0121379E0,-1.4441445E0,2.6963168E-1,-1.9445366E-1,6.149502E-1,1.398973E0,-5.8307725E-1],"categories":[],"categories_nodes":[],"categories_segments":[],"categories_sizes":[],"default_left":[1,0,1,0,1,0,1,1,1,1,1,1,1,1,1,1,1,1,1,1,1,0,0,0,0,0,0,0,0,0,0,0,0,0,0,0,0],"id":28,"left_children":[1,-1,3,-1,5,-1,7,9,11,13,15,17,19,21,23,25,27,29,31,33,35,-1,-1,-1,-1,-1,-1,-1,-1,-1,-1,-1,-1,-1,-1,-1,-1],"loss_changes":[1.0141057E2,0E0,7.326315E1,0E0,1.0146807E2,0E0,1.9583551E1,1.762956E1,1.7953444E1,1.6680557E1,7.245569E0,8.985607E0,1.5189661E1,1.8422222E1,5.085968E0,8.948469E0,8.678889E0,4.2436943E0,5.1914864E0,1.4105536E1,7.8447075E0,0E0,0E0,0E0,0E0,0E0,0E0,0E0,0E0,0E0,0E0,0E0,0E0,0E0,0E0,0E0,0E0],"parents":[2147483647,0,0,2,2,4,4,6,6,7,7,8,8,9,9,10,10,11,11,12,12,13,13,14,14,15,15,16,16,17,17,18,18,19,19,20,20],"right_children":[2,-1,4,-1,6,-1,8,10,12,14,16,18,20,22,24,26,28,30,32,34,36,-1,-1,-1,-1,-1,-1,-1,-1,-1,-1,-1,-1,-1,-1,-1,-1],"split_conditions":[-1.0822151E0,-1.02062166E-1,-7.6676106E-1,1.0154202E-1,-6.337167E-1,-1.02048434E-1,1.2256632E0,2.9542696E0,1.2825896E0,5E-1,9.125679E-1,5E-1,5E-1,5E-1,9.125679E-1,2E0,5E-1,5E-1,5E-1,2.9126015E0,5E-1,-7.866733E-3,6.904864E-3,3.2139674E-2,-6.324723E-2,-9.6570365E-2,1.2238183E-1,8.736967E-2,-1.1938339E-1,-4.600139E-2,1.0121379E-1,-1.4441445E-1,2.6963169E-2,-1.9445365E-2,6.1495017E-2,1.398973E-1,-5.8307726E-2],"split_indices":[49,0,50,0,49,0,50,49,50,109,50,56,80,37,50,0,106,92,19,27,81,0,0,0,0,0,0,0,0,0,0,0,0,0,0,0,0],"split_type":[0,0,0,0,0,0,0,0,0,0,0,0,0,0,0,0,0,0,0,0,0,0,0,0,0,0,0,0,0,0,0,0,0,0,0,0,0],"sum_hessian":[4.439958E3,1.0262971E2,4.3373286E3,6.6324936E1,4.2710034E3,1.0117526E2,4.169828E3,3.5996272E3,5.702009E2,3.5717532E3,2.7874191E1,3.8421074E1,5.3177985E2,3.3786406E3,1.9311258E2,2.1727919E1,6.1462717E0,1.8847721E1,1.9573353E1,5.214315E2,1.0348316E1,1.7437551E3,1.6348854E3,1.8825208E2,4.860498E0,1.3146374E0,2.0413282E1,3.194789E0,2.951483E0,1.7604055E1,1.2436649E0,1.7939764E1,1.6335896E0,4.9989117E2,2.1540348E1,8.416731E0,1.9315856E0],"tree_param":{"num_deleted":"0","num_feature":"116","num_nodes":"37","size_leaf_vector":"0"}},{"base_weights":[-3.9166443E-2,-1.0166928E0,-1.7814374E-2,9.128771E-1,-3.4205124E-2,1.0109879E0,4.334755E-1,-1.0161586E0,-1.29660005E-2,-7.7763146E-1,8.345745E-1,-3.0830622E-2,2.0020291E-1,8.8932693E-1,1.978935E-1,8.518602E-2,-7.544924E-2,8.945449E-1,1.4037652E-1,2.3482615E-1,9.5530593E-1,-8.983056E-2,1.5737818E-1,-1.5178922E-1,2.3385275E-2,4.4622076E-1,1.8761704E0,1.9588812E-1,-5.4669636E-1,-3.3415295E-2,-7.2439754E-1,1.37695E-1,8.8253367E-1,-1.7604785E-1,3.1613415E-1,4.2546168E-1,-1.7668243E-2,-2.9801217E-1,1.3038149E0,2.3259017E0,8.893947E-1,5.021873E-2,4.756146E-1,-7.055829E-1,8.1176466E-1],"categories":[],"categories_nodes":[],"categories_segments":[],"categories_sizes":[],"default_left":[1,0,1,1,1,0,1,0,1,0,1,1,1,1,0,1,1,1,1,0,0,1,1,1,1,1,1,1,1,0,0,0,0,0,0,0,0,0,0,0,0,0,0,0,0],"id":29,"left_children":[1,-1,3,5,7,-1,9,-1,11,-1,13,15,17,19,-1,21,23,25,27,-1,-1,29,31,33,35,37,39,41,43,-1,-1,-1,-1,-1,-1,-1,-1,-1,-1,-1,-1,-1,-1,-1,-1],"loss_changes":[9.1986404E1,0E0,6.585208E1,3.075714E0,8.8437935E1,0E0,7.6649036E0,0E0,1.5818871E1,0E0,2.1903515E-1,1.9843237E1,1.3217437E1,2.1390915E-1,0E0,1.3468758E1,2.0889713E1,1.0294626E1,1.1431553E1,0E0,0E0,1.1131338E1,1.0644457E1,1.7785854E1,1.9934883E1,1.2308622E1,1.3122921E0,1.1200231E1,5.420452E0,0E0,0E0,0E0,0E0,0E0,0E0,0E0,0E0,0E0,0E0,0E0,0E0,0E0,0E0,0E0,0E0],"parents":[2147483647,0,0,2,2,3,3,4,4,6,6,8,8,10,10,11,11,12,12,13,13,15,15,16,16,17,17,18,18,21,21,22,22,23,23,24,24,25,25,26,26,27,27,28,28],"right_children":[2,-1,4,6,8,-1,10,-1,12,-1,14,16,18,20,-1,22,24,26,28,-1,-1,30,32,34,36,38,40,42,44,-1,-1,-1,-1,-1,-1,-1,-1,-1,-1,-1,-1,-1,-1,-1,-1],"split_conditions":[-1.0822151E0,-1.01669274E-1,-7.382978E-1,-7.6676106E-1,-6.337167E-1,1.0109879E-1,-6.337167E-1,-1.0161586E-1,5E-1,-7.776315E-2,5E-1,-1.9749698E-1,2.5E0,-1.1243054E0,1.9789351E-2,5E-1,7.1177816E-1,1.2E1,1.9827652E0,2.3482615E-2,9.553059E-2,1.1727538E0,5E-1,5E-1,1.7454308E-3,1.7632882E-1,7.0620966E-1,5E-1,5E-1,-3.3415295E-3,-7.243975E-2,1.37695E-2,8.825337E-2,-1.7604785E-2,3.1613417E-2,4.2546168E-2,-1.7668244E-3,-2.9801218E-2,1.303815E-1,2.3259018E-1,8.893947E-2,5.0218734E-3,4.7561463E-2,-7.0558295E-2,8.117647E-2],"split_indices":[49,0,50,50,49,0,49,0,11,0,113,50,1,115,0,34,49,0,115,0,0,27,16,16,50,115,50,77,79,0,0,0,0,0,0,0,0,0,0,0,0,0,0,0,0],"split_type":[0,0,0,0,0,0,0,0,0,0,0,0,0,0,0,0,0,0,0,0,0,0,0,0,0,0,0,0,0,0,0,0,0,0,0,0,0,0,0,0,0,0,0,0,0],"sum_hessian":[4.4069907E3,9.320757E1,4.313783E3,7.3710236E1,4.240073E3,6.0267483E1,1.3442755E1,8.877708E1,4.151296E3,3.1108575E0,1.0331898E1,3.8310872E3,3.2020886E2,9.148353E0,1.1835446E0,1.0638838E3,2.7672031E3,2.4294607E1,2.9591425E2,1.255281E0,7.8930717E0,3.1061377E2,7.532701E2,1.5609706E3,1.2062327E3,1.7676184E1,6.6184244E0,2.7445477E2,2.1459496E1,2.862204E2,2.4393356E1,7.345225E2,1.8747555E1,1.4846267E3,7.634396E1,1.1088325E2,1.0953494E3,9.812902E0,7.8632803E0,3.6141655E0,3.0042589E0,1.8124814E2,9.320662E1,1.9642675E1,1.8168203E0],"tree_param":{"num_deleted":"0","num_feature":"116","num_nodes":"45","size_leaf_vector":"0"}},{"base_weights":[-3.556014E-2,-1.0129639E0,-1.6032709E-2,1.006708E0,-2.9499058E-2,-1.0128298E0,-9.467742E-3,2.0105691E-1,-2.7426537E-2,6.919312E-2,4.6716416E-1,-1.7752302E-1,4.919038E-3,-4.3771856E-2,3.4552166E-1,5.585008E-1,-2.9064322E-1,-2.2155108E-1,1.4602149E-1,-7.7980794E-2,5.8299545E-2,5.0227642E-2,-5.365538E-1,4.3162844E-1,-6.268755E-1,5.933628E-1,-5.095737E-1,7.316129E-1,-1.0446771E0,-1.7195103E-1,-5.579194E-1,-4.4283837E-2,7.8925353E-1,-8.773918E-2,9.9221706E-1,1.2946812E-2,1.9705224E-1],"categories":[],"categories_nodes":[],"categories_segments":[],"categories_sizes":[],"default_left":[1,0,1,0,1,0,1,1,1,1,1,1,1,1,1,1,1,1,1,1,1,0,0,0,0,0,0,0,0,0,0,0,0,0,0,0,0],"id":30,"left_children":[1,-1,3,-1,5,-1,7,9,11,13,15,17,19,21,23,25,27,29,31,33,35,-1,-1,-1,-1,-1,-1,-1,-1,-1,-1,-1,-1,-1,-1,-1,-1],"loss_changes":[8.34435E1,0E0,5.9088562E1,0E0,8.337721E1,0E0,1.5695267E1,1.1417543E1,1.856906E1,6.8624854E0,7.633644E0,9.6918545E0,1.3932916E1,7.2805085E0,5.609675E0,3.9020538E0,1.0220967E1,9.868864E0,1.005125E1,1.2966766E1,1.2049444E1,0E0,0E0,0E0,0E0,0E0,0E0,0E0,0E0,0E0,0E0,0E0,0E0,0E0,0E0,0E0,0E0],"parents":[2147483647,0,0,2,2,4,4,6,6,7,7,8,8,9,9,10,10,11,11,12,12,13,13,14,14,15,15,16,16,17,17,18,18,19,19,20,20],"right_children":[2,-1,4,-1,6,-1,8,10,12,14,16,18,20,22,24,26,28,30,32,34,36,-1,-1,-1,-1,-1,-1,-1,-1,-1,-1,-1,-1,-1,-1,-1,-1],"split_conditions":[-1.0822151E0,-1.0129639E-1,-7.6676106E-1,1.0067081E-1,-6.337167E-1,-1.0128298E-1,-5.248238E-1,-1.852184E-1,-1.852184E-1,5E-1,5E-1,5E-1,7.5E0,5E-1,5E-1,5E-1,-5.9598184E-1,7.133255E-1,5E-1,5E-1,5E-1,5.022764E-3,-5.3655382E-2,4.3162845E-2,-6.268755E-2,5.9336282E-2,-5.095737E-2,7.31613E-2,-1.0446771E-1,-1.7195104E-2,-5.579194E-2,-4.428384E-3,7.8925356E-2,-8.773918E-3,9.922171E-2,1.2946812E-3,1.9705225E-2],"split_indices":[49,0,50,0,49,0,50,49,49,77,23,4,1,62,85,82,50,50,101,58,83,0,0,0,0,0,0,0,0,0,0,0,0,0,0,0,0],"split_type":[0,0,0,0,0,0,0,0,0,0,0,0,0,0,0,0,0,0,0,0,0,0,0,0,0,0,0,0,0,0,0,0,0,0,0,0,0],"sum_hessian":[4.3717827E3,8.463598E1,4.287147E3,5.47564E1,4.2323906E3,8.3506805E1,4.148884E3,3.2530084E2,3.8235828E3,2.1835812E2,1.0694271E2,6.770961E2,3.1464868E3,1.5559247E2,6.2765656E1,9.5674324E1,1.1268388E1,5.962706E2,8.082551E1,1.2322867E3,1.9142E3,1.3142152E2,2.417094E1,5.81707E1,4.5949574E0,9.308062E1,2.5937023E0,4.7960453E0,6.472342E0,5.2096204E2,7.530861E1,6.309076E1,1.7734749E1,1.2220616E3,1.022511E1,1.4434778E3,4.7072217E2],"tree_param":{"num_deleted":"0","num_feature":"116","num_nodes":"37","size_leaf_vector":"0"}},{"base_weights":[-3.237282E-2,-1.0093946E0,-1.4528689E-2,8.4692484E-1,-2.9136293E-2,1.0025367E0,4.3807292E-1,-1.0084927E0,-1.1828806E-2,-8.1845057E-1,7.7455413E-1,-2.7522674E-2,2.106602E-1,5.574555E-2,8.517073E-1,9.31718E-3,-1.3174172E-1,2.7192354E-1,-3.527212E-1,3.0832049E-2,9.536823E-1,-5.8693152E-2,8.6915284E-2,1.4983606E-1,-1.6805501E-1,3.1382042E-1,-4.904053E-1,-6.239259E-1,9.4329923E-1,1.0141336E0,9.401452E-2,3.094212E-1,-9.696548E-2,-1.23233005E-1,1.4083591E-1,4.044774E-1,-9.5706984E-2,-1.9219038E-1,2.8443098E-1,3.8106304E-1,-1.9138895E-1,-7.5799865E-1,8.204809E-1,1.0003642E0,-9.157402E-1],"categories":[],"categories_nodes":[],"categories_segments":[],"categories_sizes":[],"default_left":[1,0,1,1,1,0,1,0,1,0,1,1,1,0,1,1,1,1,1,0,1,1,1,1,1,1,1,1,0,0,0,0,0,0,0,0,0,0,0,0,0,0,0,0,0],"id":31,"left_children":[1,-1,3,5,7,-1,9,-1,11,-1,13,15,17,-1,19,21,23,25,27,-1,29,31,33,35,37,39,41,43,-1,-1,-1,-1,-1,-1,-1,-1,-1,-1,-1,-1,-1,-1,-1,-1,-1],"loss_changes":[7.5662704E1,0E0,5.368091E1,4.0863075E0,7.107367E1,0E0,9.675629E0,0E0,1.439856E1,0E0,9.16502E-1,1.4787827E1,9.473971E0,0E0,1.2787304E0,1.502678E1,1.0310396E1,7.9990788E0,1.0108255E1,0E0,6.252966E-1,2.1409405E1,1.5086666E1,7.256211E0,9.790157E0,8.003328E0,5.247527E0,1.1817469E1,0E0,0E0,0E0,0E0,0E0,0E0,0E0,0E0,0E0,0E0,0E0,0E0,0E0,0E0,0E0,0E0,0E0],"parents":[2147483647,0,0,2,2,3,3,4,4,6,6,8,8,10,10,11,11,12,12,14,14,15,15,16,16,17,17,18,18,20,20,21,21,22,22,23,23,24,24,25,25,26,26,27,27],"right_children":[2,-1,4,6,8,-1,10,-1,12,-1,14,16,18,-1,20,22,24,26,28,-1,30,32,34,36,38,40,42,44,-1,-1,-1,-1,-1,-1,-1,-1,-1,-1,-1,-1,-1,-1,-1,-1,-1],"split_conditions":[-1.0822151E0,-1.0093947E-1,-7.2406626E-1,-7.6676106E-1,-6.337167E-1,1.00253664E-1,-6.337167E-1,-1.0084927E-1,5E-1,-8.184506E-2,5E-1,7.133255E-1,5E-1,5.574555E-3,-1.1243054E0,5E-1,1.5E0,5E-1,1.6087748E0,3.0832049E-3,5E-1,-5.3905547E-1,-1.852184E-1,1.2541263E0,5E-1,5E-1,5E-1,-5.105922E-1,9.432992E-2,1.0141336E-1,9.401452E-3,3.0942122E-2,-9.696548E-3,-1.23233E-2,1.4083591E-2,4.0447738E-2,-9.570698E-3,-1.9219039E-2,2.8443098E-2,3.8106304E-2,-1.9138895E-2,-7.579987E-2,8.204809E-2,1.0003642E-1,-9.157402E-2],"split_indices":[49,0,50,50,49,0,49,0,78,0,0,50,19,0,115,37,0,6,49,0,19,50,49,50,95,107,110,50,0,0,0,0,0,0,0,0,0,0,0,0,0,0,0,0,0],"split_type":[0,0,0,0,0,0,0,0,0,0,0,0,0,0,0,0,0,0,0,0,0,0,0,0,0,0,0,0,0,0,0,0,0,0,0,0,0,0,0,0,0,0,0,0,0],"sum_hessian":[4.339765E3,7.684231E1,4.262923E3,7.0130684E1,4.192792E3,4.9745235E1,2.0385448E1,7.1815094E1,4.120977E3,4.0033474E0,1.6382101E1,3.8502644E3,2.707126E2,1.7548943E0,1.4627207E1,2.8453772E3,1.0048872E3,2.446285E2,2.6084105E1,1.7602174E0,1.286699E1,1.5164972E3,1.32888E3,1.1443305E2,8.9045416E2,2.3244203E2,1.2186458E1,2.1999155E1,4.0849504E0,1.1853761E1,1.0132291E0,1.4215211E2,1.3743451E3,2.7108356E2,1.0577965E3,5.5858013E1,5.857504E1,8.4590906E2,4.4545086E1,2.0535529E2,2.7086754E1,1.0470801E1,1.7156558E0,2.9805875E0,1.9018566E1],"tree_param":{"num_deleted":"0","num_feature":"116","num_nodes":"45","size_leaf_vector":"0"}},{"base_weights":[-2.9426964E-2,-1.0059471E0,-1.3122254E-2,8.9056796E-1,-2.5612798E-2,9.984322E-1,4.2586043E-1,-1.0052593E0,-9.548108E-3,-7.2320247E-1,7.697058E-1,-2.5774462E-2,1.829801E-1,8.298097E-1,1.3741824E-1,-6.7817518E-3,-2.4058808E-1,8.505395E-1,1.2868774E-1,3.7218148E-1,9.8637E-1,-6.2547974E-2,8.0963135E-2,-3.6787134E-1,5.6248277E-2,4.749741E-1,1.6332742E0,-3.6355343E-1,1.9538023E-1,-1.3811183E-1,7.093345E-1,-8.508951E-2,3.2049575E-1,1.2754038E-1,-1.18403204E-1,-3.9320594E-1,1.427474E0,-6.0276642E-2,1.1496847E0,-1.570159E-1,1.1493164E0,1.9306704E0,7.940429E-1,4.788734E-1,-7.211204E-1,1.2448534E-1,6.279804E-1],"categories":[],"categories_nodes":[],"categories_segments":[],"categories_sizes":[],"default_left":[1,0,1,1,1,0,1,0,1,0,1,1,1,1,0,1,1,1,1,1,0,1,1,1,1,1,1,1,1,0,0,0,0,0,0,0,0,0,0,0,0,0,0,0,0,0,0],"id":32,"left_children":[1,-1,3,5,7,-1,9,-1,11,-1,13,15,17,19,-1,21,23,25,27,29,-1,31,33,35,37,39,41,43,45,-1,-1,-1,-1,-1,-1,-1,-1,-1,-1,-1,-1,-1,-1,-1,-1,-1,-1],"loss_changes":[6.860176E1,0E0,4.7878963E1,2.4735146E0,6.58195E1,0E0,5.5499077E0,0E0,1.2864512E1,0E0,2.740407E-1,1.5491035E1,1.1491666E1,2.86788E-1,0E0,1.708177E1,1.1674173E1,6.2490406E0,9.827515E0,7.745293E-1,0E0,1.8455938E1,1.2611952E1,1.0386112E1,1.1973853E1,7.663455E0,2.9843712E-1,1.1132427E1,7.968856E0,0E0,0E0,0E0,0E0,0E0,0E0,0E0,0E0,0E0,0E0,0E0,0E0,0E0,0E0,0E0,0E0,0E0,0E0],"parents":[2147483647,0,0,2,2,3,3,4,4,6,6,8,8,10,10,11,11,12,12,13,13,15,15,16,16,17,17,18,18,19,19,21,21,22,22,23,23,24,24,25,25,26,26,27,27,28,28],"right_children":[2,-1,4,6,8,-1,10,-1,12,-1,14,16,18,20,-1,22,24,26,28,30,-1,32,34,36,38,40,42,44,46,-1,-1,-1,-1,-1,-1,-1,-1,-1,-1,-1,-1,-1,-1,-1,-1,-1,-1],"split_conditions":[-1.0822151E0,-1.00594714E-1,-7.382978E-1,-7.6676106E-1,-6.337167E-1,9.984323E-2,-6.337167E-1,-1.0052593E-1,5E-1,-7.2320245E-2,5E-1,5E-1,1.5E0,-5.670937E-1,1.3741824E-2,3.2084373E-1,1.1602765E0,1.2E1,6.5E0,5E-1,9.863701E-2,5E-1,1.2114315E0,1.65E1,2.1436014E0,1.7632882E-1,2.4776394E0,5E-1,5E-1,-1.3811183E-2,7.0933454E-2,-8.508951E-3,3.2049578E-2,1.2754038E-2,-1.184032E-2,-3.9320596E-2,1.427474E-1,-6.0276645E-3,1.1496847E-1,-1.570159E-2,1.1493164E-1,1.9306704E-1,7.940429E-2,4.788734E-2,-7.2112046E-2,1.2448534E-2,6.2798046E-2],"split_indices":[49,0,50,50,49,0,49,0,11,0,113,79,1,27,0,115,49,0,0,84,0,38,50,0,50,115,27,17,102,0,0,0,0,0,0,0,0,0,0,0,0,0,0,0,0,0,0],"split_type":[0,0,0,0,0,0,0,0,0,0,0,0,0,0,0,0,0,0,0,0,0,0,0,0,0,0,0,0,0,0,0,0,0,0,0,0,0,0,0,0,0,0,0,0,0,0,0],"sum_hessian":[4.3084766E3,6.975935E1,4.2387173E3,5.682919E1,4.181888E3,4.5191235E1,1.1637954E1,6.647665E1,4.115411E3,2.4263375E0,9.211616E0,3.796322E3,3.190894E2,8.126715E0,1.0849015E0,3.4888845E3,3.0743756E2,2.2896486E1,2.961929E2,2.9324262E0,5.1942883E0,2.1333328E3,1.3555516E3,2.1500446E2,9.2433105E1,1.655839E1,6.338098E0,3.4810894E1,2.6138202E2,1.4015253E0,1.530901E0,2.0155015E3,1.1783129E2,1.0991268E3,2.5642484E2,2.127828E2,2.221648E0,8.438525E1,8.047861E0,8.943627E0,7.614762E0,3.7195048E0,2.6185932E0,1.0271653E1,2.453924E1,2.2568442E2,3.5697594E1],"tree_param":{"num_deleted":"0","num_feature":"116","num_nodes":"47","size_leaf_vector":"0"}},{"base_weights":[-2.6586467E-2,-1.0025858E0,-1.1719555E-2,8.253779E-1,-2.3895508E-2,9.9435467E-1,4.1952783E-1,-1.0015054E0,-9.558134E-3,-7.888813E-1,7.249321E-1,-2.1787966E-2,2.3875543E-1,1.8804714E-2,8.062699E-1,-4.1802604E-2,1.5026845E-1,3.415525E-1,-5.7199508E-2,1.784882E-2,9.127758E-1,-5.5365678E-2,2.520362E-1,1.1179902E-1,8.662293E-1,3.6670226E-1,-1.1543976E0,2.330621E-1,-8.794279E-1,9.694288E-1,2.6953083E-1,-3.011252E-2,-2.5818667E-1,5.209481E-1,-7.449533E-2,5.9278125E-1,5.9287924E-2,1.0854764E0,-4.0260445E-2,2.9438376E-1,8.4139633E-1,3.729824E-2,1.1330327E0,-1.2091271E0,2.9279852E-1],"categories":[],"categories_nodes":[],"categories_segments":[],"categories_sizes":[],"default_left":[1,0,1,1,1,0,1,0,1,0,1,1,1,0,1,1,1,1,1,0,1,1,1,1,1,1,0,1,1,0,0,0,0,0,0,0,0,0,0,0,0,0,0,0,0],"id":33,"left_children":[1,-1,3,5,7,-1,9,-1,11,-1,13,15,17,-1,19,21,23,25,27,-1,29,31,33,35,37,39,-1,41,43,-1,-1,-1,-1,-1,-1,-1,-1,-1,-1,-1,-1,-1,-1,-1,-1],"loss_changes":[6.2207462E1,0E0,4.3079494E1,3.7385216E0,5.8369568E1,0E0,7.7842736E0,0E0,1.2474079E1,0E0,9.1076565E-1,1.3484953E1,5.8855295E0,0E0,1.19561E0,1.3990554E1,1.114276E1,5.8127613E0,1.2272405E1,0E0,2.0132828E-1,1.7166233E1,1.36415415E1,9.7751465E0,4.1498575E0,4.614687E0,0E0,6.6810207E0,5.533657E0,0E0,0E0,0E0,0E0,0E0,0E0,0E0,0E0,0E0,0E0,0E0,0E0,0E0,0E0,0E0,0E0],"parents":[2147483647,0,0,2,2,3,3,4,4,6,6,8,8,10,10,11,11,12,12,14,14,15,15,16,16,17,17,18,18,20,20,21,21,22,22,23,23,24,24,25,25,27,27,28,28],"right_children":[2,-1,4,6,8,-1,10,-1,12,-1,14,16,18,-1,20,22,24,26,28,-1,30,32,34,36,38,40,-1,42,44,-1,-1,-1,-1,-1,-1,-1,-1,-1,-1,-1,-1,-1,-1,-1,-1],"split_conditions":[-1.0822151E0,-1.0025858E-1,-7.2406626E-1,-7.6676106E-1,-6.337167E-1,9.943547E-2,-6.337167E-1,-1.0015054E-1,5E-1,-7.888813E-2,5E-1,1.6087748E0,5E-1,1.8804715E-3,-1.1243054E0,5E-1,2.9126015E0,5E-1,1.1559825E-1,1.7848819E-3,5E-1,1.2114315E0,5E-1,1.0136664E-1,5E-1,1.1727538E0,-1.15439765E-1,-5.5180974E-2,5E-1,9.694288E-2,2.6953084E-2,-3.011252E-3,-2.5818666E-2,5.2094813E-2,-7.4495333E-3,5.9278127E-2,5.9287925E-3,1.0854764E-1,-4.0260446E-3,2.9438376E-2,8.413964E-2,3.729824E-3,1.1330327E-1,-1.2091271E-1,2.9279852E-2],"split_indices":[49,0,50,50,49,0,49,0,109,0,0,49,94,0,115,16,27,25,50,0,30,50,106,50,64,27,0,50,104,0,0,0,0,0,0,0,0,0,0,0,0,0,0,0,0],"split_type":[0,0,0,0,0,0,0,0,0,0,0,0,0,0,0,0,0,0,0,0,0,0,0,0,0,0,0,0,0,0,0,0,0,0,0,0,0,0,0,0,0,0,0,0,0],"sum_hessian":[4.2869946E3,6.332505E1,4.2236694E3,5.9596825E1,4.1640728E3,4.1053883E1,1.8542944E1,5.9191357E1,4.1048813E3,3.421569E0,1.5121375E1,3.9130686E3,1.9181252E2,1.6890677E0,1.3432307E1,3.505988E3,4.0708063E2,1.4224948E2,4.956304E1,1.7375437E0,1.1694763E1,3.352074E3,1.5391412E2,3.8742023E2,1.9660398E1,1.4063992E2,1.6095529E0,3.716106E1,1.2401982E1,1.028209E1,1.4126735E0,2.9819421E3,3.701319E2,8.407751E1,6.983662E1,3.7120598E1,3.5029962E2,1.5672369E1,3.9880297E0,1.234524E2,1.7187521E1,3.1377245E1,5.783813E0,9.65496E0,2.747023E0],"tree_param":{"num_deleted":"0","num_feature":"116","num_nodes":"45","size_leaf_vector":"0"}},{"base_weights":[-2.4111433E-2,-9.99277E-1,-1.0549058E-2,9.9026597E-1,-1.9738995E-2,-9.991834E-1,-5.943219E-3,-1.9695599E-2,1.8916363E-1,5.9644043E-2,-6.1679203E-2,2.438693E-1,-3.2502022E-1,2.3403231E-2,3.9207447E-1,-5.3990543E-2,-7.404662E-1,2.672982E-1,-9.283871E-1,5.8739852E-2,-1.2484095E0,-1.7196703E-1,7.189417E-2,4.7300324E-1,-1.820758E-1,-2.4652149E-1,-2.7777424E-2,6.7525494E-1,-9.196501E-1,3.0712572E-1,-4.5043373E-1,8.127224E-2,-1.5188888E0,-2.2267531E-1,1.0409479E0,-1.6471695E0,-1.1291034E-1],"categories":[],"categories_nodes":[],"categories_segments":[],"categories_sizes":[],"default_left":[1,0,1,0,1,0,1,1,1,1,1,1,1,1,1,1,1,1,1,1,1,0,0,0,0,0,0,0,0,0,0,0,0,0,0,0,0],"id":34,"left_children":[1,-1,3,-1,5,-1,7,9,11,13,15,17,19,21,23,25,27,29,31,33,35,-1,-1,-1,-1,-1,-1,-1,-1,-1,-1,-1,-1,-1,-1,-1,-1],"loss_changes":[5.6386772E1,0E0,3.8711132E1,0E0,5.633298E1,0E0,1.1038534E1,1.2803551E1,7.6990128E0,1.6017225E1,1.3077517E1,6.988268E0,9.456028E0,1.138609E1,6.1592655E0,1.2541393E1,7.7422104E0,7.0382442E0,3.1237006E0,5.665818E0,3.3541498E0,0E0,0E0,0E0,0E0,0E0,0E0,0E0,0E0,0E0,0E0,0E0,0E0,0E0,0E0,0E0,0E0],"parents":[2147483647,0,0,2,2,4,4,6,6,7,7,8,8,9,9,10,10,11,11,12,12,13,13,14,14,15,15,16,16,17,17,18,18,19,19,20,20],"right_children":[2,-1,4,-1,6,-1,8,10,12,14,16,18,20,22,24,26,28,30,32,34,36,-1,-1,-1,-1,-1,-1,-1,-1,-1,-1,-1,-1,-1,-1,-1,-1],"split_conditions":[-1.0822151E0,-9.99277E-2,-7.6676106E-1,9.90266E-2,-6.337167E-1,-9.991834E-2,5E-1,-1.1210738E-1,5E-1,7.1177816E-1,5E-1,5E-1,5E-1,7.5E0,5E-1,-1.852184E-1,-7.6301813E-1,5E-1,5E-1,1.6087748E0,-6.9412574E-2,-1.7196704E-2,7.189417E-3,4.7300324E-2,-1.820758E-2,-2.465215E-2,-2.7777425E-3,6.75255E-2,-9.196501E-2,3.0712573E-2,-4.5043375E-2,8.127224E-3,-1.5188889E-1,-2.2267532E-2,1.04094796E-1,-1.6471694E-1,-1.1291034E-2],"split_indices":[49,0,50,0,49,0,78,50,19,49,20,21,63,0,98,49,115,6,102,49,50,0,0,0,0,0,0,0,0,0,0,0,0,0,0,0,0],"split_type":[0,0,0,0,0,0,0,0,0,0,0,0,0,0,0,0,0,0,0,0,0,0,0,0,0,0,0,0,0,0,0,0,0,0,0,0,0],"sum_hessian":[4.2632666E3,5.7482246E1,4.205784E3,3.7296654E1,4.1684873E3,5.6906807E1,4.1115806E3,3.8416926E3,2.6988806E2,1.3292625E3,2.5124302E3,2.4441019E2,2.547787E1,1.1995596E3,1.2970288E2,2.485358E3,2.7072252E1,2.4037793E2,4.032252E0,1.8659416E1,6.818456E0,2.3802187E2,9.615378E2,1.1383373E2,1.5869148E1,2.9682486E2,2.188533E3,2.7304697E0,2.4341782E1,2.2828244E2,1.2095486E1,1.8062437E0,2.226008E0,1.5104946E1,3.554469E0,4.7128158E0,2.1056404E0],"tree_param":{"num_deleted":"0","num_feature":"116","num_nodes":"37","size_leaf_vector":"0"}},{"base_weights":[-2.199735E-2,-9.9598855E-1,-9.625143E-3,8.082067E-1,-1.9923937E-2,9.861301E-1,4.2324817E-1,-9.9469197E-1,-8.050601E-3,-7.542896E-1,6.933709E-1,-1.0990994E-1,1.9310562E-2,2.8295519E-2,7.744892E-1,-1.1952585E-1,9.424317E-1,3.411323E-1,2.486656E-3,1.3910084E-2,8.8372153E-1,-8.789608E-2,-4.0618092E-1,-6.0223126E-1,1.3174913E0,4.2038485E-1,-3.741095E-1,-2.8051488E-2,1.4867638E-1,9.421373E-1,2.5380144E-1,2.2583468E-2,-1.8087633E-1,-4.4353917E-1,1.238115E0,1.498506E0,4.6717247E-1,1.6894957E-1,6.0492855E-1,-7.465154E-1,6.34527E-1,-5.2466486E-2,2.0510596E-1,1.8625689E-1,-4.658724E-1],"categories":[],"categories_nodes":[],"categories_segments":[],"categories_sizes":[],"default_left":[1,0,1,1,1,0,1,0,1,0,1,1,1,0,1,1,1,1,1,0,1,1,1,0,1,1,1,1,1,0,0,0,0,0,0,0,0,0,0,0,0,0,0,0,0],"id":35,"left_children":[1,-1,3,5,7,-1,9,-1,11,-1,13,15,17,-1,19,21,23,25,27,-1,29,31,33,-1,35,37,39,41,43,-1,-1,-1,-1,-1,-1,-1,-1,-1,-1,-1,-1,-1,-1,-1,-1],"loss_changes":[5.1088715E1,0E0,3.5291946E1,3.1517563E0,4.78736E1,0E0,6.319481E0,0E0,1.1396198E1,0E0,8.0589485E-1,8.8739605E0,1.7452148E1,0E0,1.1207571E0,7.751403E0,5.400559E0,9.234537E0,1.3684608E1,0E0,1.991167E-1,7.9629774E0,5.775035E0,0E0,3.3311367E-1,6.6088867E0,6.672593E0,1.4445282E1,1.2319606E1,0E0,0E0,0E0,0E0,0E0,0E0,0E0,0E0,0E0,0E0,0E0,0E0,0E0,0E0,0E0,0E0],"parents":[2147483647,0,0,2,2,3,3,4,4,6,6,8,8,10,10,11,11,12,12,14,14,15,15,16,16,17,17,18,18,20,20,21,21,22,22,24,24,25,25,26,26,27,27,28,28],"right_children":[2,-1,4,6,8,-1,10,-1,12,-1,14,16,18,-1,20,22,24,26,28,-1,30,32,34,-1,36,38,40,42,44,-1,-1,-1,-1,-1,-1,-1,-1,-1,-1,-1,-1,-1,-1,-1,-1],"split_conditions":[-1.0822151E0,-9.9598855E-2,-7.2406626E-1,-7.6676106E-1,-6.337167E-1,9.861302E-2,-6.337167E-1,-9.94692E-2,-1.852184E-1,-7.542896E-2,5E-1,2.9126015E0,-5.105922E-1,2.829552E-3,-1.1243054E0,7.133255E-1,-4.0443547E-2,5E-1,5E-1,1.3910084E-3,5E-1,-5.325373E-1,1.9264581E0,-6.022313E-2,7.905172E-1,-5.325373E-1,5E-1,5E-1,5E-1,9.421373E-2,2.5380144E-2,2.2583469E-3,-1.8087633E-2,-4.4353917E-2,1.238115E-1,1.4985059E-1,4.671725E-2,1.6894957E-2,6.0492855E-2,-7.465154E-2,6.3452706E-2,-5.2466486E-3,2.0510597E-2,1.862569E-2,-4.658724E-2],"split_indices":[49,0,50,50,49,0,49,0,49,0,0,27,50,0,115,50,115,98,101,0,30,67,67,0,115,67,113,81,6,0,0,0,0,0,0,0,0,0,0,0,0,0,0,0,0],"split_type":[0,0,0,0,0,0,0,0,0,0,0,0,0,0,0,0,0,0,0,0,0,0,0,0,0,0,0,0,0,0,0,0,0,0,0,0,0,0,0,0,0,0,0,0,0],"sum_hessian":[4.239375E3,5.217834E1,4.187197E3,5.110929E1,4.1360874E3,3.3885937E1,1.7223352E1,4.8777943E1,4.0873096E3,2.879302E0,1.434405E1,8.6480853E2,3.222501E3,1.7059634E0,1.2638086E1,8.578562E2,6.952359E0,1.5913608E2,3.0633647E3,1.728685E0,1.0909402E1,7.7378296E2,8.407325E1,1.2399589E0,5.7124004E0,1.4363304E2,1.5503041E1,2.5346914E3,5.2867346E2,9.52999E0,1.3794111E0,3.5396146E2,4.1982147E2,8.291958E1,1.1536694E0,4.081293E0,1.6311074E0,6.1608627E1,8.202441E1,1.1512358E1,3.990683E0,2.2951323E3,2.3955898E2,4.9886417E2,2.9809303E1],"tree_param":{"num_deleted":"0","num_feature":"116","num_nodes":"45","size_leaf_vector":"0"}},{"base_weights":[-1.9912373E-2,-9.926892E-1,-8.629749E-3,9.819111E-1,-1.6232101E-2,-9.926E-1,-4.7902046E-3,-1.949129E-2,1.6925813E-1,-2.7316292E-3,-2.1046874E-1,-2.0396698E-1,2.4925698E-1,-7.6265596E-2,4.7894105E-2,-2.7225122E-1,3.3906192E-1,-6.9288075E-1,2.6575845E-1,1.0431387E0,1.8410434E-1,3.5667622E-1,-1.0310614E-1,3.0021118E-2,3.6259016E-1,-2.9311594E-1,1.4173998E0,8.298275E-1,-3.401879E-1,4.9333476E-2,-9.76723E-1,6.517367E-1,-5.4578084E-1,6.831062E-1,1.5920461E0,1.4643133E-1,1.3113203E0],"categories":[],"categories_nodes":[],"categories_segments":[],"categories_sizes":[],"default_left":[1,0,1,0,1,0,1,1,1,1,1,1,1,1,1,1,1,1,1,1,1,0,0,0,0,0,0,0,0,0,0,0,0,0,0,0,0],"id":36,"left_children":[1,-1,3,-1,5,-1,7,9,11,13,15,17,19,21,23,25,27,29,31,33,35,-1,-1,-1,-1,-1,-1,-1,-1,-1,-1,-1,-1,-1,-1,-1,-1],"loss_changes":[4.629834E1,0E0,3.1431128E1,0E0,4.625609E1,0E0,1.047864E1,1.2085453E1,9.574587E0,1.293043E1,1.043482E1,1.32404995E1,1.3417467E1,1.649416E1,1.1559729E1,1.0088987E1,1.0693749E1,5.975281E0,9.664392E0,2.8139286E0,1.0185672E1,0E0,0E0,0E0,0E0,0E0,0E0,0E0,0E0,0E0,0E0,0E0,0E0,0E0,0E0,0E0,0E0],"parents":[2147483647,0,0,2,2,4,4,6,6,7,7,8,8,9,9,10,10,11,11,12,12,13,13,14,14,15,15,16,16,17,17,18,18,19,19,20,20],"right_children":[2,-1,4,-1,6,-1,8,10,12,14,16,18,20,22,24,26,28,30,32,34,36,-1,-1,-1,-1,-1,-1,-1,-1,-1,-1,-1,-1,-1,-1,-1,-1],"split_conditions":[-1.0822151E0,-9.926892E-2,-7.6676106E-1,9.819111E-2,-6.337167E-1,-9.926E-2,5E-1,5E-1,5E-1,6E0,5E-1,5E-1,2.5E0,-5.9598184E-1,5E-1,1.65E1,5E-1,-5.670937E-1,8.6277467E-1,1.2E1,5E-1,3.5667624E-2,-1.03106145E-2,3.0021118E-3,3.6259018E-2,-2.9311595E-2,1.4173998E-1,8.298275E-2,-3.4018792E-2,4.9333475E-3,-9.7672306E-2,6.517367E-2,-5.4578084E-2,6.831062E-2,1.5920462E-1,1.4643133E-2,1.3113204E-1],"split_indices":[49,0,50,0,49,0,11,79,34,1,19,75,1,50,109,0,65,27,115,0,8,0,0,0,0,0,0,0,0,0,0,0,0,0,0,0,0],"split_type":[0,0,0,0,0,0,0,0,0,0,0,0,0,0,0,0,0,0,0,0,0,0,0,0,0,0,0,0,0,0,0,0,0,0,0,0,0],"sum_hessian":[4.2181255E3,4.7365147E1,4.1707603E3,3.0790451E1,4.1399697E3,4.69604E1,4.0930095E3,3.7750369E3,3.179725E2,3.4714097E3,